svm_type c_svc
kernel_type rbf
gamma 0.0
nr_class 10
total_sv 100
rho 0.0 0.0 0.0 0.0 0.0 0.0 0.0 0.0 0.0 0.0 0.0 0.0 0.0 0.0 0.0 0.0 0.0 0.0 0.0 0.0 0.0 0.0 0.0 0.0 0.0 0.0 0.0 0.0 0.0 0.0 0.0 0.0 0.0 0.0 0.0 0.0 0.0 0.0 0.0 0.0 0.0 0.0 0.0 0.0 0.0
label 1 2 3 4 5 6 7 8 9 10
nr_sv 10 10 10 10 10 10 10 10 10 10
SV
1000.0 1000.0 1000.0 1000.0 1000.0 1000.0 1000.0 1000.0 1000.0 1:-0.13 2:-0.88 3:-0.46 4:1.0 5:1.0 6:1.0 7:1.0 8:1.0 9:-0.42 10:0.53 11:-0.74 12:-0.18 13:0.05 14:-0.98 
1000.0 1000.0 1000.0 1000.0 1000.0 1000.0 1000.0 1000.0 1000.0 1:-0.05 2:-0.94 3:-0.34 4:1.0 5:1.0 6:1.0 7:1.0 8:1.0 9:-0.41 10:0.37 11:-0.83 12:-0.13 13:-0.08 14:-0.99 
1000.0 1000.0 1000.0 1000.0 1000.0 1000.0 1000.0 1000.0 1000.0 1:-0.03 2:-0.95 3:-0.32 4:1.0 5:1.0 6:1.0 7:1.0 8:1.0 9:-0.38 10:0.37 11:-0.85 12:-0.09 13:-0.05 14:-0.99 
1000.0 1000.0 1000.0 1000.0 1000.0 1000.0 1000.0 1000.0 1000.0 1:-0.03 2:-0.95 3:-0.31 4:1.0 5:1.0 6:1.0 7:1.0 8:1.0 9:-0.39 10:0.37 11:-0.84 12:-0.1 13:-0.05 14:-0.99 
1000.0 1000.0 1000.0 1000.0 1000.0 1000.0 1000.0 1000.0 1000.0 1:-0.03 2:-0.96 3:-0.29 4:1.0 5:1.0 6:1.0 7:1.0 8:1.0 9:-0.39 10:0.35 11:-0.85 12:-0.11 13:-0.05 14:-0.99 
1000.0 1000.0 1000.0 1000.0 1000.0 1000.0 1000.0 1000.0 1000.0 1:-0.09 2:-0.95 3:-0.29 4:1.0 5:1.0 6:1.0 7:1.0 8:1.0 9:-0.41 10:0.38 11:-0.83 12:-0.13 13:0.03 14:-0.99 
1000.0 1000.0 1000.0 1000.0 1000.0 1000.0 1000.0 1000.0 1000.0 1:-0.12 2:-0.95 3:-0.3 4:1.0 5:1.0 6:1.0 7:1.0 8:1.0 9:-0.4 10:0.35 11:-0.84 12:-0.11 13:0.04 14:-0.99 
1000.0 1000.0 1000.0 1000.0 1000.0 1000.0 1000.0 1000.0 1000.0 1:-0.12 2:-0.95 3:-0.3 4:1.0 5:1.0 6:1.0 7:1.0 8:1.0 9:-0.4 10:0.34 11:-0.85 12:-0.11 13:0.02 14:-0.99 
1000.0 1000.0 1000.0 1000.0 1000.0 1000.0 1000.0 1000.0 1000.0 1:-0.12 2:-0.95 3:-0.29 4:1.0 5:1.0 6:1.0 7:1.0 8:1.0 9:-0.42 10:0.33 11:-0.85 12:-0.11 13:0.02 14:-0.99 
1000.0 1000.0 1000.0 1000.0 1000.0 1000.0 1000.0 1000.0 1000.0 1:-0.11 2:-0.95 3:-0.29 4:1.0 5:1.0 6:1.0 7:1.0 8:1.0 9:-0.42 10:0.31 11:-0.85 12:-0.12 13:0.02 14:-0.99 
-1000.0 1000.0 1000.0 1000.0 1000.0 1000.0 1000.0 1000.0 1000.0 1:-0.09 2:-0.95 3:-0.29 4:1.0 5:1.0 6:1.0 7:1.0 8:1.0 9:-0.42 10:0.29 11:-0.86 12:-0.12 13:0.02 14:-0.99 
-1000.0 1000.0 1000.0 1000.0 1000.0 1000.0 1000.0 1000.0 1000.0 1:0.05 2:-0.87 3:-0.5 4:0.0 5:0.0 6:0.0 7:0.0 8:0.0 9:0.16 10:-0.06 11:-0.99 12:0.21 13:-0.67 14:0.71 
-1000.0 1000.0 1000.0 1000.0 1000.0 1000.0 1000.0 1000.0 1000.0 1:-0.04 2:-0.88 3:-0.48 4:0.0 5:0.0 6:0.0 7:0.0 8:0.0 9:0.15 10:-0.13 11:-0.98 12:0.2 13:-0.75 14:0.63 
-1000.0 1000.0 1000.0 1000.0 1000.0 1000.0 1000.0 1000.0 1000.0 1:-0.04 2:-0.91 3:-0.41 4:0.0 5:0.0 6:0.0 7:0.0 8:0.0 9:0.09 10:-0.17 11:-0.98 12:0.19 13:-0.8 14:0.57 
-1000.0 1000.0 1000.0 1000.0 1000.0 1000.0 1000.0 1000.0 1000.0 1:-0.06 2:-0.9 3:-0.43 4:0.0 5:0.0 6:0.0 7:0.0 8:0.0 9:0.03 10:-0.13 11:-0.99 12:0.15 13:-0.87 14:0.47 
-1000.0 1000.0 1000.0 1000.0 1000.0 1000.0 1000.0 1000.0 1000.0 1:-0.1 2:-0.9 3:-0.43 4:0.0 5:0.0 6:0.0 7:0.0 8:0.0 9:0.06 10:-0.19 11:-0.98 12:0.11 13:-0.87 14:0.48 
-1000.0 1000.0 1000.0 1000.0 1000.0 1000.0 1000.0 1000.0 1000.0 1:-0.08 2:-0.92 3:-0.39 4:0.0 5:0.0 6:0.0 7:0.0 8:0.0 9:0.11 10:-0.24 11:-0.97 12:0.11 13:-0.88 14:0.47 
-1000.0 1000.0 1000.0 1000.0 1000.0 1000.0 1000.0 1000.0 1000.0 1:-0.12 2:-0.9 3:-0.41 4:0.0 5:0.0 6:0.0 7:0.0 8:0.0 9:0.1 10:-0.24 11:-0.97 12:0.08 13:-0.91 14:0.41 
-1000.0 1000.0 1000.0 1000.0 1000.0 1000.0 1000.0 1000.0 1000.0 1:-0.12 2:-0.9 3:-0.41 4:0.0 5:0.0 6:0.0 7:0.0 8:0.0 9:0.1 10:-0.23 11:-0.97 12:0.07 13:-0.91 14:0.4 
-1000.0 1000.0 1000.0 1000.0 1000.0 1000.0 1000.0 1000.0 1000.0 1:-0.12 2:-0.9 3:-0.42 4:0.0 5:0.0 6:0.0 7:0.0 8:0.0 9:0.11 10:-0.23 11:-0.97 12:0.07 13:-0.92 14:0.4 
-1000.0 -1000.0 1000.0 1000.0 1000.0 1000.0 1000.0 1000.0 1000.0 1:-0.11 2:-0.9 3:-0.41 4:0.0 5:0.0 6:0.0 7:0.0 8:0.0 9:0.12 10:-0.24 11:-0.96 12:0.07 13:-0.91 14:0.4 
-1000.0 -1000.0 1000.0 1000.0 1000.0 1000.0 1000.0 1000.0 1000.0 1:-0.9 2:-0.36 3:-0.26 4:0.0 5:1.0 6:1.0 7:0.0 8:0.0 9:-0.19 10:-0.48 11:-0.86 12:-0.29 13:0.13 14:-0.95 
-1000.0 -1000.0 1000.0 1000.0 1000.0 1000.0 1000.0 1000.0 1000.0 1:-0.92 2:-0.35 3:-0.15 4:0.0 5:1.0 6:1.0 7:0.0 8:0.0 9:-0.28 10:-0.51 11:-0.81 12:-0.32 13:0.02 14:-0.95 
-1000.0 -1000.0 1000.0 1000.0 1000.0 1000.0 1000.0 1000.0 1000.0 1:-0.92 2:-0.36 3:-0.13 4:0.0 5:1.0 6:1.0 7:0.0 8:0.0 9:-0.31 10:-0.47 11:-0.83 12:-0.33 13:0.0 14:-0.94 
-1000.0 -1000.0 1000.0 1000.0 1000.0 1000.0 1000.0 1000.0 1000.0 1:-0.92 2:-0.37 3:-0.11 4:0.0 5:1.0 6:1.0 7:0.0 8:0.0 9:-0.31 10:-0.49 11:-0.81 12:-0.34 13:-0.02 14:-0.94 
-1000.0 -1000.0 1000.0 1000.0 1000.0 1000.0 1000.0 1000.0 1000.0 1:-0.93 2:-0.36 3:-0.1 4:0.0 5:1.0 6:1.0 7:0.0 8:0.0 9:-0.31 10:-0.52 11:-0.8 12:-0.35 13:-0.03 14:-0.94 
-1000.0 -1000.0 1000.0 1000.0 1000.0 1000.0 1000.0 1000.0 1000.0 1:-0.92 2:-0.38 3:-0.09 4:0.0 5:1.0 6:1.0 7:0.0 8:0.0 9:-0.31 10:-0.52 11:-0.79 12:-0.36 13:-0.04 14:-0.93 
-1000.0 -1000.0 1000.0 1000.0 1000.0 1000.0 1000.0 1000.0 1000.0 1:-0.92 2:-0.39 3:-0.08 4:0.0 5:1.0 6:1.0 7:0.0 8:0.0 9:-0.31 10:-0.52 11:-0.8 12:-0.36 13:-0.05 14:-0.93 
-1000.0 -1000.0 1000.0 1000.0 1000.0 1000.0 1000.0 1000.0 1000.0 1:-0.92 2:-0.39 3:-0.08 4:0.0 5:1.0 6:1.0 7:0.0 8:0.0 9:-0.3 10:-0.52 11:-0.79 12:-0.36 13:-0.05 14:-0.93 
-1000.0 -1000.0 1000.0 1000.0 1000.0 1000.0 1000.0 1000.0 1000.0 1:-0.91 2:-0.4 3:-0.08 4:0.0 5:1.0 6:1.0 7:0.0 8:0.0 9:-0.29 10:-0.54 11:-0.79 12:-0.36 13:-0.05 14:-0.93 
-1000.0 -1000.0 -1000.0 1000.0 1000.0 1000.0 1000.0 1000.0 1000.0 1:-0.01 2:0.99 3:0.13 4:1.0 5:1.0 6:1.0 7:1.0 8:1.0 9:0.44 10:0.32 11:-0.84 12:0.14 13:0.4 14:-0.9 
-1000.0 -1000.0 -1000.0 1000.0 1000.0 1000.0 1000.0 1000.0 1000.0 1:-0.02 2:0.99 3:0.16 4:1.0 5:1.0 6:1.0 7:1.0 8:1.0 9:0.45 10:0.24 11:-0.86 12:0.21 13:0.34 14:-0.92 
-1000.0 -1000.0 -1000.0 1000.0 1000.0 1000.0 1000.0 1000.0 1000.0 1:0.0 2:0.98 3:0.18 4:1.0 5:1.0 6:1.0 7:1.0 8:1.0 9:0.45 10:0.26 11:-0.85 12:0.25 13:0.34 14:-0.91 
-1000.0 -1000.0 -1000.0 1000.0 1000.0 1000.0 1000.0 1000.0 1000.0 1:-0.05 2:0.98 3:0.21 4:1.0 5:1.0 6:1.0 7:1.0 8:1.0 9:0.41 10:0.27 11:-0.87 12:0.32 13:0.33 14:-0.89 
-1000.0 -1000.0 -1000.0 1000.0 1000.0 1000.0 1000.0 1000.0 1000.0 1:-0.05 2:0.98 3:0.21 4:1.0 5:1.0 6:1.0 7:1.0 8:1.0 9:0.4 10:0.28 11:-0.87 12:0.33 13:0.33 14:-0.89 
-1000.0 -1000.0 -1000.0 1000.0 1000.0 1000.0 1000.0 1000.0 1000.0 1:-0.05 2:0.98 3:0.2 4:1.0 5:1.0 6:1.0 7:1.0 8:1.0 9:0.41 10:0.28 11:-0.87 12:0.33 13:0.32 14:-0.89 
-1000.0 -1000.0 -1000.0 1000.0 1000.0 1000.0 1000.0 1000.0 1000.0 1:-0.03 2:0.98 3:0.2 4:1.0 5:1.0 6:1.0 7:1.0 8:1.0 9:0.41 10:0.3 11:-0.86 12:0.33 13:0.33 14:-0.89 
-1000.0 -1000.0 -1000.0 1000.0 1000.0 1000.0 1000.0 1000.0 1000.0 1:-0.03 2:0.98 3:0.2 4:1.0 5:1.0 6:1.0 7:1.0 8:1.0 9:0.41 10:0.31 11:-0.86 12:0.33 13:0.34 14:-0.88 
-1000.0 -1000.0 -1000.0 1000.0 1000.0 1000.0 1000.0 1000.0 1000.0 1:-0.04 2:0.98 3:0.2 4:1.0 5:1.0 6:1.0 7:1.0 8:1.0 9:0.41 10:0.31 11:-0.86 12:0.32 13:0.34 14:-0.88 
-1000.0 -1000.0 -1000.0 1000.0 1000.0 1000.0 1000.0 1000.0 1000.0 1:-0.05 2:0.98 3:0.2 4:1.0 5:1.0 6:1.0 7:1.0 8:1.0 9:0.41 10:0.31 11:-0.86 12:0.31 13:0.35 14:-0.88 
-1000.0 -1000.0 -1000.0 -1000.0 1000.0 1000.0 1000.0 1000.0 1000.0 1:-0.05 2:0.98 3:0.2 4:1.0 5:1.0 6:1.0 7:1.0 8:1.0 9:0.41 10:0.31 11:-0.86 12:0.31 13:0.35 14:-0.88 
-1000.0 -1000.0 -1000.0 -1000.0 1000.0 1000.0 1000.0 1000.0 1000.0 1:-0.05 2:0.98 3:0.19 4:1.0 5:1.0 6:1.0 7:1.0 8:1.0 9:0.41 10:0.31 11:-0.86 12:0.31 13:0.36 14:-0.88 
-1000.0 -1000.0 -1000.0 -1000.0 1000.0 1000.0 1000.0 1000.0 1000.0 1:-0.97 2:-0.22 3:0.08 4:1.0 5:0.0 6:0.0 7:0.0 8:0.0 9:-0.46 10:0.4 11:-0.8 12:-0.5 13:-0.45 14:0.74 
-1000.0 -1000.0 -1000.0 -1000.0 1000.0 1000.0 1000.0 1000.0 1000.0 1:-0.98 2:-0.17 3:0.09 4:1.0 5:0.0 6:0.0 7:0.0 8:0.0 9:-0.45 10:0.43 11:-0.78 12:-0.51 13:-0.43 14:0.75 
-1000.0 -1000.0 -1000.0 -1000.0 1000.0 1000.0 1000.0 1000.0 1000.0 1:-0.98 2:-0.14 3:0.11 4:1.0 5:0.0 6:0.0 7:0.0 8:0.0 9:-0.45 10:0.43 11:-0.78 12:-0.5 13:-0.41 14:0.76 
-1000.0 -1000.0 -1000.0 -1000.0 1000.0 1000.0 1000.0 1000.0 1000.0 1:-0.98 2:-0.14 3:0.16 4:1.0 5:0.0 6:0.0 7:0.0 8:0.0 9:-0.49 10:0.39 11:-0.78 12:-0.46 13:-0.36 14:0.81 
-1000.0 -1000.0 -1000.0 -1000.0 1000.0 1000.0 1000.0 1000.0 1000.0 1:-0.85 2:-0.37 3:0.38 4:1.0 5:0.0 6:0.0 7:0.0 8:0.0 9:-0.73 10:0.18 11:-0.66 12:-0.17 13:-0.39 14:0.9 
-1000.0 -1000.0 -1000.0 -1000.0 1000.0 1000.0 1000.0 1000.0 1000.0 1:-0.86 2:0.5 3:0.09 4:1.0 5:0.0 6:0.0 7:0.0 8:0.0 9:-0.36 10:-0.05 11:-0.93 12:0.28 13:0.62 14:0.74 
-1000.0 -1000.0 -1000.0 -1000.0 1000.0 1000.0 1000.0 1000.0 1000.0 1:-0.86 2:0.52 3:0.01 4:1.0 5:0.0 6:0.0 7:0.0 8:0.0 9:-0.41 10:-0.19 11:-0.89 12:0.19 13:0.79 14:0.59 
-1000.0 -1000.0 -1000.0 -1000.0 1000.0 1000.0 1000.0 1000.0 1000.0 1:-0.86 2:0.51 3:0.02 4:1.0 5:0.0 6:0.0 7:0.0 8:0.0 9:-0.41 10:-0.23 11:-0.88 12:0.13 13:0.85 14:0.5 
-1000.0 -1000.0 -1000.0 -1000.0 -1000.0 1000.0 1000.0 1000.0 1000.0 1:0.2 2:-0.98 3:0.0 4:0.0 5:1.0 6:1.0 7:0.0 8:1.0 9:0.27 10:-0.46 11:-0.84 12:-0.63 13:-0.18 14:-0.76 
-1000.0 -1000.0 -1000.0 -1000.0 -1000.0 1000.0 1000.0 1000.0 1000.0 1:0.18 2:-0.98 3:0.11 4:0.0 5:1.0 6:1.0 7:0.0 8:1.0 9:0.28 10:-0.55 11:-0.79 12:-0.65 13:-0.17 14:-0.74 
-1000.0 -1000.0 -1000.0 -1000.0 -1000.0 1000.0 1000.0 1000.0 1000.0 1:0.17 2:-0.96 3:0.22 4:0.0 5:1.0 6:1.0 7:0.0 8:1.0 9:0.27 10:-0.69 11:-0.68 12:-0.65 13:-0.16 14:-0.74 
-1000.0 -1000.0 -1000.0 -1000.0 -1000.0 1000.0 1000.0 1000.0 1000.0 1:0.17 2:-0.95 3:0.24 4:0.0 5:1.0 6:1.0 7:0.0 8:1.0 9:0.19 10:-0.68 11:-0.71 12:-0.65 13:-0.12 14:-0.75 
-1000.0 -1000.0 -1000.0 -1000.0 -1000.0 1000.0 1000.0 1000.0 1000.0 1:0.17 2:-0.95 3:0.26 4:0.0 5:1.0 6:1.0 7:0.0 8:1.0 9:0.16 10:-0.69 11:-0.7 12:-0.64 13:-0.11 14:-0.76 
-1000.0 -1000.0 -1000.0 -1000.0 -1000.0 1000.0 1000.0 1000.0 1000.0 1:0.18 2:-0.95 3:0.25 4:0.0 5:1.0 6:1.0 7:0.0 8:1.0 9:0.16 10:-0.68 11:-0.72 12:-0.64 13:-0.11 14:-0.76 
-1000.0 -1000.0 -1000.0 -1000.0 -1000.0 1000.0 1000.0 1000.0 1000.0 1:0.17 2:-0.95 3:0.25 4:0.0 5:1.0 6:1.0 7:0.0 8:1.0 9:0.1 10:-0.68 11:-0.73 12:-0.64 13:-0.1 14:-0.76 
-1000.0 -1000.0 -1000.0 -1000.0 -1000.0 1000.0 1000.0 1000.0 1000.0 1:0.16 2:-0.95 3:0.28 4:0.0 5:1.0 6:1.0 7:0.0 8:1.0 9:0.18 10:-0.69 11:-0.7 12:-0.64 13:-0.11 14:-0.76 
-1000.0 -1000.0 -1000.0 -1000.0 -1000.0 1000.0 1000.0 1000.0 1000.0 1:0.16 2:-0.95 3:0.28 4:0.0 5:1.0 6:1.0 7:0.0 8:1.0 9:0.22 10:-0.68 11:-0.7 12:-0.63 13:-0.1 14:-0.77 
-1000.0 -1000.0 -1000.0 -1000.0 -1000.0 1000.0 1000.0 1000.0 1000.0 1:0.15 2:-0.96 3:0.24 4:0.0 5:1.0 6:1.0 7:0.0 8:1.0 9:0.16 10:-0.63 11:-0.76 12:-0.59 13:-0.12 14:-0.8 
-1000.0 -1000.0 -1000.0 -1000.0 -1000.0 -1000.0 1000.0 1000.0 1000.0 1:-0.15 2:0.07 3:0.99 4:0.0 5:1.0 6:1.0 7:0.0 8:0.0 9:0.13 10:-0.77 11:0.63 12:-0.33 13:-0.86 14:0.4 
-1000.0 -1000.0 -1000.0 -1000.0 -1000.0 -1000.0 1000.0 1000.0 1000.0 1:0.06 2:0.29 3:0.95 4:0.0 5:1.0 6:1.0 7:0.0 8:0.0 9:0.25 10:-0.62 11:0.74 12:-0.26 13:-0.88 14:0.39 
-1000.0 -1000.0 -1000.0 -1000.0 -1000.0 -1000.0 1000.0 1000.0 1000.0 1:0.04 2:0.35 3:0.94 4:0.0 5:1.0 6:1.0 7:0.0 8:0.0 9:0.3 10:-0.56 11:0.77 12:-0.27 13:-0.88 14:0.38 
-1000.0 -1000.0 -1000.0 -1000.0 -1000.0 -1000.0 1000.0 1000.0 1000.0 1:0.1 2:0.37 3:0.92 4:0.0 5:1.0 6:1.0 7:0.0 8:0.0 9:0.38 10:-0.53 11:0.76 12:-0.26 13:-0.9 14:0.35 
-1000.0 -1000.0 -1000.0 -1000.0 -1000.0 -1000.0 1000.0 1000.0 1000.0 1:0.15 2:0.38 3:0.91 4:0.0 5:1.0 6:1.0 7:0.0 8:0.0 9:0.42 10:-0.52 11:0.74 12:-0.24 13:-0.91 14:0.34 
-1000.0 -1000.0 -1000.0 -1000.0 -1000.0 -1000.0 1000.0 1000.0 1000.0 1:0.15 2:0.39 3:0.91 4:0.0 5:1.0 6:1.0 7:0.0 8:0.0 9:0.42 10:-0.51 11:0.75 12:-0.23 13:-0.92 14:0.31 
-1000.0 -1000.0 -1000.0 -1000.0 -1000.0 -1000.0 1000.0 1000.0 1000.0 1:0.17 2:0.37 3:0.91 4:0.0 5:1.0 6:1.0 7:0.0 8:0.0 9:0.46 10:-0.52 11:0.72 12:-0.22 13:-0.92 14:0.34 
-1000.0 -1000.0 -1000.0 -1000.0 -1000.0 -1000.0 1000.0 1000.0 1000.0 1:0.24 2:0.4 3:0.89 4:0.0 5:1.0 6:1.0 7:0.0 8:0.0 9:0.52 10:-0.49 11:0.7 12:-0.19 13:-0.93 14:0.3 
-1000.0 -1000.0 -1000.0 -1000.0 -1000.0 -1000.0 1000.0 1000.0 1000.0 1:0.29 2:0.45 3:0.85 4:0.0 5:1.0 6:1.0 7:0.0 8:0.0 9:0.52 10:-0.47 11:0.71 12:-0.21 13:-0.92 14:0.33 
-1000.0 -1000.0 -1000.0 -1000.0 -1000.0 -1000.0 1000.0 1000.0 1000.0 1:0.3 2:0.45 3:0.84 4:0.0 5:1.0 6:1.0 7:0.0 8:0.0 9:0.51 10:-0.47 11:0.72 12:-0.21 13:-0.91 14:0.34 
-1000.0 -1000.0 -1000.0 -1000.0 -1000.0 -1000.0 -1000.0 1000.0 1000.0 1:0.31 2:0.42 3:0.86 4:0.0 5:1.0 6:1.0 7:0.0 8:0.0 9:0.51 10:-0.5 11:0.7 12:-0.18 13:-0.94 14:0.29 
-1000.0 -1000.0 -1000.0 -1000.0 -1000.0 -1000.0 -1000.0 1000.0 1000.0 1:0.01 2:0.68 3:0.73 4:1.0 5:0.0 6:0.0 7:0.0 8:0.0 9:-0.89 10:-0.44 11:-0.11 12:-0.07 13:0.56 14:0.83 
-1000.0 -1000.0 -1000.0 -1000.0 -1000.0 -1000.0 -1000.0 1000.0 1000.0 1:0.04 2:0.57 3:0.82 4:1.0 5:0.0 6:0.0 7:0.0 8:0.0 9:-0.91 10:-0.4 11:-0.14 12:0.2 13:0.72 14:0.67 
-1000.0 -1000.0 -1000.0 -1000.0 -1000.0 -1000.0 -1000.0 1000.0 1000.0 1:0.04 2:0.42 3:0.91 4:1.0 5:0.0 6:0.0 7:0.0 8:0.0 9:-0.89 10:-0.44 11:-0.12 12:0.34 13:0.7 14:0.63 
-1000.0 -1000.0 -1000.0 -1000.0 -1000.0 -1000.0 -1000.0 1000.0 1000.0 1:0.05 2:0.39 3:0.92 4:1.0 5:0.0 6:0.0 7:0.0 8:0.0 9:-0.88 10:-0.47 11:-0.1 12:0.35 13:0.69 14:0.63 
-1000.0 -1000.0 -1000.0 -1000.0 -1000.0 -1000.0 -1000.0 1000.0 1000.0 1:0.05 2:0.52 3:0.85 4:1.0 5:0.0 6:0.0 7:0.0 8:0.0 9:-0.88 10:-0.48 11:-0.04 12:0.51 13:0.84 14:0.19 
-1000.0 -1000.0 -1000.0 -1000.0 -1000.0 -1000.0 -1000.0 1000.0 1000.0 1:0.04 2:0.45 3:0.89 4:1.0 5:0.0 6:0.0 7:0.0 8:0.0 9:-0.88 10:-0.47 11:-0.09 12:0.49 13:0.81 14:0.31 
-1000.0 -1000.0 -1000.0 -1000.0 -1000.0 -1000.0 -1000.0 1000.0 1000.0 1:0.06 2:0.49 3:0.87 4:1.0 5:0.0 6:0.0 7:0.0 8:0.0 9:-0.88 10:-0.46 11:-0.09 12:0.46 13:0.8 14:0.38 
-1000.0 -1000.0 -1000.0 -1000.0 -1000.0 -1000.0 -1000.0 1000.0 1000.0 1:0.04 2:0.59 3:0.8 4:1.0 5:0.0 6:0.0 7:0.0 8:0.0 9:-0.86 10:-0.5 11:-0.03 12:0.51 13:0.86 14:0.08 
-1000.0 -1000.0 -1000.0 -1000.0 -1000.0 -1000.0 -1000.0 1000.0 1000.0 1:-0.14 2:0.75 3:0.65 4:1.0 5:0.0 6:0.0 7:0.0 8:0.0 9:-0.89 10:-0.45 11:-0.03 12:0.46 13:0.89 14:-0.01 
-1000.0 -1000.0 -1000.0 -1000.0 -1000.0 -1000.0 -1000.0 -1000.0 1000.0 1:-0.53 2:0.74 3:0.41 4:1.0 5:1.0 6:0.0 7:0.0 8:0.0 9:-0.23 10:-0.05 11:-0.97 12:-0.96 13:0.27 14:0.01 
-1000.0 -1000.0 -1000.0 -1000.0 -1000.0 -1000.0 -1000.0 -1000.0 1000.0 1:-0.54 2:0.75 3:0.39 4:1.0 5:1.0 6:0.0 7:0.0 8:0.0 9:-0.22 10:-0.03 11:-0.98 12:-0.96 13:0.28 14:0.02 
-1000.0 -1000.0 -1000.0 -1000.0 -1000.0 -1000.0 -1000.0 -1000.0 1000.0 1:-0.53 2:0.76 3:0.38 4:1.0 5:1.0 6:0.0 7:0.0 8:0.0 9:-0.21 10:-0.01 11:-0.98 12:-0.96 13:0.29 14:0.01 
-1000.0 -1000.0 -1000.0 -1000.0 -1000.0 -1000.0 -1000.0 -1000.0 1000.0 1:-0.52 2:0.77 3:0.36 4:1.0 5:1.0 6:0.0 7:0.0 8:0.0 9:-0.2 10:-0.01 11:-0.98 12:-0.95 13:0.32 14:0.0 
-1000.0 -1000.0 -1000.0 -1000.0 -1000.0 -1000.0 -1000.0 -1000.0 1000.0 1:-0.51 2:0.79 3:0.35 4:1.0 5:1.0 6:0.0 7:0.0 8:0.0 9:-0.17 10:0.0 11:-0.99 12:-0.95 13:0.3 14:0.0 
-1000.0 -1000.0 -1000.0 -1000.0 -1000.0 -1000.0 -1000.0 -1000.0 1000.0 1:-0.51 2:0.79 3:0.34 4:1.0 5:1.0 6:0.0 7:0.0 8:0.0 9:-0.17 10:-0.01 11:-0.98 12:-0.95 13:0.3 14:0.0 
-1000.0 -1000.0 -1000.0 -1000.0 -1000.0 -1000.0 -1000.0 -1000.0 1000.0 1:-0.51 2:0.8 3:0.33 4:1.0 5:1.0 6:0.0 7:0.0 8:0.0 9:-0.18 10:-0.02 11:-0.98 12:-0.95 13:0.3 14:0.0 
-1000.0 -1000.0 -1000.0 -1000.0 -1000.0 -1000.0 -1000.0 -1000.0 1000.0 1:-0.5 2:0.81 3:0.31 4:1.0 5:1.0 6:0.0 7:0.0 8:0.0 9:-0.18 10:-0.04 11:-0.98 12:-0.95 13:0.31 14:0.0 
-1000.0 -1000.0 -1000.0 -1000.0 -1000.0 -1000.0 -1000.0 -1000.0 1000.0 1:-0.49 2:0.81 3:0.31 4:1.0 5:1.0 6:0.0 7:0.0 8:0.0 9:-0.19 10:-0.04 11:-0.98 12:-0.94 13:0.33 14:0.01 
-1000.0 -1000.0 -1000.0 -1000.0 -1000.0 -1000.0 -1000.0 -1000.0 1000.0 1:-0.5 2:0.81 3:0.29 4:1.0 5:1.0 6:0.0 7:0.0 8:0.0 9:-0.19 10:-0.05 11:-0.98 12:-0.95 13:0.32 14:0.0 
-1000.0 -1000.0 -1000.0 -1000.0 -1000.0 -1000.0 -1000.0 -1000.0 -1000.0 1:-0.15 2:0.98 3:0.14 4:0.0 5:1.0 6:1.0 7:0.0 8:1.0 9:-0.92 10:0.37 11:-0.12 12:-0.82 13:0.05 14:-0.58 
-1000.0 -1000.0 -1000.0 -1000.0 -1000.0 -1000.0 -1000.0 -1000.0 -1000.0 1:-0.16 2:0.98 3:0.15 4:0.0 5:1.0 6:1.0 7:0.0 8:1.0 9:-0.92 10:0.37 11:-0.13 12:-0.81 13:0.04 14:-0.59 
-1000.0 -1000.0 -1000.0 -1000.0 -1000.0 -1000.0 -1000.0 -1000.0 -1000.0 1:-0.15 2:0.98 3:0.15 4:0.0 5:1.0 6:1.0 7:0.0 8:1.0 9:-0.92 10:0.37 11:-0.12 12:-0.81 13:0.03 14:-0.59 
-1000.0 -1000.0 -1000.0 -1000.0 -1000.0 -1000.0 -1000.0 -1000.0 -1000.0 1:-0.14 2:0.97 3:0.17 4:0.0 5:1.0 6:1.0 7:0.0 8:1.0 9:-0.92 10:0.38 11:-0.08 12:-0.82 13:0.05 14:-0.56 
-1000.0 -1000.0 -1000.0 -1000.0 -1000.0 -1000.0 -1000.0 -1000.0 -1000.0 1:-0.15 2:0.97 3:0.19 4:0.0 5:1.0 6:1.0 7:0.0 8:1.0 9:-0.93 10:0.37 11:-0.06 12:-0.84 13:0.04 14:-0.55 
-1000.0 -1000.0 -1000.0 -1000.0 -1000.0 -1000.0 -1000.0 -1000.0 -1000.0 1:-0.16 2:0.97 3:0.21 4:0.0 5:1.0 6:1.0 7:0.0 8:1.0 9:-0.93 10:0.36 11:-0.05 12:-0.84 13:0.03 14:-0.55 
-1000.0 -1000.0 -1000.0 -1000.0 -1000.0 -1000.0 -1000.0 -1000.0 -1000.0 1:-0.17 2:0.96 3:0.21 4:0.0 5:1.0 6:1.0 7:0.0 8:1.0 9:-0.94 10:0.35 11:-0.04 12:-0.84 13:0.03 14:-0.54 
-1000.0 -1000.0 -1000.0 -1000.0 -1000.0 -1000.0 -1000.0 -1000.0 -1000.0 1:-0.13 2:0.97 3:0.19 4:0.0 5:1.0 6:1.0 7:0.0 8:1.0 9:-0.92 10:0.38 11:-0.04 12:-0.84 13:0.04 14:-0.55 
-1000.0 -1000.0 -1000.0 -1000.0 -1000.0 -1000.0 -1000.0 -1000.0 -1000.0 1:-0.15 2:0.97 3:0.22 4:0.0 5:1.0 6:1.0 7:0.0 8:1.0 9:-0.93 10:0.37 11:-0.02 12:-0.84 13:0.03 14:-0.54 
-1000.0 -1000.0 -1000.0 -1000.0 -1000.0 -1000.0 -1000.0 -1000.0 -1000.0 1:-0.17 2:0.96 3:0.24 4:0.0 5:1.0 6:1.0 7:0.0 8:1.0 9:-0.94 10:0.35 11:0.0 12:-0.84 13:0.02 14:-0.54 
