svm_type c_svc
kernel_type rbf
gamma 0.07142857142857142
nr_class 8
total_sv 42
rho -0.6856336168317337 -0.2026894209429581 0.16054798484415264 0.33571654426500736 0.002067141578271316 0.5939245478245269 -0.25801592635421083 0.0911016637766415 0.28520201949098817 0.4622049905407241 -0.06754401685177104 0.25029672595322294 -0.0643304080400755 0.14832422326494377 0.6321344005401666 0.22877979652079972 0.20991248618827657 -0.031924883540173594 1.019457253460793 -0.07156494931293336 -0.0668379207789323 -0.3105947944024223 -1.0017571313360778 -0.3069003810157637 -0.42965135310138425 -3.4366848299058423 -0.1155737816991904 0.9000132083892822
label 1 2 3 4 5 6 7 8
nr_sv 5 5 4 7 5 5 7 4
SV
0.0 0.0 0.0 0.0 9.932778138345002 14.021580757031058 0.0 1:0.4 2:0.42 3:0.82 4:1.0 5:1.0 6:0.0 7:0.0 8:0.0 9:-0.96 10:-0.29 11:0.05 12:0.2 13:0.03 14:0.98 
8.835155960818375 0.0 1.5805122442015591 0.0 0.0 0.0 1.2395492579112046 1:0.39 2:0.45 3:0.8 4:1.0 5:1.0 6:0.0 7:0.0 8:0.0 9:-0.96 10:-0.28 11:0.06 12:0.23 13:0.12 14:0.96 
0.0 0.0 0.0 2.9821015262299437 0.0 0.0 0.0 1:0.4 2:0.45 3:0.8 4:1.0 5:1.0 6:0.0 7:0.0 8:0.0 9:-0.95 10:-0.31 11:0.08 12:0.21 13:0.03 14:0.98 
0.0 1.672692395079013 0.0 0.0 0.0 0.0 0.0 1:0.39 2:0.48 3:0.79 4:1.0 5:1.0 6:0.0 7:0.0 8:0.0 9:-0.94 10:-0.32 11:0.08 12:0.21 13:0.08 14:0.97 
1000.0 2.352028969978512 2.357740340097826 1.868958871835014 1.4147528655196595 6.226394927032866 6.272645768610149 1:-0.29 2:0.78 3:0.55 4:1.0 5:1.0 6:0.0 7:0.0 8:0.0 9:-0.28 10:-0.07 11:-0.96 12:-0.88 13:0.41 14:0.24 
-1000.0 0.0 0.0 1.8827349835486809 0.0 0.0 0.0 1:-0.26 2:0.79 3:0.55 4:1.0 5:1.0 6:0.0 7:0.0 8:0.0 9:-0.28 10:-0.06 11:-0.96 12:-0.87 13:0.43 14:0.24 
-6.058423865792465 0.0 0.0 0.0 0.0 0.0 0.0 1:-0.24 2:0.81 3:0.54 4:1.0 5:1.0 6:0.0 7:0.0 8:0.0 9:-0.29 10:-0.06 11:-0.96 12:-0.86 13:0.45 14:0.24 
-0.0 0.0 0.0 0.0 2.288151217475842 5.798467731643104 6.97093761487307 1:-0.24 2:0.8 3:0.55 4:1.0 5:1.0 6:0.0 7:0.0 8:0.0 9:-0.32 10:-0.07 11:-0.95 12:-0.83 13:0.48 14:0.29 
-0.0 0.0 0.842350962423818 0.0963673458742936 0.0 0.0 0.0 1:-0.23 2:0.82 3:0.53 4:1.0 5:1.0 6:0.0 7:0.0 8:0.0 9:-0.3 10:-0.09 11:-0.95 12:-0.81 13:0.51 14:0.28 
-2.7767320950259125 614.5716392930728 12.615130468673994 3.915152818345793 3.597963054704177 2.6650478235521406 0.23553433442433708 1:-0.19 2:0.84 3:0.51 4:0.0 5:1.0 6:1.0 7:0.0 8:0.0 9:-0.88 10:0.11 11:0.47 12:-0.88 13:0.41 14:-0.23 
-3.3951431501063256 -602.5048950949317 13.110994943332434 3.222224170323048 3.9507340093642065 3.7140428009788082 0.0 1:-0.18 2:0.88 3:0.44 4:0.0 5:1.0 6:1.0 7:0.0 8:0.0 9:-0.83 10:0.13 11:0.54 12:-0.92 13:0.33 14:-0.21 
-0.0 -0.0 0.0 0.0 0.0 0.0 1.9080150777546425 1:-0.26 2:0.88 3:0.39 4:0.0 5:1.0 6:1.0 7:0.0 8:0.0 9:-0.81 10:0.07 11:0.58 12:-0.89 13:0.38 14:-0.23 
-0.0 -11.101665559975045 0.0 0.0 0.0 0.0 0.0 1:-0.27 2:0.88 3:0.39 4:0.0 5:1.0 6:1.0 7:0.0 8:0.0 9:-0.81 10:0.06 11:0.58 12:-0.9 13:0.38 14:-0.24 
-0.6295782149511996 -0.9650786381660628 1000.0 2.136204251559329 0.9322298285951899 0.6264273370156617 0.5486338968271137 1:-0.2 2:0.91 3:0.36 4:0.0 5:1.0 6:1.0 7:0.0 8:1.0 9:-0.73 10:0.08 11:0.68 12:-0.81 13:0.58 14:-0.08 
-0.0 -0.0 -339.31970966212623 0.0 0.0 0.0 0.0 1:-0.21 2:0.91 3:0.36 4:0.0 5:1.0 6:1.0 7:0.0 8:1.0 9:-0.73 10:0.08 11:0.68 12:-0.79 13:0.61 14:-0.06 
-0.0 -0.0 -673.0129656652041 0.0 0.0 0.0 0.0 1:-0.18 2:0.91 3:0.37 4:0.0 5:1.0 6:1.0 7:0.0 8:1.0 9:-0.73 10:0.09 11:0.67 12:-0.81 13:0.57 14:-0.09 
-0.0 -12.198770895682353 -0.0 0.0 0.0 0.0 0.0 1:-0.18 2:0.91 3:0.38 4:0.0 5:1.0 6:1.0 7:0.0 8:1.0 9:-0.73 10:0.09 11:0.67 12:-0.81 13:0.57 14:-0.09 
-0.0 -0.0 -0.5095322506002112 0.0 0.0 0.0 0.0 1:-0.19 2:0.92 3:0.35 4:0.0 5:1.0 6:1.0 7:0.0 8:1.0 9:-0.74 10:0.11 11:0.66 12:-0.81 13:0.58 14:-0.1 
-1.623870331180246 -0.0 -0.0 0.0 3.430299155229963 0.0 0.0 1:-0.2 2:0.91 3:0.37 4:0.0 5:1.0 6:1.0 7:0.0 8:1.0 9:-0.71 10:0.08 11:0.7 12:-0.77 13:0.64 14:-0.01 
-1.0183779972337705 -0.0 -0.0 8.002785381909064 0.0 2.821457541298893 1.5418384748666742 1:-0.22 2:0.91 3:0.34 4:0.0 5:1.0 6:1.0 7:0.0 8:1.0 9:-0.7 10:0.08 11:0.71 12:-0.71 13:0.71 14:0.03 
-1.2960042558853686 -1.258710535415461 -0.2687873654018887 1000.0 0.9062794899426782 1.3148902593172638 1.2993555806264188 1:-0.28 2:-0.94 3:-0.18 4:0.0 5:1.0 6:1.0 7:1.0 8:1.0 9:-0.37 10:-0.13 11:-0.92 12:-0.41 13:0.3 14:-0.86 
-1.533477278937617 -0.0 -0.0 -878.6571242658301 0.0 0.0 1.2138436400350263 1:-0.3 2:-0.94 3:-0.18 4:0.0 5:1.0 6:1.0 7:1.0 8:1.0 9:-0.38 10:-0.12 11:-0.92 12:-0.41 13:0.31 14:-0.86 
-0.0 -0.0 -0.0 -123.14702304579872 4.4750830462250635 0.0 0.0 1:-0.31 2:-0.93 3:-0.19 4:0.0 5:1.0 6:1.0 7:1.0 8:1.0 9:-0.36 10:-0.12 11:-0.92 12:-0.42 13:0.29 14:-0.86 
-0.0 -2.255047007211591 -1.8810570156427018 -0.0 0.0 1.7504910059135568 0.0 1:-0.31 2:-0.93 3:-0.2 4:0.0 5:1.0 6:1.0 7:1.0 8:1.0 9:-0.38 10:-0.08 11:-0.92 12:-0.41 13:0.28 14:-0.86 
-0.0 -0.0 -0.0 -0.0 0.0 0.0 0.2742210603953592 1:-0.31 2:-0.93 3:-0.21 4:0.0 5:1.0 6:1.0 7:1.0 8:1.0 9:-0.33 10:-0.11 11:-0.94 12:-0.42 13:0.29 14:-0.86 
-3.317583119127341 -3.639208140557176 -3.477371406239675 -6.198638070280126 1000.0 4.205037033642309 1.5837497664382634 1:0.18 2:0.58 3:0.8 4:0.0 5:1.0 6:1.0 7:0.0 8:0.0 9:0.3 10:-0.47 11:0.83 12:-0.17 13:-0.25 14:0.95 
-0.0 -2.2501270946514196 -2.508038796189482 -2.3183053887761274 -1000.0 0.0 0.8679667133387611 1:0.16 2:0.56 3:0.81 4:0.0 5:1.0 6:1.0 7:0.0 8:0.0 9:0.3 10:-0.48 11:0.82 12:-0.17 13:-0.25 14:0.95 
-0.0 -0.0 -0.0 -0.0 -0.0 16.76219637166307 0.0 1:0.17 2:0.54 3:0.82 4:0.0 5:1.0 6:1.0 7:0.0 8:0.0 9:0.28 10:-0.5 11:0.82 12:-0.17 13:-0.24 14:0.96 
-0.0 -0.0 -0.0 -0.0 -1.0152229140723736 0.0 0.0 1:0.19 2:0.53 3:0.83 4:0.0 5:1.0 6:1.0 7:0.0 8:0.0 9:0.3 10:-0.5 11:0.81 12:-0.16 13:-0.23 14:0.96 
-1.5710963091193266 -0.0 -0.0 -0.0 -0.0 0.0 0.0 1:0.27 2:0.45 3:0.85 4:0.0 5:1.0 6:1.0 7:0.0 8:0.0 9:0.31 10:-0.55 11:0.78 12:-0.13 13:-0.2 14:0.97 
-9.776434694745337 -3.6359871775285995 -2.3749250417699153 -2.0182732563965136 -3.4598601321526887 683.9980334475947 2.010678990681517 1:0.6 2:0.36 3:0.71 4:1.0 5:1.0 6:1.0 7:0.0 8:0.0 9:-1.0 10:-0.02 11:0.04 12:-0.25 13:-0.24 14:0.94 
-0.0 -0.0 -0.0 -0.0 -0.0 -388.0971642097039 0.0 1:0.51 2:0.37 3:0.78 4:1.0 5:1.0 6:1.0 7:0.0 8:0.0 9:-0.99 10:-0.13 11:0.01 12:-0.24 13:-0.27 14:0.93 
-0.0 -0.0 -0.0 -0.0 -1.1726072642779684 -0.0 0.0 1:0.49 2:0.38 3:0.78 4:1.0 5:1.0 6:1.0 7:0.0 8:0.0 9:-0.99 10:-0.12 11:0.01 12:-0.27 13:-0.27 14:0.92 
-0.0 -0.0 -0.0 -0.0 -0.0 -49.06203821109263 0.0 1:0.51 2:0.43 3:0.75 4:1.0 5:1.0 6:1.0 7:0.0 8:0.0 9:-0.99 10:-0.1 11:0.02 12:-0.26 13:-0.21 14:0.94 
-2.694429856203039 -4.573090576639863 -3.479466912964596 -2.6847814136100503 -3.143715230488892 -0.0 0.0 1:0.47 2:0.5 3:0.73 4:1.0 5:1.0 6:1.0 7:0.0 8:0.0 9:-0.99 10:-0.08 11:0.06 12:-0.29 13:-0.19 14:0.94 
-9.736357438257787 -0.0 -0.0 -0.0 -0.0 -263.6010273984611 0.0 1:0.5 2:0.49 3:0.72 4:1.0 5:1.0 6:1.0 7:0.0 8:0.0 9:-1.0 10:-0.07 11:0.06 12:-0.26 13:-0.18 14:0.95 
-0.7595342615180277 -0.0 -0.0 -0.0 -0.0 -0.0 0.0 1:0.45 2:0.41 3:0.79 4:1.0 5:1.0 6:1.0 7:0.0 8:0.0 9:-0.98 10:-0.18 11:-0.06 12:-0.21 13:-0.31 14:0.93 
-7.057654128085069 -3.8904249785553824 -0.8610032250298744 -1.4515663870061064 -1.6392055447890057 -0.0 1000.0 1:-0.85 2:0.06 3:0.52 4:1.0 5:0.0 6:0.0 7:0.0 8:0.0 9:-0.34 10:-0.13 11:-0.93 12:0.21 13:0.63 14:0.75 
-0.0 -0.0 -0.0 -0.0 -0.0 -1.4034462492577515 -1000.0 1:-0.85 2:0.07 3:0.52 4:1.0 5:0.0 6:0.0 7:0.0 8:0.0 9:-0.33 10:-0.12 11:-0.94 12:0.21 13:0.64 14:0.74 
-0.0 -0.0 -0.0 -0.0 -1.1397487713207586 -0.0 -0.0 1:-0.86 2:0.09 3:0.5 4:1.0 5:0.0 6:0.0 7:0.0 8:0.0 9:-0.28 10:-0.13 11:-0.95 12:0.26 13:0.67 14:0.7 
-0.0 -0.0 -0.0 -0.334060369724445 -0.0 -0.0 -0.0 1:-0.87 2:0.09 3:0.48 4:1.0 5:0.0 6:0.0 7:0.0 8:0.0 9:-0.26 10:-0.11 11:-0.96 12:0.24 13:0.7 14:0.68 
-7.512195026521353 -7.2064719492974065 -2.456648974581756 -2.5071336857686486 -1.9320656955478903 -1.4751994547625256 -0.0 1:-0.91 2:0.22 3:0.36 4:1.0 5:0.0 6:0.0 7:0.0 8:0.0 9:-0.34 10:-0.17 11:-0.93 12:-0.48 13:0.59 14:0.65 
