svm_type c_svc
kernel_type rbf
gamma 0.07142857142857142
nr_class 24
total_sv 336
rho -8.767403648750303E-4 -0.02195515514429451 0.0 0.0 0.429367225205923 -0.024834791486110935 -2.71269619718832E-4 -0.005226473923990919 0.19990889095651468 -0.09922005457163356 -0.03233856199792459 -3.547137101003739E-5 -0.037198230422548925 0.005750894798488767 -0.02409853086573457 0.0 -0.02255872655404812 -0.03225809724537238 0.008090553320033944 -0.09902142620114239 0.003870538913465672 0.004982683127309177 -0.026900408382645288 0.0 0.013456120379937769 0.0028213052441324 0.4884562710200476 0.0016865256182590123 -1.855317853453796E-4 0.03017945947428231 0.051469355383161275 0.03304723980550165 2.0290381774009056E-4 2.1236792382106138E-4 0.0 0.0 4.137505669027675E-4 0.001448529015153971 0.006391712270131915 0.0040262038464431845 0.026745584526813113 0.036406878356121844 0.011327178102424533 0.021103847710231896 -9.728482183932259E-4 0.008832218240913108 -7.264926437574992E-4 0.40057644124911274 0.07690583130447055 0.009492867493350501 0.06518742484292647 0.09321923789016406 0.030878964885183588 7.066611175928572E-4 -3.774865552489265E-4 -1.2757381454750472E-4 -3.370340145555965E-4 3.7431127546065933E-4 0.0024588520680182955 0.014975362136711757 -0.0018538604865953653 -2.3288569393857077E-5 0.016458391082359428 0.01866823327191024 0.0 -7.20859865765627E-4 0.0 0.26608495855709835 -0.006000772421024992 0.014153735503872505 0.005858087757004444 0.18838264377601113 0.020233554144971192 0.0030287233597237812 0.0019180248420709908 -0.0073498214941124735 -0.007254812695165988 -0.0019427234424627272 -0.0027659199296655923 -0.009294129839524965 -0.01136318813329488 0.002013358375460969 0.007995979973235957 0.016623423646339154 0.007348625787009632 0.0 1.0722782246569322 0.0 0.061316497206472434 0.010248603939217145 0.0 3.2110828050744417E-5 7.775577828847989E-4 0.00326685268576668 2.5605400742028175E-4 0.0 0.0 -0.003451565102537347 0.0 0.0 -0.0011891785162352342 0.0 0.0028492834288945737 0.008553149846413635 -0.004516717699361195 -0.4557993638328452 -1.7590926524151111 -0.4901371953033406 -0.31699781332847293 -0.6231948572539632 -0.4622945291192428 -0.6186512669598365 -0.7556253041845075 -0.7408803622054235 -1.0415405380232141 -0.622950850161113 -0.7119983298357451 -0.34669615958341593 -0.6107251788863189 -0.4169972320662816 -0.3567500139885005 -0.3858460720562284 -0.6078205062908115 0.0062610404372882315 7.99731284038648E-4 0.09158275631048488 0.03845801011746219 0.0039159937626651355 5.551115123125783E-17 -0.0016680232799236607 0.002877119938540081 -0.028986314750538082 0.0 0.014533287549662233 -0.002936138134420279 -0.05036428632183487 -0.0030070091848697204 -0.12757001368482257 0.007116778569711925 -0.022177633800051742 0.011278474209313364 0.02687811353525367 0.01751835233816585 -0.016871405411042376 -0.03245271318063511 -0.030901213513835256 0.0 -0.027033782609001734 -6.141335370596137E-4 -0.006247732530021376 0.0 0.014247871038050215 -0.011488752484893616 -0.0017139793679968763 -0.0012049303927216706 6.694703637542913E-4 -0.04422287318559133 0.048536026174756594 -0.017192301665749997 2.0816681711721685E-17 -0.035779293503960134 -0.022483003790765732 -0.031198522202298316 -0.029555829466700316 -0.05919165640019336 -0.018335289889792102 0.004953251654697336 -0.032087814091044366 0.03036475901495687 -0.01295600800608476 -0.010086310451128136 -0.05177638598191089 -0.15631262852622155 0.0 -0.07116594987869654 -0.05625863760878113 -0.053536912718540254 -0.07042882671657179 -0.06685719402535095 -0.09050709704392329 -0.033434415669903045 -0.2935151296671281 -0.0013650703847791744 -0.11173088056628347 -0.05699995522374666 -0.03273519977257719 0.0013684582452982896 -0.0185507146808192 -0.007074049659950843 -0.01256859812058818 0.0 -0.005900199748041879 -0.029962948397267153 0.002127179673750288 -0.023463769764374705 -0.015145078725479424 -0.02657465839588984 -0.015266069161106963 -4.989104949250089E-4 -0.001454373816813375 -1.2297813661216184E-4 0.0 0.0 -1.7623554600823776E-5 -0.0016260456196420154 -1.3687911334136124E-5 0.011175951873687069 0.005904111889041196 0.009029713597808428 -0.0020881357320651195 0.0010602226801506175 0.0 -0.0011419706745530117 -0.0011629350296914187 -0.0020472717224405833 -0.0026845997850092583 0.022807567276298304 1.0514371543742429E-4 0.0027513061841974514 0.002791853660382774 -0.0010599594790667878 -0.003122607076545278 -0.004731507592450117 0.005045190628237764 0.007340271428240804 0.0 0.028118975269848356 0.0 0.010987408366066913 -0.006106049644147811 0.001011970863886787 -0.005526686705400608 0.0 -0.0019937666365540244 0.0 0.030596031553480802 0.01896278738549703 0.005135300044078964 0.008991092657078682 -0.0011702645850508173 0.0028954157188072153 0.0 0.0 0.034422554363667 0.007316241202639964 0.0 0.0 0.0 0.002817286533487525 0.0 0.04383541379595804 0.02068925813033715 0.00924645678982299 0.0012706994486527548 -2.48104221774578E-4 0.0014964269142094897 0.17736717069344224 6.927428497432156E-4 0.0 0.0 -0.0033635648256350043 0.0 0.019595297785067006 0.0023170720583950213 0.024146387338143057 0.005218956213576123 -0.009146938231487227 -8.568388657353085E-4 0.0 -0.020995978417158022 0.010877657540620263 -0.0045474545122245425 -0.007174865124819139 -0.005474955705012713 -0.0067599704977771985 2.12160978708587E-4
label 1 2 3 4 5 6 7 8 9 10 11 12 13 14 15 16 17 18 19 20 21 22 23 24
nr_sv 15 15 13 14 12 30 14 13 19 13 20 16 14 7 8 7 9 15 11 14 16 7 19 15
SV
0.0 0.0 0.0 0.0 1.6613254058485507 0.0 0.664946021616343 0.0 0.0 1.125583819831136 0.0 0.0 1.8045586767532056 1.4823481732418333 0.8844864961668136 0.0 0.0 0.0 0.0 0.0 0.0 0.0 0.9861779278980166 1:0.19 2:-0.8 3:0.57 4:-0.5223094820976257 5:0.6924542784690857 6:0.5251779556274414 7:0.5539242625236511 8:0.5157317519187927 9:0.04420853406190872 10:-0.24714209139347076 11:0.9895376563072205 12:-0.21 13:-0.6 14:-0.77 
0.0 0.0 0.0 0.0 0.0 0.0 0.0 0.0 0.0 1.5826933883778005 0.0 0.0 0.0 0.0 0.0 0.0 0.0 0.0 0.0 0.0 0.0 0.0 0.0 1:0.19 2:-0.76 3:0.63 4:-0.4798040986061096 5:0.7598241567611694 6:0.5265880227088928 7:0.5591796636581421 8:0.522139310836792 9:0.0741758793592453 10:-0.15126274526119232 11:0.9888493418693542 12:-0.26 13:-0.65 14:-0.71 
0.12320749256758638 0.0 0.0 0.0 0.0 0.0 0.0 0.0 0.0 0.0 0.0 0.0 0.0 0.0 0.0 0.0 0.0 0.0 0.0 0.0 0.0 0.0 0.0 1:0.19 2:-0.76 3:0.62 4:-0.46871432662010193 5:0.750920295715332 6:0.5276831388473511 7:0.5583919286727905 8:0.5249819159507751 9:0.10527368634939194 10:-0.16347713768482208 11:0.9888572096824646 12:-0.27 13:-0.65 14:-0.71 
4.0414593873759825 0.0 0.0 0.0 0.0 0.0 0.0 0.0 0.0 0.0 0.0 0.0 0.0 0.0 0.0 0.0 0.0 0.0 0.0 0.0 0.0 0.0 0.0 1:0.19 2:-0.76 3:0.62 4:-0.4651307165622711 5:0.7618962526321411 6:0.5315706133842468 7:0.5598914623260498 8:0.5272274613380432 9:0.09722472727298737 10:-0.14265574514865875 11:0.9887211918830872 12:-0.28 13:-0.64 14:-0.71 
0.0 0.0 0.0 0.0 0.0 0.0 2.214500774271468 0.0 0.0 0.0 0.0 0.0 0.0 0.0 0.0 0.0 0.0 0.0 0.0 0.0 0.0 0.0 0.0 1:0.18 2:-0.77 3:0.61 4:-0.43485382199287415 5:0.7497214674949646 6:0.5513647794723511 7:0.5733563303947449 8:0.545557975769043 9:0.15258465707302094 10:-0.13769777119159698 11:0.9886571168899536 12:-0.27 13:-0.64 14:-0.72 
0.0 0.662920384402001 0.0 0.0 0.0 0.963355140084251 0.0 0.0 0.0 0.0 0.8412962715657772 0.0 0.0 1.3120528234792224 0.0 3.13167032337715 0.8296721967014635 1.0016540200922908 0.8694564170559587 5.429512051853899 0.16987343978432543 0.0 0.0 1:0.19 2:-0.76 3:0.62 4:-0.4136187434196472 5:0.7242211103439331 6:0.5577420592308044 7:0.5729575753211975 8:0.5518532991409302 9:0.21054132282733917 10:-0.16731078922748566 11:0.988852858543396 12:-0.28 13:-0.65 14:-0.71 
1.8032514963947115 0.0 0.0 0.0 0.0 0.0 0.0 0.0 0.0 0.0 0.0 0.0 0.0 0.0 0.0 0.0 0.0 0.0 0.0 0.0 0.0 0.0 0.0 1:0.19 2:-0.75 3:0.63 4:-0.44244256615638733 5:0.7247787117958069 6:0.5579659342765808 7:0.5704228281974792 8:0.5511506795883179 9:0.16861385107040405 10:-0.1663537323474884 11:0.9889570474624634 12:-0.29 13:-0.66 14:-0.7 
0.0 0.0 0.0 0.0 0.0 0.0 0.0 1.09360953330004 0.0 0.0 0.0 0.0 0.0 0.0 0.0 0.0 0.0 0.0 0.0 0.0 0.0 0.25890124078888327 0.0 1:0.19 2:-0.76 3:0.63 4:-0.4500219523906708 5:0.7686439156532288 6:0.54205721616745 7:0.5557225942611694 8:0.536448061466217 9:0.1009577065706253 10:-0.11979859322309494 11:0.988103449344635 12:-0.28 13:-0.65 14:-0.7 
0.0 0.0 0.0 0.0 0.0 0.0 0.0 0.0 0.0 0.0 0.0 0.03787247765709586 0.0 0.0 0.0 0.0 0.0 0.0 0.0 0.0 0.0 0.0 0.0 1:0.16 2:-0.77 3:0.61 4:-0.3559395372867584 5:0.7927572727203369 6:0.8729882836341858 7:0.8252874612808228 8:0.8611563444137573 9:0.18239781260490417 10:0.4022478759288788 11:0.9936119318008423 12:-0.29 13:-0.63 14:-0.72 
0.0 0.0 0.0 2.521351789044156 2.7627450781325105 0.0 0.0 0.0 0.0 0.0 0.0 2.5199710050104374 0.0 0.0 0.0 0.0 0.0 0.0 0.0 0.0 0.0 0.0 0.0 1:0.14 2:-0.78 3:0.61 4:-0.3587952256202698 5:0.7987839579582214 6:0.8665165305137634 7:0.8285433053970337 8:0.8571330904960632 9:0.16486045718193054 10:0.39931368827819824 11:0.9934715628623962 12:-0.29 13:-0.62 14:-0.73 
0.0 0.0 0.0 0.0 0.0 0.0 0.0 0.0 0.0 0.0 0.0 0.0 0.0 0.0 0.8578635065291021 0.0 0.0 0.0 0.0 0.0 0.0 0.0 0.9888521981670257 1:0.14 2:-0.78 3:0.61 4:-0.36033308506011963 5:0.7990316152572632 6:0.8677151203155518 7:0.8297572135925293 8:0.8580138683319092 9:0.16289345920085907 10:0.4020163118839264 11:0.9935212135314941 12:-0.29 13:-0.62 14:-0.73 
0.0 0.0 0.0 0.0 0.0 0.0 0.0 0.0 0.0 0.0 0.0 0.0 1.0833252075609225 0.0 0.0 0.0 0.0 0.0 0.0 0.0 0.0 0.0 0.0 1:0.14 2:-0.78 3:0.61 4:-0.3692455291748047 5:0.7991840839385986 6:0.8676633834838867 7:0.8312547206878662 8:0.85882169008255 9:0.14941902458667755 10:0.4022962749004364 11:0.9935212135314941 12:-0.29 13:-0.62 14:-0.73 
0.0 0.0 0.0 0.0 0.0 0.0 0.0 0.0 0.0 7.443398840405093 0.0 0.0 0.0 0.0 0.0 0.0 0.0 0.0 0.0 0.0 0.0 0.0 0.0 1:0.15 2:-0.77 3:0.62 4:-0.3920540511608124 5:0.7997764348983765 6:0.8739259243011475 7:0.8335214853286743 8:0.8663954734802246 9:0.1208174005150795 10:0.41538697481155396 11:0.9939160943031311 12:-0.27 13:-0.64 14:-0.72 
0.0 0.0 0.0 0.0 0.0 0.0 0.0 0.0 5.999776895187892 0.0 4.235807002865702 0.0 0.0 0.0 0.0 0.0 1.3083460953504753 2.203064018960947 1.0499330522780497 0.0 0.0 0.0 0.0 1:0.14 2:-0.77 3:0.63 4:-0.35630810260772705 5:0.7860413789749146 6:0.8942376375198364 7:0.8559073209762573 8:0.8737410306930542 9:0.18844281136989594 10:0.4364017844200134 11:0.9941837191581726 12:-0.28 13:-0.64 14:-0.72 
0.0 1.8043022079356679 4.293469184384431 0.0 0.0 2.1075808361171267 0.0 4.895540372792371 16.696562463035665 0.0 0.0 0.0 0.0 0.0 0.0 0.0 0.0 0.0 0.0 3.6858453574965258 2.982690669348361 3.2631297932346266 0.0 1:0.18 2:-0.75 3:0.64 4:-0.35569316148757935 5:0.7856520414352417 6:0.8889573812484741 7:0.8565981388092041 8:0.8590127229690552 9:0.1905403882265091 10:0.4248526394367218 11:0.9935179948806763 12:-0.32 13:-0.66 14:-0.68 
-5.96791837633828 2.6610919329839184 3.956928208549741 1.9867509959122114 0.0 0.0 0.0 0.0 0.0 0.0 4.1204038703077215 1.8685171350510708 0.0 0.0 0.0 0.0 0.0 0.0 0.8074843798072722 0.0 2.086570006425005 0.0 0.0 1:-0.53 2:0.11 3:0.84 4:-0.41802161931991577 5:0.7207728624343872 6:0.1652093231678009 7:0.20824173092842102 8:0.2108897864818573 9:0.1601746529340744 10:-0.5595837831497192 11:0.9832048416137695 12:-0.85 13:-0.05 14:-0.53 
-0.0 0.0 0.0 0.0 0.0 2.167110896262292 0.0 2.7258430853019657 3.4914591476537464 0.318589130711856 0.0 0.0 0.0 0.0 0.0 0.0 0.0 0.0 0.0 4.457622537990357 0.0 0.0 0.0 1:-0.54 2:0.12 3:0.83 4:-0.4178200662136078 5:0.7301130890846252 6:0.16267076134681702 7:0.1869509518146515 8:0.20524528622627258 9:0.1490979939699173 10:-0.5506987571716309 11:0.9834487438201904 12:-0.84 13:-0.07 14:-0.54 
-0.0 0.0 0.0 0.0 0.0 0.0 0.0 0.0 0.0 3.3208595347986165 0.0 0.0 0.0 0.0 0.0 0.0 0.0 0.0 0.0 0.0 0.0 3.9288690530054486 0.6830839307867255 1:-0.55 2:0.12 3:0.83 4:-0.4177412986755371 5:0.738008975982666 6:0.15892168879508972 7:0.17823761701583862 8:0.20384857058525085 9:0.13996507227420807 10:-0.5443108081817627 11:0.9832794666290283 12:-0.84 13:-0.07 14:-0.54 
-0.0 0.0 0.0 0.0 0.0 0.0 0.0 0.0 0.0 0.0 0.0 0.0 0.0 0.0 0.0 0.0 2.130806442104955 0.0 0.0 0.0 0.0 0.0 0.0 1:-0.56 2:0.09 3:0.82 4:-0.4175935387611389 5:0.7291569709777832 6:0.14094555377960205 7:0.16191107034683228 8:0.1938004493713379 9:0.14912532269954681 10:-0.5704982876777649 11:0.9826734662055969 12:-0.83 13:-0.05 14:-0.56 
-0.0 0.0 0.0 0.0 0.0 0.0 0.0 0.0 0.0 0.0 0.0 0.0 3.2450774663538136 0.0 0.0 0.0 0.0 0.0 0.0 0.0 0.0 0.0 0.0 1:-0.59 2:0.06 3:0.81 4:-0.41713839769363403 5:0.7513831853866577 6:0.0780511200428009 7:0.13954192399978638 8:0.10803550481796265 9:0.1200217455625534 10:-0.5966920852661133 11:0.9845046401023865 12:-0.81 13:-0.03 14:-0.59 
-0.0 0.0 0.0 0.0 0.0 0.0 0.13278352772226476 0.0 0.0 0.0 0.0 0.0 0.0 0.0 0.0 0.0 0.0 0.0 0.0 0.0 0.0 0.0 0.3203129669962541 1:-0.59 2:0.06 3:0.81 4:-0.41708701848983765 5:0.7485766410827637 6:0.07712116837501526 7:0.14632555842399597 8:0.1070256233215332 9:0.12458960711956024 10:-0.6006485223770142 11:0.9845411777496338 12:-0.81 13:-0.02 14:-0.59 
-0.0 0.0 0.0 0.0 0.0 0.0 0.0 0.0 0.0 0.0 0.0 0.0 0.0 0.0 0.0 0.0 0.0 0.0 0.0 0.0 0.0 0.0 0.4519990815642728 1:-0.58 2:0.07 3:0.81 4:-0.4170423150062561 5:0.7477384209632874 6:0.0866384208202362 7:0.145835280418396 8:0.15674984455108643 9:0.12619732320308685 10:-0.5938680171966553 11:0.9812691807746887 12:-0.81 13:-0.03 14:-0.58 
-0.0 0.0 0.0 0.0 0.0 0.0 0.0 0.0 0.0 0.0 0.0 0.0 0.0 0.0 0.6884894103210804 0.0 0.0 0.0 0.161246672634625 0.0 0.0 0.0 0.0 1:-0.58 2:0.07 3:0.81 4:-0.41702187061309814 5:0.7383968234062195 6:0.10315731167793274 7:0.14635765552520752 8:0.16333645582199097 9:0.13810250163078308 10:-0.591431736946106 11:0.9820246696472168 12:-0.81 13:-0.03 14:-0.58 
-0.0 0.0 0.0 0.0 0.0 0.0 0.0 0.0 0.0 0.0 0.0 0.0 0.0 0.0 0.0 0.0 0.0 0.0 0.16178259773956666 0.0 0.0 0.0 0.0 1:-0.58 2:0.05 3:0.82 4:-0.41700249910354614 5:0.7203774452209473 6:0.1121542751789093 7:0.14625829458236694 8:0.16863003373146057 9:0.15916410088539124 10:-0.6049557328224182 11:0.9822968244552612 12:-0.82 13:-0.02 14:-0.58 
-0.0 0.0 0.0 0.0 0.0 0.0 0.0 0.0 0.0 0.0 0.0 0.0 0.0 0.0 0.0 2.977986982600089 0.0 0.0 0.0 0.0 0.0 0.0 0.0 1:-0.57 2:0.05 3:0.82 4:-0.41696697473526 5:0.7045977115631104 6:0.12080812454223633 7:0.1406952440738678 8:0.17352193593978882 9:0.17542552947998047 10:-0.6157676577568054 11:0.9828705787658691 12:-0.82 13:-0.02 14:-0.57 
-0.0 0.0 0.0 0.0 0.0 0.0 3.339694402077053 0.0 0.0 0.0 0.0 0.0 0.0 0.0 0.0 1.5851980104805403 0.0 0.0 0.0 0.0 0.0 0.0 0.0 1:-0.56 2:-0.01 3:0.83 4:-0.41674160957336426 5:0.6875949501991272 6:0.07395747303962708 7:0.04333013296127319 8:0.08891266584396362 9:0.1790555864572525 10:-0.6723223924636841 11:0.9866437911987305 12:-0.83 13:0.02 14:-0.55 
-0.0 0.0 0.0 0.0 0.0 0.0 0.0 0.0 0.0 0.0 0.0 0.0 0.0 0.0 0.0 0.0 0.0 0.0 0.0 0.0 0.0 0.0 0.012818067387033411 1:-0.55 2:0.09 3:0.83 4:-0.41665706038475037 5:0.7543935775756836 6:0.09765449166297913 7:0.10063871741294861 8:0.15119552612304688 9:0.10333573818206787 10:-0.579049825668335 11:0.9831597805023193 12:-0.83 13:-0.05 14:-0.55 
-0.0 0.0 0.0 0.0 3.4932361849813867 0.0 0.0 0.0 0.0 0.0 0.0 0.0 0.0 0.0 0.008930963931890381 0.0 0.0 0.0 0.0 0.0 0.0 0.0 0.5670869617103708 1:-0.55 2:0.04 3:0.83 4:-0.4165935516357422 5:0.7048587799072266 6:0.12207654118537903 7:0.14407208561897278 8:0.18430134654045105 9:0.15018141269683838 10:-0.6175401210784912 11:0.9833223819732666 12:-0.83 13:0.02 14:-0.55 
-0.0 0.0 0.0 0.0 0.0 0.0 0.0 0.0 0.0 0.0 0.0 0.0 0.0 2.685431740379701 0.9502052826747351 0.0 0.0 0.0 0.9595568478332894 0.0 0.0 0.0 0.0 1:-0.53 2:0.04 3:0.84 4:-0.4165409803390503 5:0.6954059600830078 6:0.12368279695510864 7:0.18251532316207886 8:0.18777811527252197 9:0.1578075885772705 10:-0.6265175938606262 11:0.985245943069458 12:-0.84 13:0.04 14:-0.54 
-0.0 0.0 0.0 0.0 0.0 0.0 0.0 0.0 0.0 0.0 0.0 0.0 0.0 0.0 0.0 0.0 0.0 3.6908544359558144 0.0 0.0 0.0 0.0 0.0 1:-0.52 2:0.08 3:0.85 4:-0.4165063798427582 5:0.6905987858772278 6:0.14536747336387634 7:0.1891682744026184 8:0.20690175890922546 9:0.16886483132839203 10:-0.6139301061630249 11:0.9870415925979614 12:-0.85 13:0.02 14:-0.52 
-0.0 -0.0 0.0 0.0 0.0 5.9689867155554905 0.0 0.0 0.0 3.4119760015420106 0.0 0.0 0.08038647090230687 0.0 0.0 0.0 0.0 0.0 0.0 0.0 4.280675262253366 0.0 0.0 1:-0.31 2:0.28 3:0.91 4:0.5296108722686768 5:0.5512090921401978 6:0.5119595527648926 7:0.2711431384086609 8:0.2660520076751709 9:0.7364342212677002 10:0.9638017416000366 11:-0.6804214715957642 12:-0.94 13:0.01 14:-0.33 
-2.467222592337669 -2.6610919329839184 5.251650849108241 0.0 0.0 0.0 0.0 0.0 3.283021976839918 0.0 3.484038215118551 0.027569329615506056 0.0 0.004255494197164019 0.0 0.0 0.0 1.0384042543125847 0.0 2.9469867101834524 0.0 4.129939918849707 0.19272466563611607 1:-0.33 2:0.27 3:0.91 4:0.5360262393951416 5:0.5676422715187073 6:0.543290913105011 7:0.26506727933883667 8:0.2604721486568451 9:0.7621209621429443 10:0.9721214771270752 11:-0.6560963988304138 12:-0.94 13:0.02 14:-0.34 
-0.0 -0.0 0.0 0.0 0.0 0.0 0.0 0.0 0.0 0.0 0.0 1.2747958452463717 0.0 0.0 0.0 0.0 0.0 0.0 0.0 0.0 0.0 0.0 0.0 1:-0.33 2:0.28 3:0.9 4:0.535327672958374 5:0.5990879535675049 6:0.5485852360725403 7:0.25430065393447876 8:0.24722015857696533 9:0.7852323055267334 10:0.9741237163543701 11:-0.6623666286468506 12:-0.94 13:0.02 14:-0.35 
-0.0 -0.0 0.0 1.8887833780859764 0.0 0.0 2.256489115798447 0.0 0.0 0.0 0.0 0.0 0.0 0.0 0.0 0.0 0.0 0.0 0.0 0.0 0.0 0.0 0.0 1:-0.34 2:0.27 3:0.9 4:0.5411006212234497 5:0.6043057441711426 6:0.5447918772697449 7:0.2470046877861023 8:0.24063150584697723 9:0.7985658645629883 10:0.9752625226974487 11:-0.6709716320037842 12:-0.93 13:0.02 14:-0.36 
-0.0 -0.0 0.0 0.0 2.634594088998866 0.0 0.05628666295659236 5.7014071156688315 0.0 0.0 0.0 0.0 2.2021092041519403 0.15649871192879294 0.0 2.119431217157617 5.282166918672146 0.0 0.0 0.0 0.0 0.0 0.0 1:-0.36 2:0.24 3:0.9 4:0.5422617197036743 5:0.5440449714660645 6:0.5536890625953674 7:0.23922574520111084 8:0.22759762406349182 9:0.8014087677001953 10:0.983802855014801 11:-0.6748840808868408 12:-0.93 13:0.02 14:-0.38 
-0.0 -0.0 0.0 0.0 0.0 0.0 0.0 0.0 0.0 0.0 0.0 0.0 0.0 0.0 0.0 0.0 0.4432471819151205 0.0 0.0 0.0 0.0 0.0 0.0 1:-0.32 2:0.31 3:0.89 4:0.5213769674301147 5:0.519943118095398 6:0.4995664358139038 7:0.20286570489406586 8:0.212094247341156 9:0.7496598958969116 10:0.9544026255607605 11:-0.7390549182891846 12:-0.93 13:0.06 14:-0.36 
-0.0 -0.0 0.0 0.0 0.0 0.4940817968636288 0.0 0.0 0.0 0.0 0.0 0.0 0.0 0.0 0.0 0.0 0.0 0.0 0.0 0.0 0.0 0.0 0.0 1:-0.33 2:0.23 3:0.91 4:0.5293984413146973 5:0.5526458024978638 6:0.5168290138244629 7:0.216011643409729 8:0.2163676917552948 9:0.8223466277122498 10:0.9801730513572693 11:-0.7181287407875061 12:-0.94 13:0.03 14:-0.35 
-0.0 -0.0 0.0 0.0 0.0 0.0 0.0 0.0 0.0 0.0 0.0 0.0 0.0 0.0 0.0 0.0 0.0 0.0 0.0 0.0 0.0 0.0 1.7562879439862644 1:-0.25 2:0.35 3:0.9 4:0.5239235162734985 5:0.46931907534599304 6:0.49753138422966003 7:0.2066153734922409 8:0.20141875743865967 9:0.7736166715621948 10:0.9567641615867615 11:-0.747615396976471 12:-0.94 13:0.15 14:-0.31 
-0.0 -0.0 0.0 0.0 1.1145343211980496 0.0 0.0 0.0 0.0 0.0 0.0 0.0 0.0 0.0 2.5515544821064986 0.0 0.0 0.0 5.885755301391556 0.0 0.0 0.0 0.0 1:-0.27 2:0.28 3:0.92 4:0.536052942276001 5:0.4533013105392456 6:0.5089380145072937 7:0.16719411313533783 8:0.15237420797348022 9:0.7803112268447876 10:0.9526976943016052 11:-0.771468460559845 12:-0.93 13:0.16 14:-0.32 
-0.0 -0.0 0.0 0.0 0.0 0.0 0.0 0.0 0.0 0.0 0.0 0.0 0.0 0.0 0.0 0.0 0.0 0.0 0.26613114086344697 0.0 0.0 0.0 0.0 1:-0.28 2:0.28 3:0.92 4:0.5357006192207336 5:0.4548622965812683 6:0.5111244916915894 7:0.1652226746082306 8:0.1570647954940796 9:0.781836211681366 10:0.9510664343833923 11:-0.7667193412780762 12:-0.93 13:0.15 14:-0.33 
-0.0 -0.0 0.0 0.9146321626032557 0.0 0.0 0.0 0.0 0.0 0.0 0.0 0.7260456494084199 0.0 0.0 0.0 0.0 0.0 0.0 0.0 0.0 0.0 0.0 0.0 1:-0.29 2:0.28 3:0.91 4:0.5431612730026245 5:0.5491394996643066 6:0.5257673263549805 7:0.26155900955200195 8:0.27185899019241333 9:0.8758044242858887 10:0.9827744364738464 11:-0.6712021231651306 12:-0.94 13:0.07 14:-0.33 
-0.0 -0.0 0.0 0.0 0.0 0.0 0.0 0.0 0.0 0.0 0.0 0.0 0.0 1.6339431070116006 0.0 0.0 0.0 0.0 0.0 0.0 0.0 0.0 0.0 1:-0.27 2:0.25 3:0.93 4:0.530549943447113 5:0.47486284375190735 6:0.5438095331192017 7:0.2420046627521515 8:0.23334534466266632 9:0.854550302028656 10:0.9616759419441223 11:-0.6824766397476196 12:-0.94 13:0.12 14:-0.31 
-0.0 -0.0 0.0 0.0 0.0 0.0 0.0 0.0 0.0 0.0 0.0 0.0 0.0 0.0 0.0 0.0 0.0 1.8551057574781162 0.0 0.0 0.0 0.0 0.0 1:-0.26 2:0.27 3:0.93 4:0.532642126083374 5:0.4662046432495117 6:0.5371078252792358 7:0.2472439557313919 8:0.23177137970924377 9:0.8478333950042725 10:0.9616833329200745 11:-0.6890159845352173 12:-0.94 13:0.13 14:-0.3 
-0.0 -2.4332012506993106 -0.6872617081996268 0.0 0.0 0.6853612265454551 0.0 0.0 0.0 0.0 0.0 0.0 0.0 0.43413880876957334 1.7534408691469097 0.0 0.0 0.0 2.9351267522372155 0.0 1.1358811527011685 0.0 2.4259806354954994 1:-0.4 2:0.47 3:0.79 4:0.5023118257522583 5:0.5414472818374634 6:0.44876590371131897 7:0.49579083919525146 8:0.4793742001056671 9:0.8577401041984558 10:0.9693373441696167 11:0.9991085529327393 12:-0.85 13:0.13 14:-0.5 
-0.0 -0.0 -3.810718302551212 0.0 0.0 0.059378637823531775 0.7624838965564561 0.0 0.0 0.0 0.0 0.0 2.5252459155599634 0.0 0.0 1.3536630300951242 2.133399830980519 0.0 0.0 0.0 0.0 0.0 0.0 1:-0.41 2:0.46 3:0.79 4:0.50785231590271 5:0.5521247386932373 6:0.4625581204891205 7:0.4729233384132385 8:0.4962429702281952 9:0.8590916991233826 10:0.9705392122268677 11:0.9988064765930176 12:-0.85 13:0.12 14:-0.52 
-0.0 -0.0 -0.0 0.0 0.619472236446478 0.0 2.1734314888733683 0.0 0.0 0.0 0.0 0.0 0.0 0.0 0.0 1.1784307675086436 0.0 0.0 0.0 0.0 0.0 0.0 0.0 1:-0.46 2:0.47 3:0.75 4:0.5261622071266174 5:0.6148483753204346 6:0.5374688506126404 7:0.43996673822402954 8:0.557944655418396 9:0.8646459579467773 10:0.9776150584220886 11:0.9981939196586609 12:-0.83 13:0.08 14:-0.55 
-0.0 -0.0 -0.0 3.446691602831687 3.9105908895227293 0.0 0.0 0.0 0.0 0.0 0.0 3.3154176308679015 0.0 1.4804219828546157 0.0 0.3937568520133506 0.25497859265169553 3.13483907965692 0.0 0.0 0.0 0.0 0.0 1:-0.53 2:0.38 3:0.76 4:0.5044324994087219 5:0.6868082880973816 6:0.6977315545082092 7:0.6498939990997314 8:0.7053112983703613 9:0.9387015104293823 10:0.999787449836731 11:0.9982450008392334 12:-0.78 13:0.15 14:-0.61 
-0.0 -0.0 -0.0 0.0 0.0 0.0 0.0 0.0 0.0 0.0 0.0 0.0 0.0 0.0 0.0 0.0 0.0 0.0 0.0 0.17232163580796356 0.0 0.0 0.0 1:-0.5 2:0.36 3:0.79 4:0.4557018280029297 5:0.7035273909568787 6:0.6937460899353027 7:0.6422752141952515 8:0.6976176500320435 9:0.8062565326690674 10:0.9973220825195312 11:0.9999821782112122 12:-0.85 13:-0.03 14:-0.53 
-0.0 -0.0 -0.0 0.0 0.0 0.0 0.0 0.0 0.0 0.0 0.0 0.0 0.0 0.0 0.0 0.0 0.0 0.0 0.0 2.3084768976355146 0.0 0.0 0.0 1:-0.5 2:0.36 3:0.79 4:0.4557029604911804 5:0.70829176902771 6:0.6965858340263367 7:0.6422532796859741 8:0.6975463628768921 9:0.8010396957397461 10:0.9973951578140259 11:0.9999979734420776 12:-0.85 13:-0.03 14:-0.53 
-0.0 -0.0 -0.0 0.0 0.0 0.0 0.0 0.0 0.0 0.0 0.0 0.0 0.0 0.0 0.0 0.0 0.0 0.0 0.0 0.0 2.102047318176972 0.0 0.0 1:-0.45 2:0.43 3:0.78 4:0.4598425030708313 5:0.6744358539581299 6:0.6610875725746155 7:0.6397255659103394 8:0.6653382778167725 9:0.7635906934738159 10:0.9986792802810669 11:0.9999170303344727 12:-0.87 13:-0.02 14:-0.49 
-0.0 -0.0 -0.0 0.0 0.0 0.0 0.0 0.0 0.0 0.0 0.0 0.0 0.0 0.0 0.0 0.0 0.0 0.0 0.0 0.0 0.0 3.3844596618064995 0.0 1:-0.44 2:0.45 3:0.78 4:0.459358811378479 5:0.6756213307380676 6:0.6598273515701294 7:0.6343171000480652 8:0.6603527069091797 9:0.7588015198707581 10:0.9985932111740112 11:0.9997559785842896 12:-0.88 13:-0.02 14:-0.48 
-0.0 -0.0 -0.0 0.0 0.0 0.0 0.0 0.0 0.0 0.0 0.0 0.0 0.0 0.0 0.0 0.0 0.0 0.0 0.0 0.0 0.0 11.11684227152858 0.0 1:-0.44 2:0.4 3:0.8 4:0.45911264419555664 5:0.6766281127929688 6:0.6519269943237305 7:0.6307874321937561 8:0.6537981629371643 9:0.7515759468078613 10:0.9987215995788574 11:0.999361515045166 12:-0.87 13:0.01 14:-0.49 
-0.0 -1.5237269578504307 -0.7536708383574016 0.0 0.0 2.2597756559066564 0.0 3.460658342323508 0.0 0.0 0.0 0.0 0.0 0.0 0.0 0.0 0.0 0.0 0.0 0.0 0.0 0.0 0.0 1:-0.48 2:0.21 3:0.85 4:0.46183860301971436 5:0.6778613924980164 6:0.6331815123558044 7:0.6346444487571716 8:0.6665199995040894 9:0.7388581037521362 10:0.9982439279556274 11:0.9978788495063782 12:-0.86 13:0.09 14:-0.5 
-0.0 -0.0 -0.0 0.0 0.0 0.0 0.2047875412639406 0.0 0.0 0.0 0.0 0.0 0.6296254573098693 0.0 0.0 0.0 0.0 0.0 0.0 0.0 0.0 0.0 0.0 1:-0.48 2:0.2 3:0.85 4:0.46523118019104004 5:0.6782186031341553 6:0.6417785882949829 7:0.6453157067298889 8:0.6769153475761414 9:0.7347496151924133 10:0.9987749457359314 11:0.998137354850769 12:-0.86 13:0.1 14:-0.51 
-4.293469184384431 -0.0 -0.0 0.0 0.0 0.0 0.0 0.0 7.280258990351219 3.3050945488563874 10.375394378176564 0.0 0.0 0.4100189297648134 0.13013521732014732 0.0 0.6000313019548319 0.0 0.0 2.87215078627568 0.0 0.0 0.0 1:-0.48 2:0.2 3:0.85 4:0.4660872220993042 5:0.6783433556556702 6:0.6500364542007446 7:0.6484212279319763 8:0.6855546832084656 9:0.7339897155761719 10:0.9991730451583862 11:0.9982259273529053 12:-0.85 13:0.1 14:-0.51 
-0.0 -0.0 -0.0 0.0 0.0 0.0 0.0 0.0 0.0 0.0 0.0 0.0 0.0 0.0 0.0 0.0 0.0 0.0 0.004230331114863144 0.0 0.0 0.0 0.0 1:-0.49 2:0.21 3:0.85 4:0.46684858202934265 5:0.6785306930541992 6:0.6572815179824829 7:0.6495729684829712 8:0.6883678436279297 9:0.7338282465934753 10:0.9994031190872192 11:0.9985070824623108 12:-0.85 13:0.11 14:-0.51 
-0.0 -0.0 -0.0 0.0 0.0 0.0 0.0 0.0 0.0 0.0 0.0 0.0 0.0 0.0 0.0 0.0 0.0 3.388606286413231 0.0 0.0 0.0 0.0 0.0 1:-0.48 2:0.23 3:0.85 4:0.4673987030982971 5:0.6788070201873779 6:0.6559401750564575 7:0.6481450200080872 8:0.6880668997764587 9:0.728431761264801 10:0.999245285987854 11:0.9985334873199463 12:-0.85 13:0.11 14:-0.51 
-2.521351789044156 -0.838287219674451 -0.0 -3.446691602831687 7.796948046912549 0.0 0.3789062623402929 0.0 2.997199886380486 0.0 3.059675332368359 25.982167501442905 0.0 3.6655902579622923 0.0 1.480051546711626 0.0 2.8551384342259585 0.0 2.4916865888630455 0.3881992929881896 2.7637264653549947 0.0 1:-0.39 2:-0.37 3:-0.84 4:0.5185328722000122 5:0.9000570774078369 6:0.8901690244674683 7:0.7122273445129395 8:0.7351882457733154 9:0.8149387836456299 10:0.9995269179344177 11:0.37503477931022644 12:-0.06 13:0.92 14:-0.38 
-0.0 -0.0 -0.0 -0.0 0.0 0.0 0.0 0.0 0.0 0.0 0.0 0.0 0.0 0.0 0.0 0.0 0.0 0.0 0.0 0.0 0.0 0.0 1.8776911652256651 1:-0.35 2:-0.35 3:-0.87 4:0.49040672183036804 5:0.8988738059997559 6:0.889029860496521 7:0.65304034948349 8:0.6774427890777588 9:0.8075564503669739 10:0.9995565414428711 11:0.28939715027809143 12:-0.07 13:0.94 14:-0.35 
-0.0 -1.1484637762377603 -0.0 -0.0 0.0 0.0 0.0 0.0 0.0 2.565849376372277 0.0 0.0 0.0 0.0 0.0 0.0 0.0 0.0 0.0 0.0 0.0 0.0 0.0 1:-0.38 2:-0.37 3:-0.85 4:0.4940860867500305 5:0.8983851075172424 6:0.8885782361030579 7:0.5554390549659729 8:0.5956438183784485 9:0.8080062866210938 10:0.9995690584182739 11:0.1831035614013672 12:-0.07 13:0.92 14:-0.38 
-0.0 -0.0 -2.7671658727750144 -0.0 0.0 0.0 0.0 0.0 0.0 0.0 0.0 0.0 0.0 0.0 0.0 0.0 0.0 0.0 0.0 0.0 0.0 0.0 0.0 1:-0.38 2:-0.37 3:-0.85 4:0.49592745304107666 5:0.8983665108680725 6:0.8885612487792969 7:0.5533188581466675 8:0.5952097177505493 9:0.8086088299751282 10:0.9995694160461426 11:0.1825217604637146 12:-0.07 13:0.92 14:-0.37 
-0.0 -0.0 -0.036249667914217826 -0.0 0.0 0.0 0.0 0.0 0.0 0.0 0.0 0.0 0.0 0.0 0.0 0.0 0.0 0.0 0.0 0.0 0.0 0.0 0.0 1:-0.38 2:-0.37 3:-0.85 4:0.4965789020061493 5:0.8983598947525024 6:0.8885552883148193 7:0.5531097650527954 8:0.5950804352760315 9:0.8090060949325562 10:0.9995695948600769 11:0.18234650790691376 12:-0.07 13:0.92 14:-0.38 
-0.0 -0.0 -0.0 -0.0 0.0 0.0 0.0 0.0 0.0 0.0 0.0 0.0 2.5563912792918573 0.0 0.0 0.0 0.0 0.0 1.2991537949752459 0.0 0.0 0.0 0.0 1:-0.39 2:-0.37 3:-0.85 4:0.4990854263305664 5:0.8983570337295532 6:0.8885526657104492 7:0.55116206407547 8:0.5950267314910889 9:0.8101410865783691 10:0.9995697140693665 11:0.18227338790893555 12:-0.06 13:0.92 14:-0.38 
-0.0 -0.0 -0.0 -0.0 0.0 0.0 5.616783513818679 0.0 0.0 0.0 0.0 0.0 0.0 0.0 0.0 0.0 0.0 0.0 0.0 0.0 0.0 0.0 0.0 1:-0.39 2:-0.37 3:-0.85 4:0.5014041662216187 5:0.8983545303344727 6:0.888550341129303 7:0.5502684712409973 8:0.59498131275177 9:0.8109180331230164 10:0.9995697736740112 11:0.18221139907836914 12:-0.06 13:0.92 14:-0.38 
-0.0 -0.0 -0.0 -0.0 0.0 0.0 0.0 0.0 0.0 0.0 0.0 0.0 0.0 0.0 0.0 1.0336344374539166 3.395888228805068 0.0 0.0 0.0 0.0 0.0 0.0 1:-0.39 2:-0.37 3:-0.85 4:0.5016492009162903 5:0.898352324962616 6:0.8885483145713806 7:0.5502316355705261 8:0.5949429869651794 9:0.8110419511795044 10:0.9995697736740112 11:0.18215897679328918 12:-0.06 13:0.92 14:-0.38 
-0.0 -0.0 -0.0 -0.0 12.965008992944238 0.0 0.0 0.0 0.0 0.0 0.0 0.0 0.0 0.0 0.0 0.0 0.0 0.0 0.0 0.0 0.0 0.0 0.0 1:-0.32 2:-0.36 3:-0.87 4:0.5000755190849304 5:0.8983277678489685 6:0.8885259628295898 7:0.544183075428009 8:0.5879810452461243 9:0.8098923563957214 10:0.9995704293251038 11:0.1737266480922699 12:-0.01 13:0.92 14:-0.38 
-0.0 -0.0 -0.0 -0.0 0.0 0.0 0.0 0.0 0.0 0.0 0.0 0.0 0.0 0.0 0.0 0.0 0.0 0.0 0.0 0.0 1.735304038933345 0.0 0.0 1:-0.32 2:-0.36 3:-0.87 4:0.5000413060188293 5:0.8983260989189148 6:0.8885244131088257 7:0.5360750555992126 8:0.5791761875152588 9:0.8099363446235657 10:0.9995704889297485 11:0.16265664994716644 12:-0.01 13:0.92 14:-0.38 
-0.0 -0.0 -0.0 -0.0 0.0 2.343002686102013 0.0 2.8692697719981184 0.0 0.0 0.0 0.0 0.0 0.0 0.0 0.0 0.0 0.0 0.0 0.0 0.0 0.0 0.0 1:-0.31 2:-0.37 3:-0.88 4:0.4975787401199341 5:0.898321270942688 6:0.8885200023651123 7:0.5248759984970093 8:0.5565643906593323 9:0.8093065619468689 10:0.9995706677436829 11:0.1346755474805832 12:-0.01 13:0.92 14:-0.38 
-0.0 -0.0 -0.0 -0.0 0.0 0.0 0.0 0.0 0.0 0.0 0.0 0.0 0.0 0.0 3.472424313735717 0.0 0.0 0.0 2.7421066612330325 0.0 0.0 0.0 1.8571029644631907 1:-0.31 2:-0.36 3:-0.88 4:0.4949919283390045 5:0.8983165621757507 6:0.8885157108306885 7:0.5156790614128113 8:0.5503304600715637 9:0.8085140585899353 10:0.9995707273483276 11:0.1271013617515564 12:-0.01 13:0.93 14:-0.38 
-0.0 -0.0 -0.0 -0.0 -0.0 0.0 0.0 0.0 0.0 0.0 0.0 0.0 0.0 0.0 0.11671518115835654 0.0 0.0 0.0 0.9204331250906554 0.0 0.0 0.0 2.8525284226217953 1:-0.58 2:-0.41 3:-0.71 4:0.3108246624469757 5:0.062252312898635864 6:0.08900967240333557 7:0.02866572141647339 8:0.07060116529464722 9:0.966658353805542 10:0.9984608292579651 11:0.9993572235107422 12:0.12 13:0.81 14:-0.57 
-0.0 -0.0 -0.0 -0.0 -0.0 0.0 6.018784879902313 0.0 0.0 0.0 0.0 0.0 2.1263193385554255 0.0 0.0 0.0 0.0 0.0 0.0 0.0 0.0 0.0 0.0 1:-0.6 2:-0.49 3:-0.64 4:0.28755873441696167 5:0.06795963644981384 6:-0.18426451086997986 7:-0.27443933486938477 8:-0.23066043853759766 9:0.969066321849823 10:0.9626450538635254 11:0.998875081539154 12:0.06 13:0.76 14:-0.64 
-0.0 -0.4961065455159848 -0.0 -0.0 -0.0 0.0 0.0 0.0 0.0 0.0 0.0 0.0 0.0 0.0 0.0 0.0 0.0 0.0 0.0 0.0 0.0 0.0 0.0 1:-0.41 2:-0.73 3:-0.54 4:0.30153971910476685 5:0.06808251142501831 6:-0.1868172585964203 7:-0.3344874382019043 8:-0.2616056799888611 9:0.9669414758682251 10:0.9619768857955933 11:0.9970535039901733 12:-0.01 13:0.6 14:-0.8 
-0.0 -0.0 -0.0 -0.0 -0.0 0.0 0.0 0.0 0.0 0.0 0.0 0.0 0.0 0.0 0.0 1.305715193032835 0.0 0.0 0.0 0.0 0.0 0.0 0.0 1:-0.34 2:-0.78 3:-0.52 4:0.32026946544647217 5:0.06811091303825378 6:-0.18720963597297668 7:-0.33940744400024414 8:-0.30197155475616455 9:0.9655190706253052 10:0.9618728160858154 11:0.992979109287262 12:0.01 13:0.55 14:-0.83 
-0.0 -0.0 -0.0 -0.0 -0.0 1.100047506953945 0.0 0.0 0.0 0.0 0.0 0.0 0.0 0.0 0.0 0.0 3.702241500205092 0.0 0.0 0.0 1.0802476535792445 0.0 0.0 1:-0.19 2:-0.84 3:-0.5 4:0.35264942049980164 5:0.0681334137916565 6:-0.18748575448989868 7:-0.33479854464530945 8:0.5274255275726318 9:0.9563922882080078 10:0.9617992639541626 11:-0.92365562915802 12:-0.02 13:0.51 14:-0.86 
-0.0 -0.0 -0.8725828029825156 -0.0 -0.0 0.0 0.0 0.0 0.0 0.0 0.0 0.0 0.0 0.0 0.0 0.0 2.6547048350578137 0.0 6.6134670792447245 0.0 0.0 0.0 0.0 1:-0.09 2:-0.84 3:-0.53 4:0.3765966296195984 5:0.06815484166145325 6:-0.18772533535957336 7:-0.30464738607406616 8:0.3192145824432373 9:0.9404995441436768 10:0.9617352485656738 11:-0.9863758087158203 12:-0.04 13:0.54 14:-0.84 
-0.0 -0.0 -0.0 -0.0 -0.0 0.963412370355611 0.0 0.0 0.0 0.0 0.0 0.0 0.0 0.0 9.380057233090914 0.0 0.0 0.0 0.0 0.0 0.07999631294968179 0.0 0.0 1:-0.01 2:-0.83 3:-0.56 4:0.3801858425140381 5:0.06817513704299927 6:-0.1879352629184723 7:-0.25173240900039673 8:0.2992638349533081 9:0.937251091003418 10:0.9616789817810059 11:-0.989385187625885 12:-0.06 13:0.56 14:-0.83 
-0.0 -0.0 -1.067813912341304 -0.0 -0.0 0.27306267276380247 0.0 2.4630271641860753 0.0 0.0 0.0 0.0 0.0 0.0 0.0 0.0 0.0 0.0 0.0 0.0 0.0 0.0 0.0 1:0.05 2:-0.85 3:-0.53 4:0.3818555176258087 5:0.7104650139808655 6:-0.18722137808799744 7:-0.21380126476287842 8:0.2889026701450348 9:0.9081951379776001 10:0.5510656833648682 11:-0.9906506538391113 12:-0.1 13:0.52 14:-0.85 
-0.7768939066565369 -0.9388535135917837 -0.15949632633319163 -0.3367106320531362 -0.0 0.5396440808603311 1.566203925285739 0.0 0.23411549855878971 2.032005077871422 0.16730515934179294 0.0 0.14542371589369682 1.1151129426523194 1.1639769113327614 1.0010468928266254 0.5908341248792515 0.14990992378096138 0.0 0.9253387873766149 0.44806696312790373 0.26054217075275754 0.0 1:0.09 2:-0.87 3:-0.49 4:0.38280361890792847 5:0.49587351083755493 6:-0.12463107705116272 7:-0.20437923073768616 8:0.282809853553772 9:-0.5667890310287476 10:-0.8927861452102661 11:-0.9824324250221252 12:-0.13 13:0.48 14:-0.87 
-0.2558563301175388 -0.0 -0.292097373362804 -0.0 -0.0 0.1176207054924949 0.0 1.608422069536251 1.1143946640513633 2.796529926251402 0.2848432964572689 0.0 0.0 0.0 0.0 0.0 0.0 0.0 0.0 0.029260499621036242 0.0 0.0 0.0 1:0.09 2:-0.87 3:-0.49 4:0.38342517614364624 5:0.3593217730522156 6:0.8541016578674316 7:-0.20267093181610107 8:0.27932825684547424 9:-0.6729726791381836 10:0.7530860900878906 11:0.7376605868339539 12:-0.14 13:0.48 14:-0.87 
-0.0 -0.0 -0.0 -0.0 -0.0 0.0 0.0 0.0 0.0 0.0 0.0 0.0 0.0 0.0 0.0 0.0 0.0 0.0 0.0 0.17625250120388755 0.0 0.0 0.0 1:0.07 2:-0.86 3:-0.5 4:0.38386666774749756 5:0.34296557307243347 6:0.3847362697124481 7:-0.19778519868850708 8:0.27705249190330505 9:-0.6835441589355469 10:0.9789518713951111 11:0.9830502271652222 12:-0.16 13:0.48 14:-0.86 
-0.0 -0.0 -0.0 -0.0 -0.0 0.0 0.0 0.0 0.0 0.0 0.0 0.0 0.4463813239215462 0.0 0.0 0.0 0.0 0.0 0.0 0.0 0.0 0.0 0.0 1:0.05 2:-0.86 3:-0.51 4:0.3846780061721802 5:0.3270713686943054 6:0.3360024690628052 7:-0.1461397111415863 8:0.2732251286506653 9:-0.6927839517593384 10:0.9810275435447693 11:0.985936164855957 12:-0.19 13:0.49 14:-0.85 
-0.0 -0.0 -0.0 -0.0 -0.0 0.0 0.0 0.0 0.0 0.0 0.9798470302304181 0.0 0.0 0.0 0.0 0.0 0.0 0.0 0.0 0.0 0.0 1.6656819346342226 0.0 1:0.05 2:-0.86 3:-0.51 4:0.3848230242729187 5:0.32514089345932007 6:0.3331083059310913 7:-0.13321977853775024 8:0.2725839614868164 9:-0.6937946081161499 10:0.9810899496078491 11:0.986014723777771 12:-0.19 13:0.5 14:-0.85 
-0.0 -0.0 -0.0 -0.0 -0.0 0.0 0.0 0.0 0.0 0.0 0.0 0.0 0.0 0.0 1.0350995150821227 0.0 0.0 0.0 0.0 0.0 0.0 0.0 9.080751619674343 1:-0.02 2:-0.75 3:-0.66 4:0.3853490352630615 5:0.2862482964992523 6:0.2600155770778656 7:-0.11352136731147766 8:0.270096093416214 9:-0.7177467942237854 10:0.9819619059562683 11:0.9857767820358276 12:-0.06 13:0.66 14:-0.75 
-0.0 -0.0 -0.0 -0.30555619813048235 -4.852586555332956 0.0 5.111058222416796 0.0 0.0 0.0 0.027507981155244467 3.0605620887903586 0.0 0.0 0.0 0.0 0.0 0.0 0.0 0.0 0.0 0.0 0.0 1:-0.66 2:-0.35 3:-0.66 4:0.5806934237480164 5:0.3996579647064209 6:0.9433243274688721 7:0.0474553108215332 8:0.8460337519645691 9:0.9669473171234131 10:0.10637038946151733 11:0.6574409008026123 12:-0.04 13:0.9 14:-0.43 
-0.0 -0.0 -0.0 -0.0 -0.4837785716445305 0.0 0.0 0.0 0.0 0.0 0.0 0.0 0.0 6.224092577220054 0.0 0.0 0.0 1.8816981725191086 0.39695276803740964 0.0 0.0 0.0 0.5085033684270891 1:-0.75 2:-0.2 3:-0.63 4:0.5760677456855774 5:0.22348818182945251 6:0.9467065930366516 7:0.0556623637676239 8:0.7055246233940125 9:0.9232455492019653 10:-0.06595726311206818 11:0.471005380153656 12:0.11 13:0.9 14:-0.42 
-0.0 -0.9985722059834611 -0.5593157507279147 -0.0 -0.0 0.0 0.0 0.0 0.0 0.0 1.7068050767641152 0.0 0.0 0.0 0.0 4.345186266638031 0.6905777896588248 0.6127159584287487 1.4369746222425632 0.0 0.0 0.22629647499796987 0.0 1:-0.82 2:-0.2 3:-0.54 4:0.5194534063339233 5:0.2516198456287384 6:0.9439774751663208 7:0.05469030141830444 8:0.6626845002174377 9:0.9576390981674194 10:-0.046980634331703186 11:0.40877896547317505 12:0.17 13:0.82 14:-0.55 
-0.0 -0.1609846454683249 -0.7978222444491853 -2.7715168800513807 -0.0 0.0 0.0 0.0 0.0 0.0 0.0 0.0 1.5603492968989567 0.0 0.0 0.0 1.512495379097199 0.0 0.0 0.0 0.0 1.5402175645320557 0.0 1:-0.78 2:-0.44 3:-0.44 4:0.3679558038711548 5:0.411460280418396 6:0.5570933818817139 7:0.2233237624168396 8:0.37076419591903687 9:0.9986029863357544 10:0.9741156101226807 11:0.965126097202301 12:0.15 13:0.55 14:-0.82 
-0.0 -0.0 -0.0 -0.0 -0.0 0.0 0.0 0.0 0.0 0.0 0.0 0.13738528646443487 0.0 0.0 0.0 0.0 0.0 0.0 0.0 0.0 0.0 0.0 0.0 1:-0.14 2:-0.66 3:-0.74 4:0.4057255983352661 5:0.31895390152931213 6:0.26224809885025024 7:0.2514243423938751 8:0.8257482051849365 9:0.9262014627456665 10:0.9947488307952881 11:0.7535817623138428 12:0.08 13:0.74 14:-0.67 
-0.0 -0.0 -0.0 -0.0 -6.250205221643566 0.0 0.0 0.0 0.0 0.0 0.0 0.0 0.0 0.0 0.0 0.0 0.0 0.0 0.0 0.0 0.0 0.0 0.0 1:-0.03 2:-0.69 3:-0.73 4:0.40586844086647034 5:0.31461843848228455 6:0.26120004057884216 7:0.2338455617427826 8:0.9652073979377747 9:0.9250239133834839 10:0.995298445224762 11:0.1258653700351715 12:0.05 13:0.72 14:-0.69 
-0.0 -0.0 -0.0 -0.0 -7.6190113195815234 0.0 0.0 0.0 0.0 0.0 0.0 5.180835213048809 0.0 0.0 0.0 0.0 0.0 0.0 0.0 0.0 0.0 0.0 0.0 1:0.03 2:-0.71 3:-0.71 4:0.18907171487808228 5:0.9977051019668579 6:0.9861884117126465 7:0.21702948212623596 8:0.611546516418457 9:0.12449541687965393 10:0.9870474338531494 11:0.6945803165435791 12:0.02 13:0.71 14:-0.71 
-1.4546443464354668 -0.8173989950175922 -0.0 -0.0 -0.0 0.0 2.6384473059511158 0.0 0.11245724854970242 0.0 0.0 0.0 0.0 0.29563369042107723 0.0 0.0 0.0 0.0 0.0 0.0 0.0 0.0 0.0 1:0.1 2:-0.73 3:-0.68 4:-0.044566601514816284 5:0.8787024617195129 6:0.3802768290042877 7:0.1922646462917328 8:0.5803461074829102 9:-0.5059713125228882 10:0.7654193639755249 11:0.9526770114898682 12:-0.02 13:0.68 14:-0.73 
-0.0 -0.0 -0.0 -0.0 -0.0 0.0 0.0 0.0 0.0 0.0 0.0 0.0 0.0 0.0 1.0156970796436702 0.0 0.0 0.0 0.0 0.0 0.0 0.0 0.0 1:0.13 2:-0.73 3:-0.67 4:-0.05277255177497864 5:0.3600862920284271 6:0.3218684196472168 7:0.16176795959472656 8:0.5681784152984619 9:-0.929517388343811 10:0.9798980951309204 11:0.9389079809188843 12:-0.06 13:0.67 14:-0.74 
-0.0 -0.0 -0.0 -0.0 -0.0 0.0 0.0 0.0 0.0 0.0 0.0 0.0 0.0 0.10927200345098581 0.0 0.0 0.0 0.6971173705874775 0.0 0.0 0.0 0.5019573913422606 0.0 1:0.14 2:-0.74 3:-0.66 4:-0.06216511130332947 5:0.32341742515563965 6:0.3098618984222412 7:0.13408637046813965 8:0.5558942556381226 9:-0.9431248903274536 10:0.9806076884269714 11:0.939617931842804 12:-0.08 13:0.66 14:-0.75 
-0.0 -0.0 -0.0 -0.0 -0.0 0.0 0.0 0.0 0.0 0.0 0.0 0.0 0.0 0.0 0.0 0.0 0.0 0.0 0.0 0.0 0.16932772856925546 0.0 0.0 1:0.14 2:-0.74 3:-0.66 4:-0.12907502055168152 5:0.31179845333099365 6:0.3037438690662384 7:0.11913391947746277 8:0.5501187443733215 9:-0.9601597189903259 10:0.9807371497154236 11:0.939786970615387 12:-0.09 13:0.65 14:-0.75 
-0.0955422896431993 -0.0 -0.0 -0.1868513591433247 -0.0 0.0 0.0 0.0 0.0 0.0 0.045730803418387984 0.0 0.0 0.0 0.0 0.0 0.0 0.0 0.0 0.0 0.0 0.0 0.0 1:0.14 2:-0.75 3:-0.64 4:-0.12745851278305054 5:0.2987563908100128 6:0.29551637172698975 7:0.06437820196151733 8:0.538045346736908 9:-0.9620568156242371 10:0.9808779954910278 11:0.9415909051895142 12:-0.11 13:0.63 14:-0.77 
-0.0 -0.08132027940424004 -0.0 -0.0 -0.0 0.0 0.0 0.0 0.0 0.0 0.0 0.0 1.6772226288287984 0.0 0.0 0.0 0.0 0.0 0.0 0.0 0.0 0.0 0.0 1:0.15 2:-0.76 3:-0.64 4:-0.12762516736984253 5:0.2967195510864258 6:0.2940886616706848 7:0.03082612156867981 8:0.45362281799316406 9:-0.9625115990638733 10:0.9809013605117798 11:0.9662076830863953 12:-0.11 13:0.63 14:-0.77 
-0.0 -0.0 -0.0 -0.0 -0.0 0.0 0.0 0.0 0.0 0.0 0.0 0.0 2.7343190103414976 0.0 0.0 0.0 0.0 0.0 0.0 0.0 0.0 0.0 0.0 1:0.15 2:-0.73 3:-0.67 4:-0.11638563871383667 5:0.2883479595184326 6:0.2796894609928131 7:-0.03363868594169617 8:0.3880103528499603 9:-0.9629192352294922 10:0.981231689453125 11:0.9763561487197876 12:-0.11 13:0.66 14:-0.74 
-0.0 -0.0 -0.0 -0.0 -0.0 0.0 3.8523049493412844 0.0 0.0 0.0 0.0 0.0 0.0 0.0 0.0 0.0 0.0 0.0 0.0 0.0 0.0 0.0 0.0 1:-0.26 2:-0.72 3:-0.65 4:0.42184704542160034 5:0.9968214631080627 6:0.7174333333969116 7:-0.051067739725112915 8:0.9129133820533752 9:0.3491826355457306 10:0.7674151659011841 11:0.907856822013855 12:-0.08 13:0.68 14:-0.73 
-1.8411336111283196 -0.0 -0.0 -0.929428056590883 -1.55637537165421 1.1647078820155956 0.0 0.9168707777369173 3.7378177087829685 0.8114427289833915 1.8629990707978357 5.308442575957394 0.0 1.5236668453707938 0.0 0.0 0.0 0.7301608431174916 0.0 3.062643825257957 1.1692007444380168 0.0 0.0 1:-0.45 2:-0.76 3:-0.46 4:0.5372459888458252 5:0.6055582761764526 6:0.6597938537597656 7:0.5476549863815308 8:0.584604024887085 9:0.978385865688324 10:0.9790387153625488 11:0.9850772619247437 12:0.17 13:0.43 14:-0.89 
-1.9126061516901824 -0.2807554004058075 -4.898842736155214 -2.6971298389467284 -2.343002686102013 -4.15849521844178 2.0299911587541124 12.834291180195068 0.9879263499385528 0.0 2.9884338280326563 1.8513584748630865 0.0 1.850966602114193 2.1721925492638294 2.0154572719189257 4.907806811926699 1.1966761896490066 2.903194068805004 1.507480899169177 0.0 0.0 1.0396997796956116 1:0.14 2:-0.6 3:0.79 4:0.5654456615447998 5:0.18624043464660645 6:0.24765673279762268 7:0.4998132586479187 8:0.45554280281066895 9:0.7932725548744202 10:0.9123579263687134 11:-0.7485507726669312 12:-0.28 13:-0.79 14:-0.55 
-0.0 -0.0 -0.0 -0.0 -0.0 -0.0 0.0 0.0 3.4570000550524655 0.0 0.0 0.0 0.0 0.0 0.0 0.0 0.0 0.0 0.0 1.1072109477242027 10.61058999434061 0.0 0.0 1:0.16 2:-0.47 3:0.87 4:0.5720780491828918 5:0.17567414045333862 6:0.230984628200531 7:0.5039253234863281 8:0.4835590124130249 9:0.7291406989097595 10:0.9083789587020874 11:-0.7388637065887451 12:-0.19 13:-0.88 14:-0.44 
-0.0 -0.0 -0.0 -0.0 -0.0 -0.0 0.0 0.0 0.0 0.0 0.0 0.0 0.0 0.0 0.0 0.0 0.0 0.0 0.0 1.3024393598735728 0.0 0.0 0.0 1:0.11 2:-0.47 3:0.88 4:0.5589638352394104 5:0.18898747861385345 6:0.2156354933977127 7:0.5041326284408569 8:0.48599809408187866 9:0.6632518768310547 10:0.9069201350212097 11:-0.7475519180297852 12:-0.16 13:-0.88 14:-0.45 
-1.1583298245111955 -1.8863554958564845 -0.0 -0.3073856813289149 -0.0 -0.0 0.0 0.0 0.0 0.0 0.013291336136255286 0.0 0.0 0.0 0.0 0.0 0.0 0.9979215983436313 0.0 0.0 4.973451754115031 2.6112830382435703 0.0 1:0.1 2:-0.46 3:0.88 4:0.5506131649017334 5:0.19551461935043335 6:0.2035743147134781 7:0.504322350025177 8:0.48771581053733826 9:0.6291174292564392 10:0.9053585529327393 11:-0.7544455528259277 12:-0.15 13:-0.88 14:-0.44 
-0.0 -0.0 -0.0 -0.0 -0.0 -0.0 0.0 0.0 0.0 5.269733713149115 0.0 0.0 0.0 0.0 0.0 0.0 0.0 0.0 0.0 0.0 0.0 0.0 0.0 1:0.07 2:-0.45 3:0.89 4:0.5531453490257263 5:0.19879555702209473 6:0.19238202273845673 7:0.5044965147972107 8:0.4714738130569458 9:0.6109164357185364 10:0.9040490984916687 11:-0.773961067199707 12:-0.14 13:-0.89 14:-0.44 
-0.0 -0.0 -0.0 -0.0 -0.0 -0.0 0.0 2.835964507351817 0.0 0.0 0.0 0.0 2.105523755799267 0.0 0.0 0.0 0.2014418228591374 0.0 0.010633759281075968 0.0 0.0 0.0 0.0 1:0.03 2:-0.44 3:0.9 4:0.5482131838798523 5:0.20161208510398865 6:0.17658266425132751 7:0.4997735619544983 8:0.4472266435623169 9:0.602237343788147 10:0.9034636616706848 11:-0.8008267879486084 12:-0.13 13:-0.89 14:-0.43 
-0.0 -0.0 -0.0 -0.0 -0.0 -0.0 0.0 0.0 0.0 0.0 0.0 0.0 0.0 0.0 0.0 0.0 0.17887645814681424 0.0 0.0 0.0 0.0 0.0 0.0 1:0.1 2:-0.25 3:0.96 4:0.5760954022407532 5:0.07551592588424683 6:0.05995479226112366 7:0.25811564922332764 8:0.2422444224357605 9:0.534578800201416 10:0.9050794839859009 11:-0.9503573775291443 12:-0.09 13:-0.97 14:-0.25 
-0.0 -0.0 -0.0 -0.0 -0.0 -0.0 0.0 0.0 0.0 0.0 0.0 0.0 0.05215278369077571 0.0 0.0 0.0 0.0 0.0 0.0 0.0 0.0 0.0 0.0 1:0.19 2:-0.16 3:0.97 4:0.5429611802101135 5:-0.004416286945343018 6:-0.0050735920667648315 7:0.20565290749073029 8:0.21922074258327484 9:0.4432380497455597 10:0.9135066866874695 11:-0.9702231287956238 12:-0.04 13:-0.99 14:-0.15 
-0.0 -0.0 -0.0 -0.0 -0.0 -0.0 0.0 0.0 0.0 0.0 0.0 0.0 0.0 0.0 0.46904530976301767 0.0 0.0 0.0 0.0 0.0 0.0 0.0 0.0 1:0.21 2:-0.15 3:0.97 4:0.540973961353302 5:-0.026814773678779602 6:-0.011692628264427185 7:0.21216687560081482 8:0.2254973202943802 9:0.44788771867752075 10:0.9151070713996887 11:-0.9695682525634766 12:-0.03 13:-0.99 14:-0.15 
-0.0 -0.0 -0.0 -0.0 -0.0 -0.0 0.0 0.0 0.0 0.0 0.0 0.0 0.0 0.0 0.10315337471629893 0.0 0.0 0.0 0.0 0.0 0.0 0.0 0.704997103393348 1:0.2 2:-0.12 3:0.97 4:0.5422549843788147 5:-0.029818110167980194 6:-0.011652827262878418 7:0.21251130104064941 8:0.23179036378860474 9:0.4588950574398041 10:0.9187519550323486 11:-0.967654287815094 12:-0.04 13:-0.99 14:-0.11 
-0.0 -0.0 -1.5642257762639045 -0.0 -0.0 -0.0 0.0 0.0 0.0 0.0 0.0 0.0 0.0 0.0 0.0 0.0 0.0 0.0 0.0 0.0 0.0 0.0 0.0 1:0.18 2:-0.11 3:0.98 4:0.5514377951622009 5:-0.01768215000629425 6:-0.009127125144004822 7:0.2175244837999344 8:0.24322523176670074 9:0.49274078011512756 10:0.9348165392875671 11:-0.963972806930542 12:-0.05 13:-0.99 14:-0.1 
-0.0 -0.0 -0.0 -0.0 -0.0 -0.0 0.0 0.0 0.0 0.0 0.0 0.0 0.0 0.0 0.0 0.0 0.0 0.0 0.9943260832813008 0.0 0.0 0.0 0.0 1:0.19 2:-0.1 3:0.98 4:0.5369522571563721 5:-0.03431917726993561 6:-0.05135781317949295 7:0.22728538513183594 8:0.25054529309272766 9:0.5176452398300171 10:0.9195137619972229 11:-0.9749396443367004 12:-0.03 13:-0.99 14:-0.09 
-0.0 -0.0 -0.0 -0.0 -0.0 -0.0 0.0 0.0 0.0 0.0 0.0 0.0 0.0 0.0 0.0 0.0 0.0 0.0 0.0 0.0 3.140912642477665 0.0 0.0 1:0.34 2:-0.09 3:0.94 4:0.4887070059776306 5:-0.0901356041431427 6:-0.032810479402542114 7:0.21984776854515076 8:0.2544730305671692 9:0.6676667928695679 10:0.9209557771682739 11:-0.9731928706169128 12:-0.06 13:-1.0 14:-0.08 
-0.0 -0.0 -0.0 -0.0 -0.0 -0.0 0.0 0.18144429071282375 0.0 0.0 0.0 0.0 0.0 0.0 0.0 0.0 0.0 0.0 0.0 0.0 0.0 0.0 0.0 1:0.31 2:-0.12 3:0.94 4:0.4951566755771637 5:0.07298432290554047 6:0.05063142627477646 7:0.22306257486343384 8:0.2551349401473999 9:0.7267112731933594 10:0.9213436841964722 11:-0.9502044916152954 12:-0.04 13:-0.99 14:-0.12 
-0.0 -0.0 -2.0592010100429756 -2.647944414785345 -3.030099671333334 -11.554898429905128 -1.8684181476137782 0.0 2.0396996642005014 0.0 0.4727760389695951 0.939953797372456 1.5787466658507765 0.0 1.6185437901508686 0.0 2.4371376094844495 0.0 2.655881139332473 0.0 1.2541414343546167 0.5760396462466836 0.0 1:-0.48 2:-0.6 3:-0.64 4:0.5538707971572876 5:0.9801105260848999 6:0.10261467099189758 7:-0.06722593307495117 8:-0.03638327121734619 9:0.694793701171875 10:0.2856823801994324 11:0.9630750417709351 12:-0.24 13:0.8 14:-0.56 
-0.0 -0.0 -0.0 -0.0 -0.0 -0.0 -0.0 2.459396937250625 0.0 0.0 0.0 0.0 0.0 0.0 0.0 0.0 0.0 0.0 0.0 0.0 0.0 0.0 0.0 1:-0.47 2:-0.6 3:-0.65 4:0.5542705059051514 5:0.9854413270950317 6:0.1093161404132843 7:-0.06636765599250793 8:-0.03602108359336853 9:0.6752848029136658 10:0.26506125926971436 11:0.9617257118225098 12:-0.24 13:0.79 14:-0.56 
-0.0 -0.0 -0.0 -0.0 -0.0 -0.0 -0.0 0.0 0.0 0.0 0.0 0.0 0.0 0.0 0.0 0.0 0.0 0.0 0.0 1.9413126571751391 0.0 0.0 0.0 1:-0.47 2:-0.6 3:-0.64 4:0.5549442172050476 5:0.9907731413841248 6:0.11024537682533264 7:-0.0676872730255127 8:-0.03574925661087036 9:0.6510956883430481 10:0.23280656337738037 11:0.961559534072876 12:-0.25 13:0.79 14:-0.56 
-0.0 -0.0 -0.0 -0.0 -0.0 -0.0 -0.0 0.0 0.0 0.0 0.0 0.0 0.0 0.0 0.0 1.1738053396142716 0.0 0.0 0.0 0.0 0.0 0.0 0.0 1:-0.49 2:-0.61 3:-0.62 4:0.5694558024406433 5:0.9728678464889526 6:0.10071197152137756 7:-0.09511390328407288 8:-0.0590268075466156 9:0.36830806732177734 10:-0.12975278496742249 11:0.9552835822105408 12:-0.26 13:0.78 14:-0.56 
-0.0 -3.187229164637765 -0.0 -0.0 -0.0 -0.0 -0.0 0.0 0.0 0.0 0.0 0.0 0.0 0.0 0.0 0.0 0.0 0.0 0.0 0.0 0.0 0.0 0.0 1:-0.48 2:-0.61 3:-0.63 4:0.5687180757522583 5:0.9641407132148743 6:0.10748779773712158 7:-0.08937224745750427 8:-0.047794491052627563 9:0.33656811714172363 10:-0.15668845176696777 11:0.9513028860092163 12:-0.28 13:0.78 14:-0.56 
-0.40145387968218477 -0.2852487651615528 -0.0 -0.0 -0.0 -0.0 -0.0 0.0 0.0 0.0 0.0 0.0 0.0 0.0 0.0 4.6392276076395325 0.0 0.0 0.0 1.2152369550498976 0.0 0.0 0.0 1:-0.48 2:-0.6 3:-0.63 4:0.5687388181686401 5:0.9611318111419678 6:0.13503047823905945 7:-0.04924595355987549 8:0.01064068078994751 9:0.3270312547683716 10:-0.13995158672332764 11:0.9541795253753662 12:-0.27 13:0.79 14:-0.55 
-1.2417593169039145 -0.0 -0.0 -0.0 -0.0 -0.0 -0.0 0.0 0.0 0.0 0.0 0.0 0.0 0.0 0.0 0.0 0.0 0.0 0.0 0.0 0.0 0.0 0.0 1:-0.48 2:-0.59 3:-0.65 4:0.5694476366043091 5:0.9572402238845825 6:0.17494846880435944 7:-0.01486632227897644 8:0.04879316687583923 9:0.3153337836265564 10:-0.1130572259426117 11:0.9534913301467896 12:-0.26 13:0.8 14:-0.53 
-1.2362335993017117 -0.0 -0.0 -0.0 -0.0 -0.0 -0.0 0.0 0.0 2.200320554158175 0.0 0.0 0.0 0.0 0.0 0.0 0.0 0.0 0.0 0.0 0.0 0.0 0.0 1:-0.48 2:-0.55 3:-0.68 4:0.5811951160430908 5:0.9357341527938843 6:0.24317140877246857 7:0.04971626400947571 8:0.1200086772441864 9:0.26583394408226013 10:-0.10819748044013977 11:0.9562264680862427 12:-0.24 13:0.83 14:-0.5 
-0.0 -0.0 -0.0 -0.0 -0.0 -0.0 -0.0 0.0 0.0 0.0 0.0 0.0 0.0 6.535660123559279 0.0 0.0 0.0 0.0 0.0 0.0 0.0 0.0 0.0 1:-0.49 2:-0.49 3:-0.72 4:0.6038755774497986 5:0.9209216833114624 6:0.3167250156402588 7:0.11409980058670044 8:0.21269124746322632 9:0.25908106565475464 10:-0.07058459520339966 11:0.9577969312667847 12:-0.2 13:0.87 14:-0.45 
-0.0 -0.0 -0.0 -0.0 -0.0 -0.0 -0.16157301114033412 0.02632208922113307 0.6870368504215015 0.5080887246765948 2.7161331554215256 0.0 2.085498139186631 0.0 0.0 0.0 0.2432496035297032 0.0 0.0 0.0 0.5540740001648438 2.3660434504731627 0.0 1:-0.5 2:-0.46 3:-0.73 4:0.5983389019966125 5:0.9054830074310303 6:0.3462357521057129 7:0.09651511907577515 8:0.255683034658432 9:0.20919685065746307 10:-0.07734715938568115 11:0.958238422870636 12:-0.19 13:0.88 14:-0.43 
-0.0 -0.0 -0.0 -0.0 -0.0 -7.63190085299212 -0.0 0.0 0.0 0.0 0.0 0.0 0.0 0.0 0.0 0.0 0.0 0.0 0.0 0.0 0.0 0.0 0.0 1:-0.5 2:-0.46 3:-0.74 4:0.5983879566192627 5:0.9052512645721436 6:0.35551199316978455 7:0.10464602708816528 8:0.25781717896461487 9:0.20873069763183594 10:-0.06796801090240479 11:0.9575129747390747 12:-0.19 13:0.89 14:-0.43 
-0.0 -0.0 -0.0 -0.0 -0.0 -0.0 -0.0 0.0 0.0 0.0 0.0 0.0 0.0 0.0 1.0490348326802619 0.0 0.0 0.0 0.0 0.0 0.0 0.0 0.0 1:-0.5 2:-0.46 3:-0.74 4:0.5984152555465698 5:0.9055742025375366 6:0.35603824257850647 7:0.10881131887435913 8:0.25544047355651855 9:0.20949341356754303 10:-0.06656825542449951 11:0.9570446014404297 12:-0.19 13:0.89 14:-0.42 
-0.0 -0.0 -0.25357476871206336 -0.4927585119084198 -2.965590104825637 -0.0 -0.0 0.0 0.0 0.0 0.0 4.114417218637481 0.0 0.0 0.0 0.0 0.0 2.9328751368567123 0.23330691964632647 0.0 0.0 0.0 5.448338549299896 1:-0.5 2:-0.46 3:-0.74 4:0.5981151461601257 5:0.9068864583969116 6:0.3564154803752899 7:0.10913518071174622 8:0.25712457299232483 9:0.2119177281856537 10:-0.06309634447097778 11:0.9570143818855286 12:-0.19 13:0.89 14:-0.42 
-0.0 -0.0 -0.0 -0.0 -0.0 -0.34774118680306176 -15.0974627133276 -0.0 0.0 0.0 0.0 0.0 0.0 0.4771844600042349 1.7704544272651273 0.7032781365159817 3.387995060635411 0.0 2.5097066541124513 0.0 0.0 0.0 0.0 1:0.1 2:-0.66 3:0.75 4:-0.27340275049209595 5:0.33188143372535706 6:0.46772855520248413 7:0.3184282183647156 8:0.3081291913986206 9:0.6814456582069397 10:0.9100803136825562 11:-0.692703366279602 12:-0.04 13:-0.75 14:-0.66 
-0.0 -0.0 -1.6062413195495842 -0.0 -0.0 -0.0 -0.0 -0.0 0.0 0.0 0.0 0.0 0.0 0.0 0.0 0.0 0.0 0.0 0.0 0.0 6.366040303169018 0.0 0.0 1:0.1 2:-0.61 3:0.79 4:-0.28607937693595886 5:0.3549566864967346 6:0.5072017908096313 7:0.31716978549957275 8:0.3121415376663208 9:0.6648467779159546 10:0.9155013561248779 11:-0.6545197367668152 12:-0.05 13:-0.79 14:-0.61 
-0.0 -0.02420960978256466 -0.0 -0.0 -0.0 -0.0 -0.0 -0.0 0.0 0.0 0.0 0.0 0.0 0.0 0.0 0.0 0.0 0.0 0.0 0.0 0.0 0.0 0.0 1:0.1 2:-0.6 3:0.8 4:-0.3116447925567627 5:0.3863157033920288 6:0.5611605644226074 7:0.3114332854747772 8:0.3154267966747284 9:0.6246299147605896 10:0.9228367805480957 11:-0.600193977355957 12:-0.07 13:-0.8 14:-0.59 
-0.0 -0.0 -0.0 -0.0 -0.0 -0.0 -0.0 -0.0 0.0 0.0 0.6231648828282321 0.0 0.0 0.0 0.0 0.0 0.0 0.855521077593952 0.0 0.0 0.0 0.0 0.0 1:0.1 2:-0.63 3:0.77 4:-0.2691153883934021 5:0.5017275214195251 6:0.6666947603225708 7:0.3111170828342438 8:0.3218005895614624 9:0.6042582988739014 10:0.9347683787345886 11:-0.47782042622566223 12:-0.08 13:-0.77 14:-0.63 
-0.0 -0.0 -0.0 -0.21913430207988963 -0.0 -0.0 -0.0 -0.0 0.0 0.0 0.0 0.0 0.0 0.0 0.0 0.0 0.0 0.0 0.0 1.9939820971493143 0.0 0.0 0.0 1:0.15 2:-0.62 3:0.77 4:-0.25447672605514526 5:0.5413581132888794 6:0.6987614035606384 7:0.2934221923351288 8:0.3206714689731598 9:0.5888747572898865 10:0.9376267194747925 11:-0.4372786283493042 12:-0.12 13:-0.78 14:-0.61 
-0.0 -0.0 -0.0 -0.0 -0.0 -0.0 -0.0 -0.0 3.460497543327743 0.0 0.0 0.0 0.0 0.0 0.0 0.0 0.0 0.0 0.0 0.0 0.0 0.0 0.0 1:0.23 2:-0.67 3:0.71 4:-0.3560240864753723 5:0.6137170195579529 6:0.7656201124191284 7:0.3554825186729431 8:0.2934499680995941 9:0.45415276288986206 10:0.9657222032546997 11:-0.3321150541305542 12:-0.05 13:-0.74 14:-0.67 
-1.9018429716325862 -0.0 -0.0 -0.0 -0.0 -0.0 -0.0 -0.0 0.0 0.0 0.0 0.0 0.0 0.0 0.0 0.0 0.0 0.0 0.0 0.0 0.0 0.0 0.0 1:0.29 2:-0.63 3:0.72 4:-0.4717503786087036 5:0.7223377227783203 6:0.8049323558807373 7:0.30299991369247437 8:0.28584158420562744 9:0.15872487425804138 10:0.9867373108863831 11:-0.27728593349456787 12:-0.21 13:-0.77 14:-0.6 
-0.0 -0.0 -0.0 -0.0 -0.0 -0.0 -0.0 -0.0 1.0919774452994786 0.0 0.0 0.0 0.0 0.0 0.0 0.0 0.0 0.0 0.0 0.0 0.0 0.0 0.0 1:0.29 2:-0.61 3:0.73 4:-0.4881162643432617 5:0.7264352440834045 6:0.8053209185600281 7:0.3009124994277954 8:0.2854169011116028 9:0.11257441341876984 10:0.9896530508995056 11:-0.27703234553337097 12:-0.2 13:-0.79 14:-0.58 
-1.3628319487110687 -0.0 -0.0 -0.0 -0.0 -0.0 -0.0 -0.0 0.0 0.0 0.0 0.0 0.0 0.0 0.0 0.0 0.0 0.0 0.0 0.0 0.0 0.0 0.0 1:0.29 2:-0.61 3:0.74 4:-0.4955095648765564 5:0.7274530529975891 6:0.8054821491241455 7:0.29949453473091125 8:0.2850821018218994 9:0.0895979106426239 10:0.9909242987632751 11:-0.2771320641040802 12:-0.2 13:-0.79 14:-0.58 
-0.0 -1.4171659264115266 -0.0 -0.0 -0.0 -0.0 -0.0 -0.0 0.0 10.150081183562753 0.0 0.0 1.3764064113445622 0.0 0.0 0.0 0.0 0.0 0.0 0.0 0.0 0.0 0.0 1:0.29 2:-0.61 3:0.74 4:-0.4987861216068268 5:0.7294471859931946 6:0.8055021166801453 7:0.29835933446884155 8:0.2847803235054016 9:0.07574021816253662 10:0.991919994354248 11:-0.2775762975215912 12:-0.2 13:-0.79 14:-0.57 
-0.0 -0.0 -0.0 -0.0 -0.0 -0.0 -0.0 -0.0 0.0 0.0 0.0 0.0 0.0 0.0 0.0 0.0 0.0 0.0 0.0 0.0 0.0 0.910763224758103 0.0 1:0.29 2:-0.6 3:0.74 4:-0.4992789030075073 5:0.7220665216445923 6:0.8024431467056274 7:0.297481894493103 8:0.2845228612422943 9:0.07486628741025925 10:0.9917066693305969 11:-0.2835877239704132 12:-0.2 13:-0.8 14:-0.57 
-0.0 -0.0 -0.0 -0.0 -0.0 -0.0 -0.0 -0.0 0.0 0.0 0.0 0.0 0.0 0.0 0.0 0.0 0.0 0.0 0.0 0.0 0.0 0.0 0.5124610742490489 1:0.4 2:-0.78 3:0.49 4:-0.34070974588394165 5:0.8082962036132812 6:0.8289274573326111 7:0.2920938730239868 8:0.28225868940353394 9:0.2608739733695984 10:0.9967708587646484 11:-0.25622743368148804 12:-0.48 13:-0.63 14:-0.61 
-2.7244749857487562 -0.0 -0.0 -0.0 -0.0 -1.339599958686872 -0.0 -0.0 0.0 0.0 0.0 0.0 0.0 0.0 0.0 0.0 0.0 0.0 0.0 0.0 0.0 0.0 0.9518929875992813 1:0.32 2:-0.8 3:0.5 4:-0.24203354120254517 5:0.8064202070236206 6:0.8297361135482788 7:0.2919877767562866 8:0.27456241846084595 9:0.36225390434265137 10:0.9948204159736633 11:-0.2625686526298523 12:-0.49 13:-0.59 14:-0.64 
-0.0 -0.850151871614944 -0.0 -3.2415240402436187 -2.2258209198678363 -0.0 -0.0 -0.9724949813621508 3.01382140721765 0.0 2.5576295303641516 2.197837079914583 0.0 1.469244753126327 0.0 0.16548022513856836 0.0 1.4026956196156317 0.0 2.6727512149836694 0.0 2.055125949857564 0.0 1:0.29 2:-0.8 3:0.53 4:-0.17689496278762817 5:0.7812345027923584 6:0.830435574054718 7:0.2816169261932373 8:0.2687481641769409 9:0.4560917019844055 10:0.9894139766693115 11:-0.26504454016685486 12:-0.47 13:-0.6 14:-0.64 
-0.0 -0.0 -0.0 -0.0 -0.0 -0.0 -0.7542372649321101 -0.0 0.0 0.0 0.0 0.0 0.0 0.0 0.0 0.0 0.0 0.0 0.0 0.0 0.0 0.0 0.0 1:0.2 2:-0.78 3:0.6 4:-0.07610069215297699 5:0.7762905955314636 6:0.7408949136734009 7:0.15108248591423035 8:0.11740115284919739 9:0.531388521194458 10:0.9727078676223755 11:-0.49629804491996765 12:-0.43 13:-0.62 14:-0.66 
-0.0 -0.0 -0.5128170263176577 -0.0 -0.0 -0.0 -0.0 -0.0 0.0 0.0 0.0 0.0 0.0 0.0 0.0 0.0 0.0 0.0 0.0 0.0 0.0 0.0 0.0 1:0.19 2:-0.77 3:0.6 4:-0.07080540060997009 5:0.7778854966163635 6:0.7387519478797913 7:0.11160621047019958 8:0.07479473948478699 9:0.5263595581054688 10:0.971256673336029 11:-0.534636914730072 12:-0.42 13:-0.62 14:-0.66 
-0.0 -0.0 -3.5823487698015897 -0.0 -0.0 -0.0 -0.0 -0.0 0.0 0.0 0.0 0.0 0.0 0.0 0.7835287167445294 0.0 0.0 0.0 0.0 0.0 0.0 0.0 0.0 1:0.04 2:-0.8 3:0.6 4:-0.03440859913825989 5:0.8150200843811035 6:0.8036575317382812 7:0.07114404439926147 8:0.01748359203338623 9:0.46912768483161926 10:0.9737201929092407 11:-0.5080592036247253 12:-0.38 13:-0.57 14:-0.73 
-0.0 -0.0 -0.0 -0.0 -0.0 -3.3009788659693102 -0.0 -0.0 0.0 0.0 0.0 0.0 0.0 0.0 0.0 0.0 0.0 0.0 0.0 0.0 0.0 0.0 0.0 1:0.02 2:-0.8 3:0.6 4:-0.028252452611923218 5:0.8306831121444702 6:0.8181381821632385 7:0.07000815868377686 8:0.018116652965545654 9:0.44840162992477417 10:0.9747852087020874 11:-0.48779869079589844 12:-0.37 13:-0.57 14:-0.74 
-0.0 -0.43431567749293076 -0.0 -0.0 -0.6434488521302818 -0.0 -0.0 -1.5132240451096073 0.0 1.7176116089891025 0.0 0.0 1.2770418724497399 0.0 0.0 1.205752926134953 1.3413533077654227 0.0 0.7565838570329608 0.0 0.0 0.0 0.4585510328633902 1:0.01 2:-0.8 3:0.61 4:-0.018592417240142822 5:0.8380452990531921 6:0.8223412036895752 7:0.0690930187702179 8:0.018104523420333862 9:0.4394693672657013 10:0.975618302822113 11:-0.48283326625823975 12:-0.36 13:-0.57 14:-0.74 
-0.0 -0.0 -1.8402444449364503 -2.4758759589415895 -0.0 -0.15352083705616665 -3.026015032336215 -0.5126121624129827 -0.0 0.0 2.0626927172606644 0.0 0.38625121206076757 0.685933017490918 0.9282835351495153 1.024544975250474 1.1576931948430191 1.2198039984039266 1.1894457456715264 3.9316794220666096 0.0 1.5391665551174354 0.799601583582873 1:0.2 2:-0.39 3:0.9 4:-0.20970022678375244 5:0.27969586849212646 6:0.4207186698913574 7:0.6720747947692871 8:0.4006774127483368 9:0.7909128665924072 10:0.9439307451248169 11:0.9952776432037354 12:-0.3 13:-0.9 14:-0.32 
-0.0 -0.0 -0.0 -0.0 -0.0 -0.0 -0.0 -0.0 -0.0 0.0 0.0 0.0 0.0 0.0 0.0 0.0 0.0 0.0 0.0 0.0 5.305074602602403 0.0 0.0 1:0.21 2:-0.4 3:0.89 4:-0.20977310836315155 5:0.28250589966773987 6:0.4330543577671051 7:0.6742751002311707 8:0.4527968168258667 9:0.7975566387176514 10:0.9435353875160217 11:0.9976009726524353 12:-0.3 13:-0.9 14:-0.33 
-0.0 -0.0 -0.0 -0.0 -0.0 -0.0 -0.0 -0.0 -0.0 0.0 0.0 0.0 0.0 0.0 0.0 0.0 0.0 0.06810483998639624 0.0 0.0 0.0 0.0 0.0 1:0.22 2:-0.4 3:0.89 4:-0.2076510339975357 5:0.28917545080184937 6:0.4460434317588806 7:0.6746954917907715 8:0.46013087034225464 9:0.8018175363540649 10:0.9435973167419434 11:0.9981622099876404 12:-0.3 13:-0.89 14:-0.33 
-0.0 -2.660822340153145 -0.0 -0.0 -0.0 -0.0 -0.0 -0.0 -0.0 0.0 0.0 0.0 1.182015882419435 0.0 0.0 0.0 0.0 0.0 0.0 0.0 0.0 0.0 0.0 1:0.16 2:-0.4 3:0.9 4:-0.3043822646141052 5:0.4199080467224121 6:0.5662606358528137 7:0.5749362707138062 8:0.5088918209075928 9:0.6366320252418518 10:0.931105375289917 11:0.9934516549110413 12:-0.22 13:-0.9 14:-0.37 
-0.0 -0.0 -0.0 -0.0 -0.0 -0.0 -0.0 -0.0 -0.5371637168276169 0.0 0.0 0.0 0.0 0.0 0.0 0.0 0.0 0.0 0.0 0.0 0.0 0.0 0.0 1:0.19 2:-0.43 3:0.88 4:-0.30247968435287476 5:0.45048537850379944 6:0.5856648683547974 7:0.5677899718284607 8:0.5083084106445312 9:0.6389856934547424 10:0.9359906315803528 11:0.9939727187156677 12:-0.21 13:-0.89 14:-0.39 
-4.026475181869677 -0.0 -0.0 -0.0 -0.0 -0.0 -0.0 -0.0 -0.0 0.0 0.0 0.0 0.0 0.0 0.0 0.0 0.0 0.0 0.0 0.0 0.0 0.0 0.0 1:0.18 2:-0.48 3:0.86 4:-0.2659679651260376 5:0.6193538904190063 6:0.6892647743225098 7:0.6341743469238281 8:0.6529956459999084 9:0.5177617073059082 10:0.9588680267333984 11:0.9985838532447815 12:-0.17 13:-0.87 14:-0.46 
-9.451927077917434 -0.0 -0.0 -0.0 -0.0 -0.0 -0.0 -0.0 -0.0 2.7647551489744955 0.0 0.0 0.0 0.0 0.0 0.0 0.0 0.0 0.0 0.0 0.0 0.0 0.0 1:0.11 2:-0.56 3:0.82 4:-0.19172848761081696 5:0.6810417771339417 6:0.7536035180091858 7:0.5997678637504578 8:0.6553052663803101 9:0.5289208889007568 10:0.9485973715782166 11:0.9894338846206665 12:-0.2 13:-0.82 14:-0.53 
-0.0 -0.0 -0.0 -0.0 -0.0 -0.0 -0.0 -0.0 -7.029132679017255 0.0 0.0 0.0 0.0 0.0 0.0 0.0 0.0 0.0 0.0 0.0 0.0 0.0 0.0 1:0.11 2:-0.58 3:0.81 4:-0.15920695662498474 5:0.681134819984436 6:0.7493149042129517 7:0.566584050655365 8:0.6560711860656738 9:0.5620469450950623 10:0.9493455290794373 11:0.9890426993370056 12:-0.23 13:-0.81 14:-0.54 
-0.0 -0.0 -0.0 -0.0 -0.0 -0.0 -1.418911372654803 -0.0 -0.0 0.0 0.0 0.0 0.0 0.0 0.0 0.0 0.0 0.0 0.0 12.6099881555764 0.2698049930309231 0.0 0.0 1:-0.08 2:-0.67 3:0.74 4:0.25406739115715027 5:0.9147197008132935 6:0.8688051104545593 7:0.5314742922782898 8:0.8777625560760498 9:0.6228427290916443 10:0.9873237013816833 11:0.9997225999832153 12:-0.2 13:-0.72 14:-0.67 
-0.0 -0.0 -0.0 -0.0 -2.997199886380486 -5.045264282886657 -0.0 -2.21412435220902 -0.0 0.0 0.0 3.000350516260378 1.3872372752738633 1.6268608901980157 0.9051281573363159 1.4667296383186743 1.3607386332394504 0.0 1.0188355862991414 0.0 0.0 0.0 1.246988425934537 1:-0.09 2:-0.75 3:0.66 4:0.18630704283714294 5:0.9305638074874878 6:0.931819498538971 7:0.5319075584411621 8:0.92961585521698 9:0.533077597618103 10:0.9982902407646179 11:0.9999733567237854 12:-0.27 13:-0.62 14:-0.74 
-0.0 -0.0 -1.4427775319034677 -4.804383031409629 -0.0 -0.0 -0.0 -0.0 -0.0 0.0 3.9482735592818385 0.0 0.0 0.0 0.0 0.0 0.0 2.0140010954176413 0.0 0.0 0.0 0.0 0.0 1:-0.08 2:-0.74 3:0.67 4:0.17145922780036926 5:0.9246618747711182 6:0.9540519714355469 7:0.5320121049880981 8:0.9378401041030884 9:0.5336809754371643 10:0.9962100386619568 11:0.9970231056213379 12:-0.31 13:-0.62 14:-0.72 
-9.217937098436451 -0.8306368075006015 -0.0 -0.0 -0.0 -0.0 -0.0 -0.0 -0.0 4.248130432396056 0.0 0.0 0.0 0.0 0.0 0.0 0.0 0.0 0.0 0.0 0.0 0.0 0.0 1:-0.04 2:-0.73 3:0.69 4:0.11679574847221375 5:0.925265371799469 6:0.9526403546333313 7:0.532158613204956 8:0.9454445838928223 9:0.4839620590209961 10:0.9941123127937317 11:0.9963750839233398 12:-0.35 13:-0.63 14:-0.69 
-0.0 -0.0 -0.0 -0.0 -0.0 -0.0 -0.0 -0.0 -0.0 0.0 0.0 0.0 0.0 0.0 0.0 0.0 0.0 0.0 0.0 0.0 0.0 2.9470391368234856 0.0 1:-0.05 2:-0.72 3:0.69 4:0.13387152552604675 5:0.9301552772521973 6:0.9519501328468323 7:0.5321865081787109 8:0.94720458984375 9:0.48741060495376587 10:0.99477618932724 11:0.9968537092208862 12:-0.34 13:-0.64 14:-0.69 
-0.0 -1.8694484726840694 -0.0 -0.0 -0.0 -0.0 -0.0 -0.0 -0.0 -0.0 0.0 0.0 0.0 0.0 0.0 0.0 0.0 0.0 0.0 0.0 0.0 0.0 0.0 1:-0.1 2:-0.76 3:0.64 4:0.022121310234069824 5:0.7388606071472168 6:0.7540686726570129 7:0.5656581521034241 8:0.551253080368042 9:-0.5032390356063843 10:0.11562037467956543 11:-0.09533768892288208 12:-0.17 13:-0.62 14:-0.77 
-0.0 -0.0 -0.0 -0.0 -0.0 -0.0 -0.0 -0.0 -0.0 -0.0 0.0 0.0 0.0 0.0 0.13296192855518135 0.0 0.8786044704793301 0.0 1.4671561943337799 0.0 0.0 0.0 0.0 1:-0.08 2:-0.74 3:0.66 4:0.10362952947616577 5:0.7689017057418823 6:0.7586747407913208 7:0.5294380784034729 8:0.49708375334739685 9:-0.4439595341682434 10:0.16836440563201904 11:-0.15621930360794067 12:-0.17 13:-0.65 14:-0.74 
-0.0 -0.0 -1.1839145284514165 -0.0 -0.0 -0.0 -2.158279438271841 -0.0 -0.0 -0.0 0.0 0.0 0.0 0.0 0.0 0.0 0.0 0.0 0.0 0.0 0.2643577704886889 0.0 0.0 1:-0.08 2:-0.73 3:0.68 4:0.1277810037136078 5:0.7691320180892944 6:0.7567400932312012 7:0.5266143679618835 8:0.5066894292831421 9:-0.433321475982666 10:0.1660015881061554 11:-0.1485445201396942 12:-0.16 13:-0.67 14:-0.73 
-0.0 -0.0 -0.0 -0.0 -0.0 -0.0 -0.0 -0.0 -0.0 -0.0 0.0 0.0 0.0 0.0 0.0 0.0 0.0 0.0 0.0 0.0 0.37690520054544163 0.0 0.0 1:-0.09 2:-0.76 3:0.64 4:0.03253588080406189 5:0.8043442368507385 6:0.7999206185340881 7:0.5883731842041016 8:0.5747531652450562 9:-0.4315005838871002 10:0.28793689608573914 11:0.00338127464056015 12:-0.16 13:-0.62 14:-0.76 
-0.0 -0.0 -0.0 -0.0 -0.0 -0.0 -0.0 -0.0 -0.0 -0.0 0.0 0.0 0.0 0.0 0.0 0.0 0.0 0.0 0.0 2.2176065537551883 0.0 0.0 0.0 1:-0.09 2:-0.78 3:0.62 4:0.018373936414718628 5:0.8177332282066345 6:0.8201061487197876 7:0.5892870426177979 8:0.5741512179374695 9:-0.42441219091415405 10:0.341844767332077 11:0.03912991285324097 12:-0.15 13:-0.61 14:-0.78 
-0.0 -0.0 -0.0 -0.0 -0.0 -0.0 -0.0 -0.0 -0.0 -0.0 0.0 0.0 0.0 0.26015416203774067 0.0 0.0 0.0 0.0 0.0 0.0 0.0 0.0 0.0 1:-0.09 2:-0.79 3:0.6 4:-0.01215362548828125 5:0.8042454123497009 6:0.8388399481773376 7:0.5871328115463257 8:0.5701261758804321 9:-0.44412070512771606 10:0.3514244556427002 11:0.0698101818561554 12:-0.15 13:-0.59 14:-0.8 
-0.0 -0.07655122032995797 -0.0 -0.0 -0.0 -0.0 -0.0 -0.0 -0.0 -0.0 2.9504963812891964 0.0 0.0 0.0 0.0 0.0 0.0 1.6019668128996267 0.0 0.0 0.0 0.0 0.0 1:-0.09 2:-0.79 3:0.6 4:-0.01676046848297119 5:0.815947413444519 6:0.843340277671814 7:0.5850793123245239 8:0.5626333951950073 9:-0.4325021505355835 10:0.3777320384979248 11:0.06874285638332367 12:-0.16 13:-0.58 14:-0.8 
-0.0 -0.0 -0.32475630399886607 -0.0 -0.0 -0.0 -0.0 -0.0 -0.0 -0.0 0.0 0.0 0.0 0.0 0.0 0.0 0.0 0.0 0.0 0.0 0.0 0.0 0.0 1:-0.08 2:-0.8 3:0.6 4:-0.026443541049957275 5:0.8335857391357422 6:0.8529585003852844 7:0.5715295076370239 8:0.550615668296814 9:-0.41741544008255005 10:0.4228479862213135 11:0.07279585301876068 12:-0.17 13:-0.58 14:-0.8 
-10.15167604861403 -0.0 -0.0 -2.809568978314184 -0.0 -0.0 -0.0 -0.0 -0.0 -7.0128855813705515 0.0 2.243700130172009 0.0 0.0 0.0 0.0 0.0 0.0 0.0 0.35446724583338735 0.0 2.587167592894251 0.0 1:-0.08 2:-0.8 3:0.6 4:-0.030140697956085205 5:0.8339044451713562 6:0.8574463129043579 7:0.5677870512008667 8:0.5487231612205505 9:-0.41882970929145813 10:0.4311716556549072 11:0.07916852086782455 12:-0.17 13:-0.58 14:-0.8 
-0.0 -0.0 -0.0 -0.0 -0.0 -0.0 -0.0 -0.0 -5.068894657733564 -0.0 0.0 0.0 0.0 0.0 0.0 0.0 0.0 0.0 0.0 0.0 0.0 0.0 0.0 1:-0.07 2:-0.8 3:0.59 4:-0.028176739811897278 5:0.8296639919281006 6:0.8632973432540894 7:0.5620332360267639 8:0.5286187529563904 9:-0.4227525293827057 10:0.4345831573009491 11:0.06658901274204254 12:-0.16 13:-0.58 14:-0.8 
-0.0 -0.0 -0.0 -0.0 -0.02463395884400818 -0.0 -0.0 -0.0019175011542713013 -0.0 -0.0 0.0 0.0 0.0 0.0 0.40844741407902646 0.0 0.0 0.0 0.0 0.0 0.0 0.0 0.0 1:-0.06 2:-0.81 3:0.59 4:-0.013954222202301025 5:0.8192695379257202 6:0.8710401058197021 7:0.5386767983436584 8:0.5118674635887146 9:-0.4295211434364319 10:0.43198180198669434 11:0.06297916173934937 12:-0.16 13:-0.57 14:-0.8 
-0.0 -0.0 -0.0 -0.0 -2.5412154175282686 -0.0 -0.0 -0.0 -3.205482090691257 -0.0 0.0 0.0 0.0 0.0 0.0 0.0 0.0 0.0 0.0 0.0 0.0 0.0 0.0 1:-0.07 2:-0.81 3:0.59 4:-0.013570606708526611 5:0.8165076971054077 6:0.8778395652770996 7:0.5286547541618347 8:0.5023582577705383 9:-0.432876318693161 10:0.440250426530838 11:0.0663137286901474 12:-0.15 13:-0.57 14:-0.81 
-0.0 -0.0 -0.0 -0.0 -0.0 -0.0 -0.0 -1.4120777671634717 -0.0 -0.0 0.0 0.0 1.4776826199394564 0.0 0.0 0.0 0.0 0.0 0.0 0.0 0.0 0.0 1.2515818928885263 1:-0.08 2:-0.81 3:0.58 4:-0.010967940092086792 5:0.799181342124939 6:0.8856000900268555 7:0.51866215467453 8:0.49335500597953796 9:-0.44816359877586365 10:0.42858290672302246 11:0.07289421558380127 12:-0.13 13:-0.57 14:-0.81 
-0.0 -0.0 -0.0 -0.0 -0.0 -1.389557541238081 -0.0 -0.0 -0.0 -0.0 0.0 0.0 0.0 0.0 0.0 0.0 0.0 0.0 0.0 0.0 0.0 0.0 0.0 1:-0.08 2:-0.81 3:0.57 4:-0.00865432620048523 5:0.7658711671829224 6:0.8904162645339966 7:0.496723473072052 8:0.464699387550354 9:-0.4771186411380768 10:0.38929885625839233 11:0.0501384437084198 12:-0.13 13:-0.56 14:-0.82 
-0.0 -0.0 -0.0 -0.0 -0.0 -4.250420191868136 -0.0 -0.0 -0.0 -0.0 0.0 0.0 0.0 0.0 0.0 0.0 0.0 0.0 0.0 0.0 0.0 0.0 0.0 1:-0.1 2:-0.82 3:0.56 4:0.026812255382537842 5:0.4656981825828552 6:0.9014034867286682 7:0.3645364046096802 8:0.32482755184173584 9:-0.6399059891700745 10:0.03663737326860428 11:-0.08246797323226929 12:-0.11 13:-0.55 14:-0.83 
-0.0 -0.0 -0.0 -0.0 -0.0 -0.0 -0.0 -0.0 -0.0 -0.0 0.0 0.0 0.0 0.0 0.0 0.0 0.0 0.0 0.0 0.0 0.0 0.0 0.10876361416070301 1:-0.12 2:-0.81 3:0.58 4:0.12522831559181213 5:0.41629326343536377 6:0.9011167883872986 7:0.3601851463317871 8:0.31698065996170044 9:-0.6528605222702026 10:-0.019090667366981506 11:-0.09159806370735168 12:-0.05 13:-0.58 14:-0.81 
-0.0 -0.0 -0.0 -0.0 -0.0 -0.0 -0.0 -1.2944140105170265 -0.0 -0.0 0.0 0.0 1.846946350332515 2.1516771498080023 1.6798010602332274 2.6834383268176913 2.251205974032981 0.0 1.0318843869173748 0.0 0.0 0.0 0.7646527501267817 1:-0.21 2:-0.79 3:0.58 4:0.06579795479774475 5:0.45305484533309937 6:0.921171247959137 7:0.3316654562950134 8:0.29925280809402466 9:-0.4758513569831848 10:0.07099850475788116 11:-0.05561022460460663 12:0.07 13:-0.6 14:-0.8 
-0.0 -0.0 -1.903305169091728 -0.0 -0.0 -0.0 -3.1114542748772744 -0.0 -3.593316044127036 -0.0 0.0 0.0 0.0 0.0 0.0 0.0 0.0 0.0 0.0 0.0 3.156471949962572 0.0 0.0 1:-0.08 2:-0.44 3:0.89 4:0.1098691076040268 5:0.5781110525131226 6:0.9073024988174438 7:0.330660343170166 8:0.3338671028614044 9:-0.41702550649642944 10:0.18150034546852112 11:-0.05944478511810303 12:0.01 13:-0.9 14:-0.44 
-0.0 -1.6934489724964448 -0.0 -0.4955255705422033 -0.0 -0.0 -0.0 -0.0 -0.0 -0.0 0.012535485436326342 0.0 0.0 0.0 0.0 0.0 0.0 1.1063326037104118 0.0 2.8857843813448514 0.0 1.0756500892756695 0.0 1:-0.08 2:-0.46 3:0.88 4:0.10681387782096863 5:0.5664637684822083 6:0.9077386856079102 7:0.3360923230648041 8:0.3632698357105255 9:-0.41468608379364014 10:0.16854363679885864 11:-0.02649429440498352 12:0.0 13:-0.89 14:-0.46 
-0.0 -0.0 -0.0 -0.0 -0.0 -0.0 -0.0 -0.0 -0.0 -0.0 1.2517582705966395 0.0 0.0 0.0 0.0 0.0 0.0 0.0 0.0 0.0 0.0 0.0 0.0 1:-0.09 2:-0.55 3:0.83 4:0.09499332308769226 5:0.5257059335708618 6:0.9083259105682373 7:0.37037527561187744 8:0.3661805987358093 9:-0.42035359144210815 10:0.12178546190261841 11:-0.022072970867156982 12:0.0 13:-0.84 14:-0.55 
-0.0 -4.046168705963783 -0.0 -0.0 -0.0 -0.0 -0.0 -0.0 -0.0 -0.0 -0.0 0.0 2.308602198700036 0.0 0.0 0.0 0.0 0.0 0.0 0.0 0.0 0.7643832114905921 0.0 1:-0.53 2:-0.32 3:0.79 4:0.521328866481781 5:-0.17065593600273132 6:0.7914496064186096 7:0.7393734455108643 8:0.829788327217102 9:0.16603457927703857 10:0.42448240518569946 11:0.9949522018432617 12:-0.83 13:-0.01 14:-0.56 
-4.373308233387247 -0.0 -0.0 -0.0 -0.0 -0.0 -0.0 -0.0 -0.0 -0.0 -4.214790137322162 0.0 0.0 0.0 0.0 0.0 0.0 0.0 0.0 0.0 0.0 0.0 0.0 1:-0.52 2:-0.33 3:0.79 4:0.5228691697120667 5:-0.17148369550704956 6:0.7922170162200928 7:0.7427999377250671 8:0.835126519203186 9:0.1704719364643097 10:0.42330852150917053 11:0.9940115809440613 12:-0.83 13:-0.01 14:-0.56 
-0.0 -0.0 -0.0 -0.0 -0.0 -0.0 -1.4700770572210364 -0.0 -0.0 -0.0 -0.0 0.0 0.0 0.0 0.0 0.0 0.0 0.0 0.0 0.0 3.1250205299383227 0.0 0.0 1:-0.52 2:-0.33 3:0.78 4:0.5278863906860352 5:-0.17417067289352417 6:0.7922157049179077 7:0.7519261837005615 8:0.8410813808441162 9:0.1850048005580902 10:0.4214397072792053 11:0.9930697679519653 12:-0.83 13:-0.01 14:-0.56 
-0.7037950410442322 -0.0 -0.0 -0.0 -0.0 -0.0 -0.0 -0.0 -0.0 -0.0 -0.0 0.0 0.0 0.0 0.0 0.0 0.0 0.0 0.0 0.0 0.0 0.0 0.0 1:-0.56 2:-0.33 3:0.76 4:0.5291373133659363 5:-0.1407054364681244 6:0.8163009285926819 7:0.7489200234413147 8:0.8553704023361206 9:0.24397961795330048 10:0.433457612991333 11:0.9912552833557129 12:-0.81 13:0.02 14:-0.59 
-0.0 -0.0 -0.0 -0.0 -0.0 -0.0 -0.0 -0.0 -0.0 -0.0 -0.0 0.0 1.1216302718546172 0.0 0.0 0.0 0.0 0.0 0.0 0.0 0.0 0.0 0.9881468870257756 1:-0.57 2:-0.3 3:0.76 4:0.5350759625434875 5:-0.1042737066745758 6:0.8172457814216614 7:0.736085832118988 8:0.8455256223678589 9:0.2725769579410553 10:0.46339380741119385 11:0.9911134243011475 12:-0.81 13:0.06 14:-0.58 
-0.0 -0.0 -0.3980212984325646 -1.837818678204421 -0.0 -0.0 -0.0 -0.0 -3.1807944131923835 -0.0 -0.0 0.0 0.0 0.0 0.0 0.0 0.0 0.0 0.0 0.0 0.0 7.438439186443189 0.0 1:-0.57 2:-0.29 3:0.77 4:0.5331431031227112 5:-0.10226061940193176 6:0.8175864219665527 7:0.7361159920692444 8:0.845676064491272 9:0.27005791664123535 10:0.46454918384552 11:0.9909911155700684 12:-0.81 13:0.05 14:-0.58 
-0.0 -0.0 -0.0 -0.0 -0.0 -0.0 -0.0 -0.0 -0.0 -6.010966276542503 -0.0 0.0 0.0 0.0 0.0 0.0 0.0 0.0 0.0 2.1081867810276584 0.0 0.0 0.0 1:-0.57 2:-0.29 3:0.77 4:0.5312813520431519 5:-0.10586166381835938 6:0.818164050579071 7:0.7365803122520447 8:0.8517817258834839 9:0.2627273499965668 10:0.4603538513183594 11:0.9899791479110718 12:-0.81 13:0.04 14:-0.58 
-0.0 -0.07423516434393848 -0.0 -0.0 -0.0 -0.0 -0.0 -0.0 -0.0 -0.0 -0.0 0.0 0.0 0.0 0.0 0.0 0.0 0.0 0.0 0.0 0.0 0.0 0.0 1:-0.57 2:-0.29 3:0.77 4:0.5284237861633301 5:-0.10664775967597961 6:0.824985146522522 7:0.7348500490188599 8:0.8555409908294678 9:0.24808849394321442 10:0.4500797986984253 11:0.991088330745697 12:-0.81 13:0.05 14:-0.59 
-0.0 -0.0 -0.0 -0.0 -0.0 -0.0 -0.0 -0.0 -0.0 -0.0 -0.0 0.0 0.0 0.4174125470694885 0.0 4.005970316039458 0.0 0.0 0.0 0.0 0.0 0.0 0.0 1:-0.61 2:-0.41 3:0.68 4:0.5288993120193481 5:-0.14015883207321167 6:0.8696445226669312 7:0.7257480025291443 8:0.8983684778213501 9:0.32938826084136963 10:0.36205893754959106 11:0.9928261041641235 12:-0.78 13:0.15 14:-0.61 
-0.0 -0.0 -0.0 -0.0 -1.1415477633450095 -5.075038418165064 -0.0 -3.1889091943911207 -0.0 -0.0 -0.0 0.5204996976632578 0.0 3.044695505356154 2.034367601382096 0.0 0.0 0.0 0.0 0.0 0.0 0.0 1.4617346147220878 1:-0.6 2:-0.41 3:0.68 4:0.531341552734375 5:-0.14313748478889465 6:0.8544164896011353 7:0.7249152064323425 8:0.8831058740615845 9:0.37949639558792114 10:0.3876240849494934 11:0.9899753332138062 12:-0.79 13:0.17 14:-0.59 
-0.0 -0.0 -0.0 -0.0 -0.0 -0.0 -1.531648106947875 -0.0 -0.0 -0.0 -0.0 0.0 0.0 0.0 0.0 0.0 3.044084496615752 0.0 0.0 2.83476083829383 0.0 0.0 0.0 1:-0.59 2:-0.33 3:0.74 4:0.5338157415390015 5:-0.11722102761268616 6:0.8261539936065674 7:0.7178520560264587 8:0.8490675687789917 9:0.399156779050827 10:0.448513388633728 11:0.9857092499732971 12:-0.8 13:0.11 14:-0.59 
-0.0 -0.0 -3.0860169166859865 -8.537575699972143 -0.0 -0.0 -0.0 -0.0 -0.0 -0.0 -0.0 0.0 0.0 0.0 0.0 0.0 0.04608941237187201 0.0 2.911155967549974 0.0 0.0 0.0 0.0 1:-0.59 2:-0.33 3:0.74 4:0.5352811217308044 5:-0.11592045426368713 6:0.8264333009719849 7:0.7188945412635803 8:0.8502333164215088 9:0.40914469957351685 10:0.4492514729499817 11:0.9852181077003479 12:-0.8 13:0.12 14:-0.58 
-0.0 -0.0 -0.0 -0.0 -0.0 -0.0 -0.0 -0.0 -0.0 -0.0 -0.0 0.0 0.0 0.0 0.0 0.0 0.0 0.0 0.059447712012918444 0.0 0.0 0.0 0.0 1:-0.59 2:-0.34 3:0.74 4:0.5367709398269653 5:-0.11600598692893982 6:0.8276882171630859 7:0.7196400165557861 8:0.851463794708252 9:0.4105067849159241 10:0.44766485691070557 11:0.985417902469635 12:-0.8 13:0.13 14:-0.58 
-0.0 -0.0 -0.0 -0.0 -0.0 -0.0 -0.0 -0.0 -0.0 -0.0 -0.0 0.0 0.0 0.0 0.0 0.0 0.0 8.372330565594607 0.0 0.0 0.0 0.0 0.0 1:-0.58 2:-0.36 3:0.73 4:0.5413423776626587 5:-0.15986114740371704 6:0.8380104303359985 7:0.721526563167572 8:0.8610424995422363 9:0.3769306540489197 10:0.3933262228965759 11:0.9867750406265259 12:-0.81 13:0.15 14:-0.57 
-0.0 -0.0 -0.0 -0.0 -0.0 -0.0 -0.0 -0.0 -0.0 -0.0 -0.0 0.0 0.0 0.0 0.0 0.0 0.0 1.901143266686275 0.0 0.0 0.0 0.0 0.0 1:-0.58 2:-0.4 3:0.71 4:0.5427954196929932 5:-0.13237079977989197 6:0.8447993993759155 7:0.8055353760719299 8:0.8559665679931641 9:0.43564656376838684 10:0.41143548488616943 11:0.9856466054916382 12:-0.8 13:0.16 14:-0.57 
-0.0 -0.0 -0.0 -0.0 -1.9181275690233492 -0.0 -0.0 -0.0 -0.0 -0.0 -0.0 2.423561577049552 0.0 0.0 0.0 0.0 0.0 0.0 0.0 0.0 0.0 0.0 0.0 1:-0.58 2:-0.42 3:0.7 4:0.5383943319320679 5:-0.13321593403816223 6:0.8445850610733032 7:0.8156678676605225 8:0.8548305034637451 9:0.44139364361763 10:0.41196632385253906 11:0.9859368801116943 12:-0.8 13:0.15 14:-0.58 
-2.557843482667533 -0.0 -0.0 -0.0 -0.0 -0.0 -0.0 -0.0 -2.197837079914583 -0.0 -1.4842132610940977 -0.0 0.0 0.0 0.47874465824577944 0.0 0.0 0.0 0.0 0.0 1.297438829790815 0.0 0.0 1:-0.14 2:-0.33 3:-0.93 4:0.5786243677139282 5:0.9890124797821045 6:0.9814457297325134 7:0.9429827332496643 8:0.9753327965736389 9:0.6924880743026733 10:0.9955995082855225 11:0.9990830421447754 12:0.05 13:0.94 14:-0.34 
-0.0 -0.0 -0.0 -0.0 -0.0 -0.0 -0.0 -0.0 -0.0 -0.0 -0.0 -0.0 0.0 0.0 0.0 0.0 0.0 0.0 0.0 0.0 0.0 0.0 1.9201519627588992 1:-0.24 2:-0.2 3:-0.95 4:0.5940508842468262 5:0.9902378916740417 6:0.9822690486907959 7:0.9297307133674622 8:0.9725935459136963 9:0.6990965008735657 10:0.9953762888908386 11:0.9988886117935181 12:0.1 13:0.97 14:-0.23 
-0.0 -0.0 -0.0 -0.0 -0.0 -0.0 -0.0 -0.0 -0.0 -0.0 -0.0 -0.0 0.0 0.0 0.0 0.0 0.0 0.0 0.0 0.0 0.0 0.0 1.6916102717806 1:-0.36 2:-0.18 3:-0.91 4:0.6070910692214966 5:0.9966424703598022 6:0.9891999363899231 7:0.935198187828064 8:0.9815614223480225 9:0.6658837199211121 10:0.9936615228652954 11:0.9989582300186157 12:0.15 13:0.96 14:-0.25 
-0.0 -0.0 -0.0 -0.0 -0.0 -0.0 -0.0 -0.0 -0.0 -0.0 -0.0 -0.0 1.408885738166803 0.0 0.0 0.0 0.0 0.8732403778043779 0.0 0.0 0.0 2.736662843560012 0.0 1:-0.35 2:-0.25 3:-0.9 4:0.6089802384376526 5:0.9967594146728516 6:0.9888291358947754 7:0.934667706489563 8:0.9814764261245728 9:0.6678196787834167 10:0.9935537576675415 11:0.9990323781967163 12:0.11 13:0.94 14:-0.31 
-0.0 -0.8069368366392127 -0.0 -0.0 -0.0 -0.0 -0.0 -0.0 -0.0 -0.0 -0.7594868690779115 -0.0 0.0 0.0 0.0 0.0 0.0 0.0 0.0 0.0 0.0 0.0 0.0 1:-0.32 2:-0.29 3:-0.9 4:0.6089821457862854 5:0.9965201020240784 6:0.9880034327507019 7:0.9344230890274048 8:0.9811464548110962 9:0.6711856126785278 10:0.9935113787651062 11:0.9990940093994141 12:0.09 13:0.94 14:-0.33 
-0.0 -1.061580298411858 -2.0008414946547917 -2.4166523517844727 -4.782948560082211 -0.0 -0.0 -0.0 -0.0 -0.0 -0.0 -0.0 0.0 0.0 0.0 1.235768438985006 1.6008103941024436 0.0 1.3645912583175692 0.0 0.0 0.0 0.0 1:-0.35 2:-0.28 3:-0.89 4:0.6101921796798706 5:0.9805904030799866 6:0.9744940996170044 7:0.911530613899231 8:0.971109926700592 9:0.7510672211647034 10:0.9954183101654053 11:0.999077558517456 12:0.12 13:0.93 14:-0.34 
-0.0 -0.0 -0.0 -0.0 -0.0 -0.0 -0.0 -0.0 -0.0 -0.0 -0.0 -0.0 0.06534794667161355 0.0 0.0 0.0 0.6474548266315109 0.0 0.0 0.0 0.0 0.0 0.0 1:-0.46 2:-0.12 3:-0.88 4:0.6106634736061096 5:0.9778112769126892 6:0.9770447611808777 7:0.9107468128204346 8:0.9706990122795105 9:0.7601141333580017 10:0.9946132898330688 11:0.9992363452911377 12:0.26 13:0.93 14:-0.27 
-0.0 -0.0 -0.0 -0.898765279083429 -0.0 -0.0 -0.0 -0.0 -0.0 -0.0 -0.0 -0.0 0.0 0.0 0.0 0.0 0.0 1.8822665902784061 1.0175479782765735 0.0 0.0 0.0 0.0 1:-0.44 2:-0.15 3:-0.88 4:0.6117181181907654 5:0.9758663773536682 6:0.9787412881851196 7:0.910319983959198 8:0.969070553779602 9:0.7662624716758728 10:0.9937436580657959 11:0.9988940954208374 12:0.23 13:0.93 14:-0.28 
-0.0 -0.0 -0.0 -0.0 -0.0 -0.0 -0.0 -0.0 -0.0 -0.0 -0.0 -0.0 0.0 0.0 0.0 1.1372216188812225 0.0 0.0 0.0 0.0 0.6142386586525408 0.0 0.0 1:-0.43 2:-0.13 3:-0.89 4:0.6120194792747498 5:0.9661763906478882 6:0.9757728576660156 7:0.893170952796936 8:0.9617353081703186 9:0.792533278465271 10:0.9903668761253357 11:0.998056948184967 12:0.3 13:0.92 14:-0.27 
-0.0 -0.0 -0.0 -0.0 -0.0 -0.0 -0.0 -0.0 -0.0 -0.0 -0.0 -0.0 0.860030757906055 0.0 0.0 0.0 0.0 0.0 0.0 0.0 0.0 0.0 0.0 1:-0.4 2:-0.15 3:-0.9 4:0.6105072498321533 5:0.978935182094574 6:0.9716880321502686 7:0.8841823935508728 8:0.9538378119468689 9:0.7568485736846924 10:0.9924182891845703 11:0.9977731108665466 12:0.27 13:0.92 14:-0.28 
-0.0 -0.0 -0.0 -0.0 -0.0 -0.0 -0.0 -5.054371016009936 -0.0 -0.0 -0.0 -0.0 0.0 0.0 1.754217470626859 0.0 0.0 0.0 0.0 0.0 0.0 0.0 0.0 1:-0.29 2:-0.29 3:-0.91 4:0.6078861951828003 5:0.9792567491531372 6:0.9686837196350098 7:0.8858475685119629 8:0.9584743976593018 9:0.7495229244232178 10:0.9954226016998291 11:0.9988563060760498 12:0.15 13:0.93 14:-0.34 
-0.0 -0.0 -0.0 -0.0 -0.0 -0.0 -0.0 -0.0 -0.0 -3.000350516260378 -0.0 -0.0 0.0 0.0 0.0 0.0 0.0 0.0 0.0 0.0 0.0 0.0 0.0 1:-0.27 2:-0.33 3:-0.9 4:0.6046022176742554 5:0.9809180498123169 6:0.9744766354560852 7:0.9119826555252075 8:0.9740194082260132 9:0.7466785311698914 10:0.9949800968170166 11:0.9985094666481018 12:0.08 13:0.93 14:-0.37 
-0.0 -0.0 -0.0 -0.0 -17.351039101536493 -13.687225164260997 -1.8513584748630865 -0.0 -0.0 -0.0 -0.0 -2.94406127471281 0.0 3.705082171291095 0.0 0.0 0.0 0.1907960366424336 0.0 2.459766709527113 0.0 0.0 0.0 1:-0.27 2:-0.33 3:-0.9 4:0.6045976877212524 5:0.9799346327781677 6:0.9740592837333679 7:0.9118061661720276 8:0.9738776087760925 9:0.749948263168335 10:0.9950815439224243 11:0.9984495639801025 12:0.08 13:0.93 14:-0.37 
-0.0 -0.0 -0.027569329615506056 -0.0 -3.8481798398241995 -0.0 -0.0 -0.0 -0.0 -0.0 -0.0 -0.0 0.0 0.0 0.0 0.0 0.0 0.0 0.0 0.0 0.0 0.0 0.0 1:-0.27 2:-0.33 3:-0.9 4:0.6045507788658142 5:0.9798778295516968 6:0.9747803211212158 7:0.9105767011642456 8:0.9736075401306152 9:0.750292956829071 10:0.9949793219566345 11:0.9986241459846497 12:0.08 13:0.93 14:-0.36 
-0.0 -3.2450774663538136 -2.282495675054247 -3.1548713728698328 -0.0 -0.0 -0.0 -0.0 -0.0 -0.0 -0.0 -3.4302324705546536 -0.0 0.0 0.0 2.699164606165025 3.067315222719514 2.402256605870039 2.70857290561817 0.0 0.0 1.9367343974050946 0.0 1:-1.0 2:-0.08 3:0.01 4:-0.08616872131824493 5:0.08911456167697906 6:-0.005660879425704479 7:0.03573555499315262 8:-0.0035738227888941765 9:-0.5420609712600708 10:0.9833797812461853 11:0.9792792201042175 12:-0.02 13:0.15 14:-0.99 
-0.269999272323147 -0.0 -0.0 -0.0 -0.04028530395828697 -0.0 -0.0 -0.0 -0.0 -0.0 -2.2401769168304146 -0.0 -1.5081968466964295 0.6029995978408734 0.0 0.1252621198647926 0.0 0.0 0.0 0.0 0.0 0.0 0.0 1:-1.0 2:-0.1 3:-0.01 4:-0.08690600842237473 5:0.08841490745544434 6:-0.006251148879528046 7:0.04539267718791962 8:-0.003461891785264015 9:-0.5431638956069946 10:0.9831843376159668 11:0.9793255925178528 12:0.0 13:0.15 14:-0.99 
-2.617884611990981 -0.0 -0.0 -0.0 -0.0 -0.0 -2.1576765394900432 -0.0 -2.6534482837943023 -2.9555043697540655 -0.0 -0.0 -0.0 0.0 0.0 0.0 0.0 0.0 0.0 2.6960519746233382 2.004062359467604 0.0 0.0 1:-1.0 2:-0.07 3:0.0 4:-0.08744127303361893 5:0.08789844065904617 6:-0.007494044490158558 7:0.03558989241719246 8:-0.00529069546610117 9:-0.5439742803573608 10:0.9830332398414612 11:0.9793502688407898 12:-0.01 13:0.12 14:-0.99 
-0.0 -0.0 -0.0 -0.0 -2.5161059753335704 -8.690015314439922 -0.0 -1.9826948678641143 -0.0 -0.0 -0.0 -0.0 -0.39159200613666023 1.3438661962958967 1.4557520706543199 0.0 0.0 0.0 0.0 0.0 0.0 0.0 0.0 1:-0.98 2:-0.19 3:-0.07 4:-0.17171084880828857 5:0.08554219454526901 6:-0.0031639859080314636 7:-0.019688650965690613 8:-0.02851412445306778 9:-0.5667281150817871 10:0.9833580851554871 11:0.9829756617546082 12:0.03 13:0.25 14:-0.97 
-0.0 -0.0 -0.0 -0.0 -0.0 -0.0 -0.0 -0.0 -0.0 -0.0 -1.0844520534415567 -0.0 -0.0 0.0 0.0 0.0 0.0 0.0 0.0 0.0 0.0 0.0 0.0 1:-1.0 2:-0.06 3:0.0 4:0.09588007628917694 5:0.08512300252914429 6:-0.016701972112059593 7:-0.037931524217128754 8:-0.029497917741537094 9:-0.7205521464347839 10:0.9802759289741516 11:0.9861416816711426 12:0.0 13:0.02 14:-1.0 
-0.0 -0.0 -0.0 -0.0 -0.0 -0.0 -0.0 -0.0 -0.0 -0.0 -0.0 -0.0 -0.0 0.0 0.0 0.0 0.0 0.0 0.0 0.0 0.0 3.180537845872733 0.0 1:-0.99 2:-0.1 3:0.0 4:0.0974436029791832 5:0.08487445116043091 6:-0.0147210992872715 7:-0.003890586318448186 8:-0.028982261195778847 9:-0.7214392423629761 10:0.9787770509719849 11:0.989126980304718 12:-0.02 13:0.19 14:-0.98 
-0.0 -0.0 -0.0 -0.0 -0.0 -0.0 -0.0 -1.6815499371732932 -0.0 -0.0 -0.0 -0.0 -0.4344755899113816 0.3853659216767876 1.1034839574263893 0.0 0.0 0.0 0.10675798858888128 0.0 0.0 0.0 4.962017409574556 1:-0.99 2:-0.15 3:-0.02 4:0.09762818366289139 5:0.08479621261358261 6:-0.001978399232029915 7:0.007164986804127693 8:-0.02263598144054413 9:-0.7216107845306396 10:0.9791883230209351 11:0.9915344715118408 12:-0.02 13:0.29 14:-0.96 
-1.5159994128826433 -0.0 -1.7946973131375576 -2.3245797213890023 -3.6655902579622923 -9.26777805911523 -1.5921882142102843 -0.0 -1.9464292131305618 -2.312793907688933 -2.411831311845743 -3.4621080524256427 -3.705082171291095 -0.0 1.319408315446324 0.0 2.0727897381591083 3.7007383734960215 1.7633202353112818 1.745964511074851 1.7952946872378066 2.1309707971552556 0.6010094374430321 1:-0.31 2:-0.62 3:-0.72 4:0.5907776951789856 5:0.0025604963302612305 6:0.6297075748443604 7:0.7667717933654785 8:0.5936143398284912 9:0.7375949621200562 10:-0.7081342339515686 11:0.9905242919921875 12:0.15 13:0.72 14:-0.68 
-0.0 -0.0 -0.0 -0.0 -0.0 -0.0 -0.0 -6.535660123559279 -0.0 -0.0 -0.0 -0.0 -0.0 -2.3322317158135575 0.0 0.0 0.0 0.0 0.0 0.0 0.0 0.0 2.153298642272627 1:-0.31 2:-0.61 3:-0.73 4:0.5922986268997192 5:0.0025641322135925293 6:0.5142229795455933 7:0.7663125395774841 8:0.4691307842731476 9:0.6974380612373352 10:-0.7900988459587097 11:0.9902727603912354 12:0.15 13:0.72 14:-0.67 
-0.0 -0.0 -0.0 -0.0 -0.0 -0.0 -0.0 -0.0 -0.0 -0.0 -0.0 -0.0 -0.0 -0.0 0.34218659936809476 0.0 0.0 0.0 0.0 0.0 0.0 0.0 0.0 1:-0.3 2:-0.61 3:-0.73 4:0.5896475315093994 5:0.0025641918182373047 6:0.44608038663864136 7:0.7662572860717773 8:0.4217063784599304 9:0.6939359903335571 10:-0.8293362259864807 11:0.9894794821739197 12:0.16 13:0.72 14:-0.67 
-0.0 -0.0 -0.0 -0.0 -0.0 -0.0 -0.0 -0.0 -0.0 -0.0 -0.0 -0.0 -0.0 -0.0 0.0 0.0 0.0 0.0 0.10778246143491686 0.0 0.0 0.0 0.0 1:-0.28 2:-0.64 3:-0.71 4:0.5392519235610962 5:0.002564072608947754 6:0.35334455966949463 7:0.7662522196769714 8:0.3525393009185791 9:0.7591333985328674 10:-0.8738278150558472 11:0.9892507195472717 12:0.11 13:0.72 14:-0.69 
-0.0 -0.0 -0.0 -0.0 -0.0 -0.0 -0.0 -0.0 -0.0 -0.0 -0.0 -0.0 -0.0 -0.0 0.6186687281406005 0.0 0.0 0.0 0.0 0.0 0.0 0.0 0.0 1:-0.28 2:-0.64 3:-0.71 4:0.5391858816146851 5:0.002564072608947754 6:0.3531584143638611 7:0.7662522792816162 8:0.3527175486087799 9:0.7580457925796509 10:-0.873979926109314 11:0.9892296195030212 12:0.11 13:0.72 14:-0.69 
-0.0 -0.0 -0.0 -0.0 -0.0 -0.0 -0.0 -0.0 -0.0 -0.0 -0.0 -0.0 -0.0 -0.0 0.0 0.0 0.0 0.0 0.0 1.0618382919469938 0.0 0.0 0.0 1:-0.29 2:-0.65 3:-0.7 4:0.537293553352356 5:0.0025641024112701416 6:0.3569050133228302 7:0.7662522792816162 8:0.35196420550346375 9:0.7642184495925903 10:-0.879388153553009 11:0.985052764415741 12:0.12 13:0.7 14:-0.7 
-0.0 -0.0 -0.0 -0.0 -0.0 -0.0 -0.2587783879039088 -0.0 -0.0 -0.0 -0.0 -0.0 -0.0 -0.0 0.0 0.0 0.0 0.0 0.0 0.0 0.0 0.0 0.0 1:-0.29 2:-0.65 3:-0.7 4:0.5361071825027466 5:0.0025641024112701416 6:0.34886056184768677 7:0.7662522792816162 8:0.34217777848243713 9:0.760982871055603 10:-0.8859542012214661 11:0.9823085069656372 12:0.12 13:0.7 14:-0.7 
-1.2784015838384122 -2.685431740379701 -0.0 -0.0 -0.0 -0.0 -0.0 -0.0 -0.0 -0.0 -0.0 -0.0 -0.0 -0.0 0.0 8.545747199504488 0.16667711297952276 0.0 0.378942187707227 0.0 0.0 0.0 0.0 1:-0.29 2:-0.65 3:-0.7 4:0.5360585451126099 5:0.002564162015914917 6:0.3481340706348419 7:0.7662522196769714 8:0.3414393961429596 9:0.758063018321991 10:-0.8864127993583679 11:0.9821262955665588 12:0.12 13:0.7 14:-0.71 
-1.7423500026959158 -0.6776255948814252 -0.6325461424931772 -1.883576086467057 -3.472424313735717 -0.0 -2.744391233743146 -0.0 -0.15831700123240086 -1.8334116924858312 -0.0 -2.034367601382096 -0.0 -0.0 -2.280263642955019 0.4535302195465398 0.0 1.8092545895885461 0.0 1.7175008354653936 2.225073122624526 0.0 0.0 1:-0.15 2:-0.56 3:-0.81 4:0.5441051721572876 5:-0.3560032844543457 6:-0.32277965545654297 7:0.3790223002433777 8:0.35017669200897217 9:0.17623665928840637 10:0.9585133790969849 11:-0.9362845420837402 12:0.04 13:0.82 14:-0.57 
-0.0 -0.0 -0.0 -0.0 -0.0 -0.0 -0.0 -0.0 -2.3956661427772556 -0.0 -2.2212104028674355 -0.0 -0.0 -0.0 -0.0 0.0 0.0 0.0 0.0 0.0 0.0 0.0 0.0 1:-0.16 2:-0.56 3:-0.81 4:0.5442677736282349 5:-0.35601693391799927 6:-0.32238706946372986 7:0.320965975522995 8:0.2753923535346985 9:0.14621883630752563 10:0.9584551453590393 11:-0.9407278299331665 12:0.06 13:0.81 14:-0.58 
-0.0 -0.9700000620462808 -0.0 -0.0 -0.0 -0.0 -0.0 -2.663304683043799 -0.0 -0.0 -0.0 -0.0 -0.0 -2.559236028080709 -0.0 1.2126359004925815 6.097012367941254 0.0 0.0 0.0 0.0 0.0 3.234238807011714 1:-0.18 2:-0.54 3:-0.82 4:0.5442496538162231 5:-0.3560209572315216 6:-0.32227593660354614 7:0.27100083231925964 8:0.20977303385734558 9:0.14823393523693085 10:0.9584375619888306 11:-0.9370256066322327 12:0.07 13:0.82 14:-0.56 
-0.0 -0.0 -0.0 -0.0 -0.0 -0.0 -0.0 -0.004273939787331381 -0.0 -0.0 -0.0 -0.0 -0.0 -0.0 -0.0 0.0 0.0 0.0 0.0 0.0 0.0 0.0 0.0 1:-0.17 2:-0.55 3:-0.82 4:0.5448471903800964 5:-0.35602128505706787 6:-0.32226788997650146 7:0.27494049072265625 8:0.2155826985836029 9:0.16146735846996307 10:0.9584363102912903 11:-0.937012255191803 12:0.07 13:0.82 14:-0.56 
-0.0 -0.0 -0.0 -0.0 -0.0 -12.711545920307826 -0.0 -0.0 -0.0 -0.0 -0.0 -0.0 -0.0 -0.0 -0.0 0.2731313539950979 0.0 0.0 0.0 0.0 0.0 0.0 0.0 1:-0.17 2:-0.55 3:-0.82 4:0.544419527053833 5:-0.3560214638710022 6:-0.3222634196281433 7:0.28240013122558594 8:0.22664514183998108 9:0.16401156783103943 10:0.9584355354309082 11:-0.9374125599861145 12:0.07 13:0.82 14:-0.57 
-0.0 -0.0 -1.9190083396133215 -0.0 -0.0 -0.0 -0.0 -0.0 -0.0 -0.0 -0.0 -0.0 -0.0 -0.0 -0.0 0.0 0.0 0.0 8.838526735547434 0.0 0.0 0.0 0.0 1:-0.18 2:-0.54 3:-0.82 4:0.5425682663917542 5:-0.3560219705104828 6:-0.32224977016448975 7:0.31856077909469604 8:0.2751869559288025 9:0.16533419489860535 10:0.9584333300590515 11:-0.9383032321929932 12:0.05 13:0.83 14:-0.56 
-0.0 -0.0 -0.0 -0.0 -0.0 -0.0 -0.0 -0.0 -0.0 -0.0 -0.0 -0.0 -2.2329621288726385 -0.0 -0.0 0.0 0.0 0.0 0.0 0.0 0.0 1.9817848709677037 0.0 1:-0.18 2:-0.54 3:-0.82 4:0.5441079139709473 5:-0.35602420568466187 6:-0.3221880793571472 7:0.40067827701568604 8:0.3491989076137543 9:0.13989531993865967 10:0.9584232568740845 11:-0.9343180060386658 12:0.08 13:0.82 14:-0.56 
-0.0 -0.0 -0.7673060707769749 -2.440061483470392 -0.0 -0.0 -0.0 -0.0 -0.0 -0.0 -0.0 -4.005970316039458 -0.0 -0.0 -0.0 -0.0 2.113943145339285 4.028423587716792 1.2620140104248758 0.0 1.8958030418162017 0.0 0.0 1:-0.98 2:-0.2 3:0.04 4:0.615011990070343 5:0.16378304362297058 6:0.26444873213768005 7:0.35592514276504517 8:0.2926570177078247 9:0.8310625553131104 10:-0.9007903337478638 11:0.9886795282363892 12:-0.09 13:0.24 14:-0.97 
-0.0 -1.078085982974275 -0.0 -0.0 -0.0 -0.0 -0.0 -0.0 -0.0 -0.0 -0.0 -0.0 -0.0 -0.0 -0.0 -0.0 0.0 0.0 0.0 0.0 0.0 2.529803132889283 0.0 1:-0.98 2:-0.2 3:0.04 4:0.6120873689651489 5:0.1750710904598236 6:0.24866585433483124 7:0.33969447016716003 8:0.2886084318161011 9:0.8172534704208374 10:-0.904716968536377 11:0.9875934720039368 12:-0.09 13:0.24 14:-0.97 
-3.13167032337715 -0.0 -0.0 -0.0 -0.0 -0.0 -2.0154572719189257 -0.0 -0.28789572110385614 -2.4912746135691486 -2.6834383268176913 -0.0 -0.0 -0.0 -0.0 -0.0 0.0 0.0 0.0 0.8665367849692655 0.0 0.0 0.0 1:-0.98 2:-0.21 3:0.04 4:0.6139729619026184 5:0.17723332345485687 6:0.24998769164085388 7:0.33713823556900024 8:0.2836681008338928 9:0.8270857930183411 10:-0.9034044742584229 11:0.987897515296936 12:-0.09 13:0.23 14:-0.97 
-0.0 -0.0 -0.0 -0.0 -0.06495283732488898 -0.446446170355979 -0.0 -0.0 -0.0 -0.0 -0.0 -0.0 -1.6003357455281855 -0.0 -8.545747199504488 -0.05533077591876212 0.0 0.0 0.0 0.0 0.0 0.0 0.0 1:-0.98 2:-0.2 3:0.02 4:0.6135209798812866 5:0.18387368321418762 6:0.24722294509410858 7:0.3272501826286316 8:0.27703016996383667 9:0.8410542607307434 10:-0.9020249843597412 11:0.9881049394607544 12:-0.07 13:0.26 14:-0.96 
-0.0 -3.485099010106354 -1.3521251463806425 -0.4857891661467264 -0.0 -0.0 -0.0 -0.0 -1.786615566685647 -0.0 -0.0 -0.0 -0.0 -0.0 -0.0 -0.0 0.0 0.0 0.0 0.0 0.0 0.0 0.0 1:-0.97 2:-0.22 3:0.01 4:0.6065495610237122 5:0.3153032064437866 6:0.17209841310977936 7:0.22097726166248322 8:0.17416541278362274 9:0.8939514756202698 10:-0.8781610727310181 11:0.9876108765602112 12:-0.07 13:0.26 14:-0.96 
-0.0 -0.0 -0.0 -0.0 -2.4487331468406537 -6.2055021821415135 -0.0 -5.813032947253804 -0.0 -0.0 -0.0 -0.0 -0.7726543123380434 -1.8210229135490505 -0.0 -1.010705766958898 0.46124664321589337 0.0 1.1013838397567008 0.0 0.0 0.0 2.1710895398234578 1:-0.98 2:-0.21 3:0.0 4:0.6073208451271057 5:0.3198712170124054 6:0.17707054316997528 7:0.22057361900806427 8:0.18285684287548065 9:0.8799996972084045 10:-0.8733392357826233 11:0.9871256947517395 12:-0.06 13:0.27 14:-0.96 
-0.0 -0.0 -0.0 -0.0 -0.0 -0.0 -0.0 -0.0 -0.0 -0.0 -0.0 -0.0 -0.0 -0.0 -0.0 -0.0 0.0 0.0 0.0 3.2810856790395753 0.0 0.0 0.0 1:-0.98 2:-0.18 3:0.01 4:0.6146868467330933 5:0.2874014973640442 6:0.18509742617607117 7:0.21932049095630646 8:0.17806440591812134 9:0.8841285705566406 10:-0.8868221640586853 11:0.9859709739685059 12:-0.05 13:0.21 14:-0.98 
-0.0 -0.0 -0.0 -0.0 -0.0 -0.0 -0.0 -0.0 -0.0 -0.0 -0.0 -0.0 -0.0 -0.0 -0.0 -0.8732609311565593 0.0 0.0 0.0 0.0 0.0 0.0 0.04122903244303797 1:-0.97 2:-0.23 3:0.01 4:0.6008787751197815 5:0.03202362358570099 6:0.15568853914737701 7:0.21742236614227295 8:0.16389250755310059 9:0.7792612910270691 10:-0.982230544090271 11:0.9869467616081238 12:-0.07 13:0.22 14:-0.97 
-0.0 -0.0 -0.0 -0.0 -0.0 -0.0 -0.0 -0.0 -0.0 -0.0 -0.0 -0.0 -0.0 -1.0034038124807667 -0.0 -0.0 0.0 0.0 0.0 0.0 0.0 0.0 0.0 1:-0.97 2:-0.24 3:0.02 4:0.5978564023971558 5:0.029593590646982193 6:0.1523042619228363 7:0.21697033941745758 8:0.16133557260036469 9:0.7742793560028076 10:-0.9833490252494812 11:0.9871696829795837 12:-0.07 13:0.22 14:-0.97 
-2.078778707902066 -0.0 -0.0 -0.0 -0.0 -0.0 -1.808406201310485 -0.0 -0.0 -2.1572844105271485 -0.5933779311480153 -0.0 -0.0 -0.7923861338863603 -0.0 -0.0 -0.0 0.0 0.0 1.46889500311309 3.434745286114877 2.7955983514896863 0.0 1:-0.97 2:-0.19 3:0.17 4:0.5895223021507263 5:-0.039802201092243195 6:0.0681883692741394 7:0.5252540707588196 8:0.39002060890197754 9:0.6151755452156067 10:0.9318765997886658 11:-0.856784462928772 12:-0.21 13:0.21 14:-0.95 
-0.0 -1.4749279741966155 -3.967182159470414 -2.988409725587046 -0.0 -0.0 -0.0 -0.0 -0.0 -0.0 -0.0 -3.090173908987624 -0.0 -0.0 -0.0 -0.0 -0.0 2.406625985856628 14.986164821092059 0.0 0.0 0.0 0.0 1:-0.97 2:-0.18 3:0.17 4:0.5890644788742065 5:-0.03936511278152466 6:0.07593850791454315 7:0.5249096155166626 8:0.39004814624786377 9:0.6283167004585266 10:0.9277881383895874 11:-0.8555933833122253 12:-0.21 13:0.22 14:-0.95 
-0.0 -0.0 -0.0 -0.0 -0.0 -0.0 -0.0 -0.0 -0.0 -0.0 -0.0 -0.0 -2.2482652207339546 -0.0 -0.0 -0.0 -0.0 0.0 0.0 0.0 0.0 0.0 0.0 1:-0.97 2:-0.19 3:0.15 4:0.5876912474632263 5:-0.03841929882764816 6:0.07832193374633789 7:0.5240797996520996 8:0.38882315158843994 9:0.6320552825927734 10:0.9171965718269348 11:-0.8616459965705872 12:-0.19 13:0.23 14:-0.95 
-0.0 -0.0 -0.0 -0.0 -3.395888228805068 -0.0 -0.0 -0.2989168831322241 -0.0 -0.0 -0.0 -0.0 -0.0 -0.0 -2.2394668511386313 -0.0 -2.195720162939413 0.0 0.0 0.0 0.0 0.0 0.37904172174417305 1:-0.97 2:-0.19 3:0.14 4:0.5864284634590149 5:-0.037979789078235626 6:0.08021961152553558 7:0.5023651719093323 8:0.387245774269104 9:0.6283403038978577 10:0.9136141538619995 11:-0.8633365035057068 12:-0.19 13:0.23 14:-0.95 
-0.0 -0.0 -0.0 -0.0 -0.0 -0.0 -0.0 -0.0 -0.0 -0.0 -0.0 -0.0 -0.0 -0.0 -0.0 -0.0 -0.0 0.0 9.538985658021428 0.0 0.0 0.0 0.0 1:-0.97 2:-0.2 3:0.14 4:0.5830174088478088 5:-0.03779768943786621 6:0.0774683952331543 7:0.4492221176624298 8:0.360878586769104 9:0.6249309778213501 10:0.9105925559997559 11:-0.8794870376586914 12:-0.19 13:0.23 14:-0.95 
-0.0 -0.0 -0.0 -0.0 -0.0 -0.0 -0.0 -0.0 -0.0 -0.0 -0.0 -0.0 -0.0 -2.2749290888331544 -0.0 -0.0 -0.0 0.0 0.0 0.0 0.0 0.0 1.8712158596505177 1:-0.96 2:-0.27 3:0.09 4:0.5831398367881775 5:-0.036269426345825195 6:0.10628344863653183 7:0.21804335713386536 8:0.16081923246383667 9:0.5618118047714233 10:0.9079842567443848 11:-0.9474455714225769 12:-0.16 13:0.22 14:-0.96 
-0.0 -0.0 -0.0 -0.0 -0.0 -0.0 -0.0 -0.0 -0.0 -0.0 -0.0 -0.0 -0.0 -0.0 -0.0 -6.097012367941254 -0.0 0.0 0.0 0.0 0.0 0.0 0.0 1:-0.94 2:-0.31 3:0.1 4:0.5378191471099854 5:-0.03578978031873703 6:0.07237137109041214 7:0.20393764972686768 8:0.14750611782073975 9:0.5694714784622192 10:0.8976971507072449 11:-0.9649440050125122 12:-0.18 13:0.22 14:-0.96 
-0.0 -0.0 -1.758231941116852 -0.0 -0.0 -0.0 -0.0 -0.0 -0.0 -0.0 -0.0 -0.0 -0.0 -0.0 -0.0 -0.0 -0.0 0.0 0.0 0.0 0.0 0.0 0.0 1:-0.95 2:-0.28 3:0.12 4:0.5330150723457336 5:-0.03554295748472214 6:0.09077028185129166 7:0.21479898691177368 8:0.17628386616706848 9:0.7407939434051514 10:0.8981203436851501 11:-0.951880693435669 12:-0.18 13:0.19 14:-0.96 
-0.0 -0.6558784679083397 -0.0 -0.0 -0.0 -0.0 -0.0 -0.0 -0.0 -0.0 -0.0 -0.0 -0.0 -0.0 -0.0 -0.0 -0.0 0.0 0.0 0.0 0.0 0.0 0.0 1:-0.94 2:-0.31 3:0.11 4:0.5300188064575195 5:-0.035445913672447205 6:0.08953307569026947 7:0.1957942396402359 8:0.1629572957754135 9:0.6075718402862549 10:0.885959804058075 11:-0.9598569273948669 12:-0.18 13:0.21 14:-0.96 
-0.0 -0.0 -0.0 -0.0 -0.0 -0.0 -0.0 -2.3814703298819286 -0.0 -0.0 -0.0 -0.0 -0.0 -0.0 -0.0 -0.0 -0.0 0.0 0.0 0.0 0.0 0.0 0.0 1:-0.95 2:-0.3 3:0.09 4:0.5337933897972107 5:-0.03542136400938034 6:0.10001274943351746 7:0.20102033019065857 8:0.17149534821510315 9:0.6260904669761658 10:0.8854491710662842 11:-0.9543265104293823 12:-0.16 13:0.21 14:-0.96 
-0.0 -0.0 -0.0 -0.0 -0.0 -1.380478428287424 -0.0 -0.0 -0.0 -0.0 -0.0 -0.0 -0.0 -0.0 -0.0 -0.0 -0.0 0.0 0.0 0.0 0.0 0.0 0.0 1:-0.95 2:-0.3 3:0.09 4:0.5337371230125427 5:-0.03540609031915665 6:0.09562349319458008 7:0.20485319197177887 8:0.17719750106334686 9:0.6475982069969177 10:0.8887718915939331 11:-0.9528688788414001 12:-0.16 13:0.21 14:-0.96 
-0.05923958414987252 -0.0 -0.0 -0.0 -0.0 -4.6031062605057445 -0.0 -0.0 -0.0 -0.0 -2.536432513364296 -0.0 -0.0 -0.0 -0.0 -0.0 -0.0 0.0 0.0 0.0 0.0 0.0 0.0 1:-0.93 2:-0.35 3:0.09 4:0.5300003886222839 5:-0.03530516475439072 6:0.10757078975439072 7:0.17596286535263062 8:0.1429598480463028 9:0.6077858209609985 10:0.8959131836891174 11:-0.9572873711585999 12:-0.14 13:0.15 14:-0.98 
-0.0 -0.0 -0.0 -0.0 -0.0 -0.0 -0.0 -0.0 -0.0 -0.0 -0.0 -0.0 -0.0 -0.0 -0.0 -0.0 -0.37946962561576575 0.0 0.0 0.0 0.0 0.0 0.0 1:-0.94 2:-0.32 3:0.09 4:0.5391372442245483 5:-0.03528974950313568 6:0.1375027298927307 7:0.17863109707832336 8:0.14886149764060974 9:0.6628133654594421 10:0.9003371000289917 11:-0.9441584944725037 12:-0.14 13:0.14 14:-0.98 
-0.0 -0.0 -0.0 -0.0 -0.0 -0.0 -3.479718891622165 -0.0 -0.0 -0.0 -0.0 -0.0 -0.0 -0.0 -0.0 -0.0 -0.0 0.0 0.0 0.9226341597173107 0.0 0.0 0.0 1:-0.94 2:-0.33 3:0.11 4:0.5030549168586731 5:-0.035209596157073975 6:0.08338794857263565 7:0.1861075460910797 8:0.16665704548358917 9:0.8306494355201721 10:0.9191861748695374 11:-0.94797283411026 12:-0.14 13:0.08 14:-0.99 
-0.0 -0.0 -0.0 -0.0 -0.0 -3.1672689401050125 -0.0 -0.0 -4.729348368400833 -0.3611474175553214 -0.0 -0.0 -0.0 -0.0 -0.0 -0.0 -0.0 0.0 0.0 0.0 0.0 0.0 0.0 1:-0.94 2:-0.33 3:0.11 4:0.4975414276123047 5:-0.03520606458187103 6:0.08193115890026093 7:0.1862497627735138 8:0.16601821780204773 9:0.8369572758674622 10:0.9212669134140015 11:-0.9474791884422302 12:-0.14 13:0.08 14:-0.99 
-0.0 -0.0 -0.0 -0.0 -0.0 -0.0 -0.0 -0.0 -0.0 -0.0 -0.0 -0.0 -0.0 -0.0 -3.7007383734960215 -0.0 -4.028423587716792 -0.0 0.0 0.0 0.0 0.0 0.0 1:-0.23 2:0.39 3:0.89 4:0.5704813003540039 5:-0.09215214848518372 6:0.9444894194602966 7:0.8910542726516724 8:0.94373619556427 9:0.5361732244491577 10:-0.3050062954425812 11:0.9945382475852966 12:-0.38 13:0.81 14:-0.45 
-0.0 -1.2209812087296268 -0.0 -0.0 -0.0 -0.0 -0.0 -0.0 -0.0 -0.0 -0.0 -0.0 -0.0 -0.0 -0.0 -0.0 -0.0 -0.0 0.0 0.0 0.0 0.0 0.0 1:-0.22 2:0.38 3:0.9 4:0.5559054613113403 5:-0.09350836277008057 6:0.948759913444519 7:0.8935166001319885 8:0.947724461555481 9:0.4989168047904968 10:-0.2870418429374695 11:0.9943785071372986 12:-0.4 13:0.8 14:-0.44 
