svm_type c_svc
kernel_type rbf
gamma 0.07142857142857142
nr_class 14
total_sv 72
rho 0.001472782084766704 0.0 0.0 0.0 0.0 -1.1145150971705875E-4 0.0025801561282028144 0.0 0.001141366664054181 0.01149011285918261 0.4683624014995033 0.0 0.0 0.005056704862532285 0.0 8.38512199459474E-5 0.0 0.0 0.003637983203327092 0.0 0.0 0.018870125747756986 0.516141664618548 7.79502166270412E-5 0.0 0.0 0.001160987920344932 0.0 -5.279770602288382E-4 0.00203310015528212 -3.2754776935739444E-4 -9.555090902894359E-4 0.013931057513700017 0.8417796950619714 0.0013935481977967767 0.0 0.0 0.0010026077274373213 -0.0010992276545186443 0.0 0.0 0.0 0.01259639960338314 -0.005578972715768682 0.0 0.0 0.0015668172939284446 -0.0022441163659669174 0.11250913146856842 8.326672684688674E-17 9.71445146547012E-17 -1.6825351596526242E-5 0.5445945473374991 -0.05491884758720759 0.0 1.3957237437236397E-4 -0.018930805046487365 2.633292153534252E-4 0.0 0.0 0.4421479775670615 0.0 0.0 0.011057465054954042 0.0 0.0 0.0 0.730927821726596 -6.295452719824201E-4 0.0 -0.012819284122065731 -0.009567763121962808 -0.0038627186971538553 0.4009670679442016 -0.012372052133424053 -0.005363485283001287 -0.011974258836804844 0.0 0.5116145969158084 4.119874903169788E-6 0.0 0.0 0.49043389315714553 0.0 0.0 0.6901045837789412 0.0 2.0816681711721685E-16 -0.5063290740065687 -0.6752384638022968 0.0
label 1 2 3 4 5 6 7 8 9 10 11 12 13 14
nr_sv 5 5 6 6 5 6 4 6 5 6 5 6 4 3
SV
0.0 0.0 0.0 0.0 0.0 0.0 0.0 12.361083093082318 10.458930968098192 0.0 0.0 0.0 3.1811746360287807 1:0.44 2:0.42 3:0.79 4:0.9840958404541016 5:0.9847161865234375 6:0.5526586151123047 7:0.4419587707519531 8:0.5054873275756836 9:1.4101377868652343 10:0.9510498809814453 11:0.29499664306640627 12:-0.23 13:-0.8 14:0.55 
0.0 0.0 0.0 0.0 0.0 7.772465248581799 0.0 0.0 0.0 0.0 0.0 0.0 0.0 1:0.44 2:0.44 3:0.78 4:0.9677843475341796 5:0.9851817321777344 6:0.5534572601318359 7:0.44331974029541016 8:0.5070091247558594 9:1.4247109985351563 10:0.9638224792480469 11:0.28544107437133787 12:-0.22 13:-0.79 14:0.57 
0.0 0.0 0.0 0.0 0.0 0.19828363700751184 0.0 0.0 0.0 0.0 0.0 0.0 0.0 1:0.45 2:0.43 3:0.78 4:0.954473876953125 5:0.9825959777832032 6:0.5550983047485352 7:0.44557872772216794 8:0.5107727813720703 9:1.42337890625 10:0.9583547973632812 11:0.28083032608032227 12:-0.23 13:-0.79 14:0.57 
7.467788262348728 4.503431953742776 0.0 0.0 0.0 0.0 0.0 0.0 0.0 0.0 0.0 0.0 0.0 1:0.45 2:0.42 3:0.79 4:0.9477035522460937 5:0.9771337890625 6:0.5555900573730469 7:0.4458940124511719 8:0.5122529220581055 9:1.418592529296875 10:0.948703384399414 11:0.2795213508605957 12:-0.25 13:-0.79 14:0.56 
0.0 0.0 3.8359381877054473 2.1219026684381634 2.1773684303422383 0.0 2.0688035597750627 0.0 0.0 15.496099105284687 5.0371946769308815 2.2213163655564157 0.0 1:0.49 2:0.37 3:0.79 4:0.9289138793945313 5:0.9659728240966797 6:0.5606496810913086 7:0.4462834167480469 8:0.5232398986816407 9:1.4173902893066406 10:0.9317161560058593 11:0.2790599632263184 12:-0.28 13:-0.79 14:0.54 
-3.1103487756235837 0.0 0.0 0.0 0.0 0.0 0.0 0.0 0.0 0.0 0.0 0.0 0.0 1:-0.3 2:0.76 3:0.58 4:0.9741787719726562 5:0.9855952453613281 6:0.5687517547607421 7:0.43660057067871094 8:0.529202537536621 9:1.5522579956054687 10:0.9389228057861329 11:0.2529519271850586 12:-0.95 13:-0.26 14:-0.15 
-0.0 0.0 0.0 2.5868797372551366 2.6517738063061995 0.0 0.887606647228045 0.0 0.0 0.0 0.0 2.4947477632184114 4.023153035154955 1:-0.29 2:0.77 3:0.57 4:0.9749205017089844 5:0.98979736328125 6:0.5695412063598633 7:0.4363642883300781 8:0.5305094528198242 9:1.4832398986816406 10:0.963156967163086 11:0.2631715774536133 12:-0.96 13:-0.24 14:-0.16 
-4.357439486725145 0.0 0.0 0.0 0.0 0.0 0.0 5.038735626108226 5.120664148639884 0.0 0.0 0.0 0.0 1:-0.27 2:0.79 3:0.55 4:0.9828079986572266 5:0.9914695739746093 6:0.5710697937011718 7:0.4363212966918945 8:0.5310919952392578 9:1.4696788024902343 10:0.9708834075927735 11:0.2636074447631836 12:-0.96 13:-0.24 14:-0.14 
-0.0 0.0 0.0 0.0 0.0 4.105165463418692 0.0 0.0 0.0 5.432209870192899 0.0 0.0 0.0 1:-0.26 2:0.79 3:0.56 4:0.9832325744628906 5:0.9915603637695313 6:0.5714603424072265 7:0.4365432357788086 8:0.5313191223144531 9:1.4616459655761718 10:0.9750791168212891 11:0.264071102142334 12:-0.96 13:-0.22 14:-0.14 
-0.0 8.593600204206313 6.328161710984351 0.0 0.0 0.0 1.6637735928948958 0.0 0.0 0.0 10.05070225893067 0.0 0.0 1:-0.25 2:0.79 3:0.56 4:0.9840491485595703 5:0.9919789886474609 6:0.5716103744506836 7:0.4366636276245117 8:0.5314266586303711 9:1.457203369140625 10:0.9774767303466797 11:0.26421159744262696 12:-0.97 13:-0.21 14:-0.14 
-4.503431953742776 -0.0 0.0 0.0 0.0 0.9814096795874391 0.0 7.203568303943057 1.993409873835084 4.736000283082233 0.0 0.0 0.0 1:-0.12 2:0.9 3:0.42 4:0.5756666183471679 5:1.1035646820068359 6:1.1040520477294922 7:0.41406749725341796 8:0.4424027633666992 9:0.8703177642822265 10:0.5443321228027344 11:1.1685845947265625 12:-0.98 13:-0.18 14:0.11 
-0.0 -0.0 0.0 0.0 0.0 6.023326177894427 0.0 0.37900636239114616 5.932163016870816 2.2116259052386673 0.0 0.0 0.0 1:-0.16 2:0.91 3:0.39 4:0.5763742446899414 5:1.0858617401123047 6:1.0816510009765625 7:0.4085881805419922 8:0.44530662536621096 9:0.8395697784423828 10:0.4965143966674805 11:1.165449981689453 12:-0.97 13:-0.22 14:0.09 
-0.0 -0.0 25.05180072898207 2.8829308975076913 2.931966393180771 0.0 3.0988398691952534 0.0 0.0 0.0 21.042764994514414 2.713518842993307 0.0 1:-0.12 2:0.86 3:0.5 4:0.6347977447509766 5:1.079398651123047 6:1.1136741638183594 7:0.43673107147216794 8:0.4709655380249023 9:0.9636166381835938 10:0.4628482437133789 11:1.162947311401367 12:-0.99 13:-0.05 14:-0.15 
-0.0 -5.394057573087209 0.0 0.0 0.0 0.0 0.0 0.0 0.0 0.0 0.0 0.0 0.0 1:-0.17 2:0.88 3:0.44 4:0.6437208557128906 5:1.085505599975586 6:1.1094458770751954 7:0.43997936248779296 8:0.48251876831054685 9:0.9536158752441406 10:0.48289497375488283 11:1.1509780120849609 12:-0.99 13:-0.14 14:-0.09 
-0.0 -0.0 0.0 0.0 0.0 0.0 0.0 0.0 0.0 0.0 17.95645577891382 0.0 0.0 1:-0.2 2:0.91 3:0.35 4:0.6440128326416016 5:1.0856358337402343 6:1.0917452239990235 7:0.4363043594360352 8:0.47772090911865234 9:0.9160482025146485 10:0.5374374389648438 11:1.1586222076416015 12:-0.98 13:-0.21 14:-0.03 
-0.0 -3.1995426311191024 0.0 0.0 0.0 0.0 0.0 0.0 0.0 0.0 0.0 0.0 3.887338381069645 1:-0.23 2:0.9 3:0.36 4:0.6441793823242188 5:1.085976333618164 6:1.0876615142822266 7:0.4363054656982422 8:0.47679450988769534 9:0.9068304443359375 10:0.539765739440918 11:1.1521626281738282 12:-0.97 13:-0.25 14:-0.01 
-0.0 -0.0 -0.0 0.0 0.0 0.0 0.0 0.0 0.0 0.0 38.47111022496914 0.0 0.0 1:0.13 2:0.9 3:0.41 4:0.5609304428100585 5:1.0980313110351563 6:1.1537483978271483 7:0.6355000305175781 8:1.0913867950439453 9:1.177261199951172 10:0.3992609024047852 11:1.238966064453125 12:-0.99 13:0.16 14:-0.03 
-0.0 -0.0 -0.0 0.0 0.0 0.0 0.0 0.0 0.0 0.0 17.57677678670388 0.0 0.0 1:0.1 2:0.89 3:0.45 4:0.5615872192382813 5:1.0979132843017578 6:1.1535430145263672 7:0.6635102081298828 8:1.0864956665039063 9:1.1739553833007812 10:0.3904943084716797 11:1.1937782287597656 12:-0.99 13:0.14 14:-0.05 
-0.0 -6.328161710984351 -25.05180072898207 0.0 0.0 2.8228099547802943 0.0 5.361131482317635 6.4844419072679145 0.0 0.0 0.0 2.9087771919574044 1:0.09 2:0.87 3:0.49 4:0.562034683227539 5:1.0968938446044922 6:1.153080596923828 7:0.6633173370361328 8:1.0809414672851563 9:1.1726388549804687 10:0.3904044723510742 11:1.1828892517089844 12:-0.99 13:0.14 14:-0.05 
-3.8359381877054473 -0.0 -0.0 0.0 0.0 1.7220850029954133 0.0 0.0 0.0 5.064324576252768 0.0 0.0 0.0 1:0.16 2:0.83 3:0.54 4:0.562238540649414 5:1.0884947967529297 6:1.1507272338867187 7:0.6596932983398438 8:1.0773548126220702 9:1.1610552978515625 10:0.38612030029296873 11:1.1765866851806641 12:-0.98 13:0.21 14:-0.04 
-0.0 -0.0 -0.0 0.0 0.0 0.0 0.0 0.0 0.0 0.132287585859462 0.0 0.0 0.0 1:0.17 2:0.81 3:0.55 4:0.5631779861450196 5:1.0869366455078124 6:1.150032730102539 7:0.6557977294921875 8:1.0745735931396485 9:1.158798599243164 10:0.38476715087890623 11:1.1752962493896484 12:-0.97 13:0.24 14:-0.04 
-0.0 -0.0 -0.0 2.7067923528010027 3.093338446731543 0.0 3.259646745650768 0.0 0.0 0.0 0.0 2.607672305126527 0.0 1:0.22 2:0.81 3:0.54 4:0.5759622573852539 5:1.083339080810547 6:1.1494000244140625 7:0.6399803924560546 8:1.0749697113037109 9:1.1535025787353517 10:0.38222614288330076 11:1.178260498046875 12:-0.95 13:0.3 14:-0.06 
-0.0 -0.0 -0.6732332641142786 -0.0 0.0 1.2261030948392002 0.0 0.0 0.0 0.24460827418395195 0.0 0.0 0.0 1:-0.36 2:-0.75 3:-0.56 4:0.5265325546264649 5:0.6781049346923829 6:0.6734709930419922 7:0.418216552734375 8:0.48510974884033203 9:0.5090972900390625 10:0.30355464935302734 11:0.719696044921875 12:-0.22 13:0.65 14:-0.73 
-0.0 -0.0 -0.0 -2.7067923528010027 19.56741780556417 0.0 18.97823707843937 0.0 0.0 0.0 0.0 12.082831910395612 0.0 1:-0.37 2:-0.74 3:-0.56 4:0.5306453704833984 5:0.671986083984375 6:0.649151840209961 7:0.42027950286865234 8:0.5426991653442382 9:0.5093924713134765 10:0.3012088203430176 11:0.7128104400634766 12:-0.22 13:0.65 14:-0.73 
-0.0 -0.0 -2.0113968620905998 -0.0 0.0 0.02283296792282392 0.0 0.0 0.0 0.0 0.0 0.0 0.0 1:-0.48 2:-0.73 3:-0.49 4:0.550625991821289 5:0.6597477722167969 6:0.6368532180786133 7:0.42550346374511716 8:0.47081756591796875 9:0.523556785583496 10:0.29943065643310546 11:0.6789115905761719 12:-0.19 13:0.63 14:-0.75 
-0.0 -2.5774632416256567 -0.19830077130281262 -0.0 0.0 1.0355109329455234 0.0 2.196104918978686 2.238388135801715 0.0 0.0 0.0 0.0 1:-0.49 2:-0.75 3:-0.43 4:0.5525276947021485 5:0.6460138702392578 6:0.5974749374389648 7:0.42520580291748045 8:0.47336864471435547 9:0.5200290679931641 10:0.29253339767456055 11:0.6540972900390625 12:-0.19 13:0.58 14:-0.79 
-2.1219026684381634 -0.009416495629479939 -0.0 -0.0 0.0 0.0 0.0 0.0 0.0 2.183958157969729 5.16891774970055 54.34795519114417 5.3543901955634166 1:-0.48 2:-0.78 3:-0.4 4:0.5518465042114258 5:0.6188888549804688 6:0.5748962783813476 7:0.4270716094970703 8:0.47239112854003906 9:0.5190800857543946 10:0.2928765678405762 11:0.6488407897949219 12:-0.2 13:0.54 14:-0.82 
-0.0 -0.0 -0.0 -0.6734222889098508 -6.86922018711441 2.1758988112317432 33.18227549315095 0.0 0.0 0.0 0.05689800277285862 0.0 0.0 1:-0.25 2:-0.76 3:-0.6 4:0.5096195602416992 5:0.9511558532714843 6:0.9870945739746094 7:0.8078024291992187 8:0.9247084808349609 9:0.9835142517089843 10:0.325590934753418 11:0.6357987976074219 12:-0.23 13:0.65 14:-0.72 
-0.0 -0.0 -0.0 -0.0 -12.69819761844976 0.0 0.0 0.0 0.0 0.0 0.0 0.0 0.0 1:-0.28 2:-0.78 3:-0.56 4:0.5097750091552734 5:0.9473921203613281 6:0.9876519012451171 7:0.8073255920410156 8:0.9260432434082031 9:0.984466552734375 10:0.320499153137207 11:0.6115576171875 12:-0.24 13:0.62 14:-0.74 
-0.0 -0.0 -0.0 -0.0 -0.0 0.0 0.0 2.2102993625249807 0.0 0.0 0.0 0.0 0.0 1:-0.29 2:-0.8 3:-0.52 4:0.5089498901367188 5:0.9436505889892578 6:0.9865803527832031 7:0.813416976928711 8:0.9302313995361328 9:0.9793466186523437 10:0.3215433502197266 11:0.6080499267578126 12:-0.27 13:0.59 14:-0.76 
-0.0 -0.0 -0.0 -0.0 -0.0 0.0 0.0 0.0 0.0 0.0 0.0 21.748738350892104 0.0 1:-0.29 2:-0.81 3:-0.51 4:0.5072576141357422 5:0.9428670501708984 6:0.986341323852539 7:0.8151834106445313 8:0.9309669494628906 9:0.9776261138916016 10:0.32291206359863284 11:0.6067185974121094 12:-0.28 13:0.59 14:-0.76 
-0.0 -0.0 -0.0 -0.0 -0.0 0.0 17.583587196791886 0.0 0.0 0.0 0.0 0.0 0.0 1:-0.3 2:-0.81 3:-0.51 4:0.5065477371215821 5:0.9421505737304687 6:0.9862062072753907 7:0.8165908813476562 8:0.9318510437011719 9:0.977180404663086 10:0.32423446655273436 11:0.6054969787597656 12:-0.29 13:0.59 14:-0.76 
-2.1773684303422383 -2.6517738063061995 -2.931966393180771 -2.4199161578216923 -0.0 0.0 0.0 0.0 2.3223422728817393 2.406999649076394 3.968628776802091 0.0 3.834588009370015 1:-0.3 2:-0.81 3:-0.51 4:0.506084861755371 5:0.9415634155273438 6:0.986063232421875 7:0.817577133178711 8:0.9325273132324219 9:0.9771376037597657 10:0.32518131256103516 11:0.605792007446289 12:-0.29 13:0.58 14:-0.76 
-7.970748885589311 -4.105165463418692 -7.004735857481866 -4.544894957775708 -0.0 -0.0 0.0 29.69098203556785 15.448704644128192 18.937876167728476 7.012170859063248 0.8600088827337591 0.0 1:0.32 2:0.81 3:0.5 4:0.4644849395751953 5:0.8480122375488282 6:0.8599798583984375 7:0.31523927688598635 8:0.33643192291259766 9:0.7252305603027344 10:0.4559161376953125 11:0.8240032196044922 12:0.01 13:-0.53 14:0.85 
-0.0 -0.0 -0.0 -0.0 -0.04273436137135311 -0.0 0.0 0.0 0.0 0.0 0.0 0.0 3.155513048744591 1:0.26 2:0.84 3:0.47 4:0.4632300567626953 5:0.8452681732177735 6:0.8599669647216797 7:0.31623197555541993 8:0.33821563720703124 9:0.7142375183105468 10:0.4182857894897461 11:0.8241922760009766 12:0.11 13:-0.51 14:0.85 
-0.0 -0.0 -0.0 -0.0 -0.0 -2.161771957577398 0.0 0.0 0.0 0.0 0.0 1.3831145639883586 0.0 1:0.27 2:0.84 3:0.46 4:0.46292274475097656 5:0.8440731811523438 6:0.8600288391113281 7:0.3165224838256836 8:0.3387093734741211 9:0.7126192474365234 10:0.41991695404052737 11:0.8234249877929688 12:0.12 13:-0.51 14:0.85 
-0.0 -0.0 -0.0 -0.0 -2.2417126343361944 -0.014126853654344856 2.257522457925883 0.0 0.0 0.0 0.0 0.0 0.0 1:0.26 2:0.86 3:0.44 4:0.46250717163085936 5:0.8413849639892578 6:0.8589359283447265 7:0.3169481086730957 8:0.33941417694091797 9:0.7080550384521485 10:0.41994003295898436 11:0.8180872344970703 12:0.15 13:-0.48 14:0.86 
-0.0 -0.0 -0.04295797974609146 -0.0 -3.072019662480062 -0.0 -0.0 0.0 0.0 0.14204536751210375 1.456092242214683 0.0 0.0 1:-0.56 2:-0.47 3:-0.68 4:0.6442695617675781 5:0.6942692565917968 6:1.0148345184326173 7:0.8908523559570313 8:0.9591776275634766 9:0.17473625183105468 10:0.7742540740966797 11:0.8129827880859375 12:-0.17 13:0.87 14:-0.46 
-0.0 -0.0 -0.0 -0.0 -0.0 -0.0 -0.48910871829742586 0.16357700322061539 0.23000626188603845 0.0 0.0 0.0 0.0 1:-0.55 2:-0.44 3:-0.71 4:0.6512351989746094 5:0.731826171875 6:1.0127244567871094 7:0.8976720428466797 8:0.9610533142089843 9:0.1850331497192383 10:0.7485506439208984 11:0.8269318389892578 12:-0.14 13:0.89 14:-0.44 
-0.0 -0.0 -0.0 -0.0 -0.0 -0.0 -1.526774521946824 0.8138469326938335 0.0 0.0 0.0 0.0 0.0 1:-0.53 2:-0.47 3:-0.71 4:0.6537391662597656 5:0.9724467468261718 6:1.0123726654052734 7:0.9003929138183594 8:0.9616810607910157 9:0.5278540420532226 10:0.48299083709716795 11:0.8354405975341797 12:-0.15 13:0.87 14:-0.46 
-0.0 -0.47437046959722384 -0.0 -0.0 -6.757201438712222 -0.0 -0.0 0.0 0.0 0.0 0.0 0.0 0.991464995767142 1:-0.49 2:-0.65 3:-0.58 4:0.7075065612792969 5:0.9686395263671875 6:1.0002737426757813 7:0.8983181762695313 8:0.9520307922363281 9:0.5202489471435547 10:0.5340742874145508 11:0.8168759918212891 12:-0.31 13:0.75 14:-0.58 
-1.1627733407144987 -0.709303896782403 -0.0 -0.0 -0.0 -0.0 -0.0 0.0 0.0 1.969078564613671 0.0 12.10633620881663 1.6616477092907413 1:-0.43 2:-0.75 3:-0.51 4:0.6416435241699219 5:0.9352879333496094 6:1.0211117553710938 7:0.91802978515625 8:0.980809326171875 9:0.5100168991088867 10:0.5873663711547852 11:0.8660954284667969 12:-0.42 13:0.66 14:-0.62 
-0.9060302190605644 -1.367705873743314 -3.055881889449162 -3.259646745650768 -9.149015977247084 -50.76586268994283 -0.24163921768163255 1.2641264228375066 2.1085559126075335 0.2744881710553384 2.6194460486149245 3.070312480342525 0.9862252022115293 1:-0.45 2:-0.71 3:-0.54 4:0.6202374649047852 5:0.9794623565673828 6:1.0187885284423828 7:0.9193599700927735 8:0.9728148651123046 9:0.6902558135986329 10:0.4235990524291992 11:0.912671890258789 12:-0.37 13:0.7 14:-0.61 
-12.361083093082318 -0.0 -0.0 -0.0 -0.0 -0.0 -0.0 -0.0 0.0 0.0 0.0 0.0 0.0 1:0.22 2:0.7 3:0.68 4:0.9343680572509766 5:1.010936279296875 6:1.022348861694336 7:0.4428709030151367 8:0.5147241973876953 9:1.057313003540039 10:0.4771365737915039 11:0.9147515869140626 12:-0.02 13:-0.69 14:0.72 
-0.0 -5.038735626108226 -0.0 -5.361131482317635 -0.0 -1.2858224728258718 -0.0 -0.0 25.412293571774985 33.248018263681935 0.0 0.0 0.0 1:0.21 2:0.7 3:0.68 4:0.9334718322753907 5:1.0089010620117187 6:1.0204135131835939 7:0.44260238647460937 8:0.5144963455200195 9:1.0503022003173828 10:0.4723887252807617 11:0.9146779632568359 12:-0.04 13:-0.69 14:0.72 
-0.0 -0.0 -7.582574666334203 -0.0 -0.0 -0.0 -0.0 -0.0 0.0 0.0 6.279996941471129 0.01559786103892099 0.0 1:0.16 2:0.71 3:0.69 4:0.9225910186767579 5:1.0051793670654297 6:1.018044662475586 7:0.4422136688232422 8:0.5155362701416015 9:1.0272997283935548 10:0.46811470031738284 11:0.9140425872802734 12:-0.02 13:-0.69 14:0.72 
-0.0 -0.0 -0.0 -0.0 -2.196104918978686 -0.9244768896991089 -0.0 -2.241550358751956 45.6843574980457 0.0 0.0 2.183291870364859 3.4813980942096494 1:0.12 2:0.71 3:0.69 4:0.933154067993164 5:1.001715850830078 6:1.0166691589355468 7:0.4419574737548828 8:0.5174364471435546 9:1.021337127685547 10:0.46514019012451174 11:0.9132476806640625 12:-0.01 13:-0.7 14:0.72 
-0.0 -0.0 -0.0 -0.0 -0.0 -0.0 -29.69098203556785 -0.0 0.0 0.0 0.0 0.0 0.0 1:0.24 2:0.73 3:0.64 4:0.9474462127685547 5:1.0052528381347656 6:1.0141637420654297 7:0.44164390563964845 8:0.5133979415893555 9:1.015955047607422 10:0.4635434341430664 11:0.9053903961181641 12:0.02 13:-0.66 14:0.75 
-0.0 -0.0 -0.0 -0.0 -0.0 -0.0 -0.0 -0.0 -0.0 0.0 0.0 0.0 3.7757430592329646 1:0.11 2:0.56 3:0.82 4:0.8909046936035157 5:0.9920010375976562 6:1.006508331298828 7:0.4992561340332031 8:0.8722181701660157 9:0.9946802520751953 10:0.38094993591308596 11:0.9503382110595703 12:-0.16 13:-0.81 14:0.57 
-7.971364406434744 -0.0 -0.0 -0.0 -0.0 -0.0 -0.0 -0.0 -0.0 36.57756799476741 0.0 0.0 0.0 1:0.12 2:0.56 3:0.82 4:0.8917577362060547 5:0.992091064453125 6:1.0062361907958985 7:0.4992340469360352 8:0.8723253631591796 9:0.9966157531738281 10:0.38086666107177736 11:0.9511363220214843 12:-0.16 13:-0.8 14:0.58 
-0.0 -0.0 -0.0 -0.0 -2.238388135801715 -2.3223422728817393 -0.0 -2.338562174493572 -0.0 0.0 0.0 2.3041527640344195 0.0 1:0.11 2:0.56 3:0.82 4:0.8924447631835938 5:0.9922435760498047 6:1.0062718963623047 7:0.4992161178588867 8:0.8734307861328126 9:0.9989411163330079 10:0.38046894073486326 11:0.9517305755615234 12:-0.16 13:-0.8 14:0.57 
-0.0 -0.0 -0.0 -6.4844419072679145 -0.0 -0.0 -0.0 -0.0 -0.0 0.0 0.0 0.0 0.0 1:0.13 2:0.61 3:0.78 4:0.8897026062011719 5:0.9927782440185546 6:1.0055101776123048 7:0.4989897537231445 8:0.8678433990478516 9:1.0021188354492188 10:0.3798304748535156 11:0.9568812561035156 12:-0.19 13:-0.76 14:0.62 
-0.0 -0.0 -7.9255728907059 -0.0 -0.0 -0.0 -0.0 -0.0 -0.0 0.0 0.0 0.0 0.0 1:0.13 2:0.61 3:0.78 4:0.8897311401367187 5:0.9927719116210938 6:1.0052498626708983 7:0.49891483306884765 8:0.8654428863525391 9:1.0032273101806641 10:0.37977066040039065 11:0.9556626892089843 12:-0.19 13:-0.76 14:0.62 
-2.4875665616634484 -5.120664148639884 -0.0 -0.0 -0.0 -0.0 -15.448704644128192 -0.0 -71.09665106982068 0.0 7.00662512294938 0.0 0.0 1:0.13 2:0.61 3:0.78 4:0.8898161315917968 5:0.9927363586425781 6:1.0050157928466796 7:0.49885513305664064 8:0.8650135803222656 9:1.004174118041992 10:0.3796614837646484 11:0.9542355346679687 12:-0.19 13:-0.76 14:0.62 
-0.0 -2.5973460331991727 -5.6299875027013195 -1.1431125065901728 -0.0 -0.0 -18.937876167728476 -0.1388176683212146 -33.248018263681935 -36.57756799476741 2.510422934063083 0.0 0.0 1:0.29 2:0.47 3:0.84 4:0.8339958953857421 5:0.6694207000732422 6:0.9587197113037109 7:0.4880303192138672 8:0.5639809036254883 9:0.7856278228759765 10:0.5602502822875977 11:0.7030011749267578 12:-0.23 13:-0.81 14:0.53 
-1.8769619911429178 -0.0 -0.0 -0.0 -0.0 -0.0 -0.0 -0.0 -0.0 -0.0 0.0 0.0 4.0389537229540196 1:0.3 2:0.45 3:0.84 4:0.8302291107177734 5:0.668785171508789 6:0.9489727020263672 7:0.4880495834350586 8:0.5638726043701172 9:0.7866824340820312 10:0.5521775817871094 11:0.6948296356201172 12:-0.24 13:-0.82 14:0.53 
-0.0 -0.0 -0.0 -0.0 -0.1786605784004666 -0.0 -0.0 -0.0 -0.0 -0.0 0.0 0.0 0.0 1:0.38 2:0.39 3:0.84 4:0.8216361999511719 5:0.6624413299560546 6:0.9238545989990234 7:0.4881155014038086 8:0.5634801483154297 9:0.7945686340332031 10:0.5245035934448242 11:0.6717101287841797 12:-0.31 13:-0.8 14:0.51 
-13.619137114141768 -0.0 -0.0 -0.0 -0.0 -0.0 -0.0 -0.0 -0.0 -0.0 0.0 0.0 0.0 1:0.48 2:0.35 3:0.81 4:0.8062225341796875 5:0.6489533233642578 6:0.9025055694580079 7:0.4881270980834961 8:0.5634075927734375 9:0.7975804138183594 10:0.5116888046264648 11:0.6156319046020508 12:-0.42 13:-0.72 14:0.56 
-0.0 -2.8348638369937267 -1.3176386856195805 -4.0534996555220575 -2.249905853753214 -2.406999649076394 -0.0 -2.2467944348598987 -0.0 -0.0 4.65462411940742 2.587899608002348 0.0 1:0.53 2:0.32 3:0.78 4:0.7957593536376953 5:0.6177746963500976 6:0.8971866607666016 7:0.4993757247924805 8:0.5633185195922852 9:0.8042446136474609 10:0.49644577026367187 11:0.5732242202758789 12:-0.47 13:-0.66 14:0.59 
-0.0 -0.0 -0.0 -56.04788701167301 -0.5040472900387024 -2.3155185828005003 -0.0 -2.1291368609120833 -0.0 -0.0 -0.0 0.7844309346257488 0.0 1:-0.01 2:0.94 3:0.34 4:0.4419083023071289 5:0.9785590362548828 6:0.9825631713867188 7:0.4068750762939453 8:0.9524396514892578 9:1.20046630859375 10:0.6388272857666015 11:1.15273681640625 12:-0.98 13:0.05 14:-0.17 
-0.0 -0.0 -0.0 -0.0 -0.0 -0.0 -1.5270183845385121 -0.0 -0.0 -0.0 -1.717905316699479 0.0 0.0 1:-0.07 2:0.92 3:0.39 4:0.4422552490234375 5:0.9787666320800781 6:0.9787826538085938 7:0.4081229019165039 8:0.9488206481933594 9:1.18097412109375 10:0.6382905960083007 11:1.1341352844238282 12:-0.98 13:0.0 14:-0.17 
-0.0 -0.0 -0.0 -0.0 -0.0 -0.0 -0.0 -0.0 -0.0 -0.0 -0.0 0.41639076404267406 0.0 1:-0.08 2:0.93 3:0.36 4:0.44251533508300783 5:0.9784642028808593 6:0.976843490600586 7:0.41001792907714846 8:0.9439238739013672 9:1.1728925323486328 10:0.6527568817138671 11:1.1237641143798829 12:-0.98 13:-0.01 14:-0.18 
-3.5299930824648484 -0.0 -36.85841795065166 -0.0 -0.0 -0.0 -2.852287745491582 -0.0 -4.757172556048402 -5.630448454602354 -3.024351199551398 0.0 0.0 1:-0.13 2:0.93 3:0.36 4:0.4428614807128906 5:0.9778453826904296 6:0.9739270782470704 7:0.41272815704345706 8:0.9373341369628906 9:1.162329864501953 10:0.6775106048583984 11:1.109970474243164 12:-0.98 13:-0.07 14:-0.18 
-0.0 -8.704467035048628 -0.0 -0.0 -1.4866924888305566 -0.0 -0.0 -0.2617764340647103 -0.0 -0.0 -0.0 0.6268519408148946 2.961324358977036 1:-0.17 2:0.93 3:0.33 4:0.4430185699462891 5:0.977027816772461 6:0.9737242889404297 7:0.4142797088623047 8:0.9370479583740234 9:1.1553070831298828 10:0.6861328125 11:1.1036302185058593 12:-0.98 13:-0.11 14:-0.19 
-1.5072015944660326 -1.3462352238820405 -2.1408028227765654 -0.0 -3.1781779708312907 -1.71000819677445 -2.6328647290331544 -1.6846249958528141 -1.5228243854227272 -1.3761766683470256 -2.422790537219627 2.9917748765955037 3.1469941294165267 1:0.0 2:0.0 3:0.0 4:0.0 5:0.0 6:0.0 7:0.0 8:0.0 9:0.0 10:0.0 11:0.0 12:0.0 13:0.0 14:0.0 
-0.0 -0.009245328414417784 -1.7523395112470066 -2.607672305126527 -66.43078710153979 -21.748738350892104 -0.0 -15.176648689159155 -0.0 -0.0 -0.0 -0.0 0.0 1:-0.19 2:-0.9 3:-0.38 4:0.5485456848144531 5:0.6727283477783204 6:0.6869166564941406 7:0.6004317474365234 8:0.6279291915893555 9:0.4861163711547852 10:0.2548638343811035 11:0.5113947677612305 12:-0.16 13:0.41 14:-0.9 
-0.0 -2.4855024348039936 -0.0 -0.0 -0.0 -0.0 -2.235718179738127 -0.0 -0.01559786103892099 -0.0 -0.0 -0.0 0.0 1:-0.15 2:-0.94 3:-0.3 4:0.5360886001586914 5:0.6667908477783203 6:0.6798693084716797 7:0.5926840209960937 8:0.6176233673095703 9:0.46810081481933596 10:0.2580693244934082 11:0.5023828125 12:-0.16 13:0.32 14:-0.93 
-0.0 -0.0 -0.0 -0.0 -0.0 -0.0 -0.0 -0.0 -0.0 -0.0 -0.0 -0.0 5.166841849001554 1:-0.15 2:-0.95 3:-0.29 4:0.5336965560913086 5:0.6660674285888671 6:0.6793022918701171 7:0.5917450714111329 8:0.6172761154174805 9:0.46780708312988284 10:0.2581401634216309 11:0.5022022247314453 12:-0.16 13:0.31 14:-0.94 
-2.2213163655564157 -0.0 -0.9611793317463002 -0.0 -0.0 -0.0 -0.007405266983990763 -0.0 -2.183291870364859 -2.3041527640344195 -2.587899608002348 -4.819448516078821 0.0 1:-0.13 2:-0.95 3:-0.28 4:0.5267157745361328 5:0.6633521270751953 6:0.6767236328125 7:0.5889688110351563 8:0.6181262969970703 9:0.46270538330078126 10:0.2568019676208496 11:0.5003711700439453 12:-0.17 13:0.3 14:-0.94 
-0.0 -0.0 -3.887338381069645 -2.9087771919574044 -5.3543901955634166 -3.834588009370015 -0.0 -3.6393379072694128 -0.0 -0.0 -0.0 -6.108318488393563 -5.166841849001554 1:-0.95 2:-0.09 3:0.29 4:0.828414306640625 5:0.533702392578125 6:0.5312871170043946 7:0.4659196090698242 8:0.48070564270019533 9:0.6310188674926758 10:0.19289073944091797 11:0.48032474517822266 12:-0.14 13:-0.71 14:-0.69 
-0.0 -4.023153035154955 -0.0 -0.0 -0.0 -0.0 -3.155513048744591 -0.0 -0.0 -0.0 -0.0 -0.0 -0.0 1:-0.95 2:-0.09 3:0.3 4:0.8310472869873047 5:0.5272595977783203 6:0.5263701248168945 7:0.46332134246826173 8:0.4795867919921875 9:0.658699951171875 10:0.16857158660888671 11:0.46081310272216797 12:-0.14 13:-0.73 14:-0.66 
-3.1811746360287807 -0.0 -0.0 -0.0 -0.0 -0.0 -0.0 -0.0 -3.4813980942096494 -3.7757430592329646 -4.0389537229540196 -0.0 -0.0 1:-0.94 2:-0.11 3:0.32 4:0.8354733276367188 5:0.5295930099487305 6:0.5278989028930664 7:0.4587943649291992 8:0.4813279724121094 9:0.6951296234130859 10:0.13703007698059083 11:0.4369359970092773 12:-0.13 13:-0.75 14:-0.65 
