svm_type c_svc
kernel_type rbf
gamma 0.07142857142857142
nr_class 10
total_sv 54
rho 0.0 -0.004946576197882853 -0.006876402608121433 0.0 -8.488008166498973E-5 -0.005218166326409662 -0.00333502618061024 0.004641927114891598 0.0 -0.0015955812325733846 0.0 -6.977936000138848E-4 0.0 0.005438075485798572 0.0 0.020402587818822798 8.661462172161738E-6 0.0 0.0 -3.883917571139798E-5 0.0024815904101798776 0.0 0.03762328392806105 0.0 0.0 -0.0023912981826339857 0.0035481806003070837 0.0 0.041035370403896314 -0.008492542261964076 0.0 0.0 0.0 0.0 -8.313695207452241E-4 0.0 0.0010158392724672935 0.05621553498493752 9.523804022352425E-4 -0.010136059188903408 0.03334648948413488 -0.0019899643056740446 0.12120818821331886 0.0 -0.029954259286956275
label 1 2 3 4 5 6 7 8 9 10
nr_sv 7 4 5 3 5 5 6 6 7 6
SV
0.0 2.8376889452280065 3.085909174620534 0.0 2.304181244725289 0.7982074149207169 0.0 0.0 4.277028139765271 1:-0.24 2:-0.51 3:-0.83 4:0.58 5:-0.08 6:0.64 7:0.72 8:0.63 9:0.72 10:-0.76 11:0.98 12:0.2 13:0.81 14:-0.56 
0.0 0.0 0.0 0.0 0.0 0.02405106859830114 0.3317351529417974 0.0 0.0 1:-0.24 2:-0.51 3:-0.83 4:0.58 5:-0.08 6:0.64 7:0.72 8:0.64 9:0.72 10:-0.76 11:0.98 12:0.2 13:0.8 14:-0.56 
0.0 0.0 0.0 0.0 0.11007943606145482 0.0 0.0 0.0 0.0 1:-0.23 2:-0.52 3:-0.82 4:0.58 5:-0.08 6:0.64 7:0.72 8:0.64 9:0.72 10:-0.76 11:0.98 12:0.21 13:0.8 14:-0.56 
2.6453510804142 0.44179542456309556 0.0 2.137284049762904 0.0 0.0 0.0 0.0 0.0 1:-0.23 2:-0.53 3:-0.82 4:0.59 5:-0.08 6:0.83 7:0.88 8:0.84 9:0.74 10:-0.55 11:0.99 12:0.3 13:0.76 14:-0.57 
0.0 0.13017298701528346 0.0 0.0 0.0 0.0 0.0 0.0 0.0 1:-0.23 2:-0.53 3:-0.82 4:0.59 5:-0.08 6:0.83 7:0.88 8:0.84 9:0.74 10:-0.55 11:0.99 12:0.31 13:0.76 14:-0.58 
0.0 0.0 0.0 0.0 0.0 0.9686399746924984 1.7479016070064466 2.1845288516487966 0.0 1:-0.22 2:-0.54 3:-0.81 4:0.58 5:-0.08 6:0.83 7:0.87 8:0.84 9:0.75 10:-0.55 11:0.99 12:0.31 13:0.75 14:-0.58 
0.0 0.0 0.7428465969247131 0.0 0.0 0.0 0.0 0.0 0.0 1:-0.17 2:-0.54 3:-0.82 4:0.57 5:-0.08 6:0.83 7:0.85 8:0.83 9:0.76 10:-0.55 11:0.99 12:0.32 13:0.76 14:-0.57 
-2.6453510804142 2.396854325366908 3.7129226501742463 0.7179851574457474 1.6480975411274956 0.0 2.2769446746346715 1.9934352006507172 2.6235554468458986 1:-0.23 2:-0.58 3:-0.78 4:0.55 5:-0.35 6:-0.35 7:0.87 8:0.86 9:0.42 10:0.98 11:-0.66 12:0.21 13:0.76 14:-0.62 
-0.0 0.0 0.0 0.0 0.0 2.510345996364266 0.0 0.0 0.0 1:-0.23 2:-0.58 3:-0.78 4:0.56 5:-0.35 6:-0.35 7:0.86 8:0.85 9:0.41 10:0.98 11:-0.67 12:0.21 13:0.76 14:-0.62 
-0.0 1.591869776030733 0.0 0.0 0.0 0.0 0.0 0.0 0.0 1:-0.18 2:-0.53 3:-0.83 4:0.61 5:-0.35 6:-0.35 7:0.87 8:0.86 9:0.34 10:0.98 11:-0.67 12:0.26 13:0.78 14:-0.56 
-0.0 0.0 0.0 1.2808954269745108 0.0 0.0 0.0 0.0 0.0 1:-0.19 2:-0.53 3:-0.82 4:0.61 5:-0.35 6:-0.35 7:0.87 8:0.86 9:0.34 10:0.98 11:-0.67 12:0.26 13:0.78 14:-0.57 
-2.2195102292450404 -0.041929510391521076 14.16064106524597 0.0 1.9518442695662686 1.989570035067656 2.5868090932639296 2.4104913608536216 4.521607328914467 1:-0.19 2:-0.52 3:-0.84 4:0.57 5:-0.33 6:-0.3 7:0.92 8:-0.27 9:0.31 10:0.94 11:0.99 12:0.1 13:0.84 14:-0.54 
-0.0 -0.0 0.0 0.0 0.018156585370098875 0.0 0.0 0.0 0.0 1:-0.21 2:-0.5 3:-0.84 4:0.58 5:-0.33 6:-0.3 7:0.91 8:-0.27 9:0.28 10:0.94 11:0.99 12:0.12 13:0.84 14:-0.53 
-0.0 -0.0 0.0 2.484949858039606 0.0 0.0 0.0 0.0 0.0 1:-0.22 2:-0.48 3:-0.85 4:0.59 5:-0.33 6:-0.3 7:0.91 8:-0.27 9:0.26 10:0.94 11:0.99 12:0.14 13:0.84 14:-0.52 
-0.0 -3.9467945910061197 0.0 0.0 0.0 0.0 0.0 0.0 0.0 1:-0.21 2:-0.51 3:-0.83 4:0.6 5:-0.33 6:-0.3 7:0.92 8:-0.27 9:0.28 10:0.94 11:0.99 12:0.18 13:0.82 14:-0.55 
-1.190147127561346 -0.0 0.0 0.0 0.0 0.0 0.0 0.0 0.0 1:-0.22 2:-0.5 3:-0.84 4:0.6 5:-0.33 6:-0.3 7:0.92 8:-0.27 9:0.29 10:0.94 11:0.99 12:0.18 13:0.82 14:-0.54 
-3.828755771545247 -3.7129226501742463 -14.16064106524597 2.7390192488029905 1.437286045436203 0.20074653338215886 2.7851821650366446 2.9303722864607864 6.532684802784977 1:-0.21 2:-0.6 3:-0.77 4:0.5 5:-0.07 6:0.05 7:0.1 8:-0.01 9:0.54 10:0.97 11:0.99 12:-0.04 13:0.8 14:-0.6 
-0.0 -0.0 -0.0 0.0 0.8349752107046945 2.189938230506932 0.0 0.0 0.0 1:-0.11 2:-0.68 3:-0.72 4:0.48 5:-0.07 6:0.05 7:-0.01 8:-0.14 9:0.6 10:0.97 11:0.98 12:-0.03 13:0.73 14:-0.68 
-0.0 -0.0 -0.0 0.0 0.0 0.0 0.0 0.0 2.6623418067906783 1:-0.11 2:-0.68 3:-0.73 4:0.48 5:-0.07 6:0.05 7:0.0 8:-0.14 9:0.62 10:0.97 11:0.98 12:-0.04 13:0.73 14:-0.68 
-0.0 -0.0 -2.484949858039606 -0.0 3.088385559272787 0.0 0.0 0.0 0.0 1:-0.01 2:0.81 3:0.59 4:0.07 5:0.54 6:0.53 7:0.51 8:0.53 9:-0.51 10:0.96 11:0.99 12:-0.28 13:0.57 14:-0.78 
-0.0 -0.0 -0.0 -0.0 0.0 0.0 0.0 0.0 2.149104901509679 1:0.0 2:0.8 3:0.59 4:0.08 5:0.55 6:0.54 7:0.51 8:0.54 9:-0.51 10:0.96 11:0.99 12:-0.26 13:0.57 14:-0.78 
-0.0 -0.0 -0.0 -2.7390192488029905 0.0 0.0 0.0 0.0 0.035654965427214656 1:0.0 2:0.8 3:0.6 4:0.08 5:0.55 6:0.54 7:0.51 8:0.54 9:-0.5 10:0.96 11:0.99 12:-0.26 13:0.58 14:-0.77 
-0.0 -1.9988805844202582 -0.0 -0.0 0.0 0.0 0.0 0.0 0.0 1:0.01 2:0.79 3:0.61 4:0.09 5:0.56 6:0.56 7:0.54 8:0.56 9:-0.48 10:0.96 11:0.99 12:-0.25 13:0.59 14:-0.77 
-2.137284049762904 -0.0 -0.0 -0.0 0.0 2.796462737701273 4.092560889994297 7.439630989830223 0.517705035929104 1:-0.02 2:0.78 3:0.62 4:0.07 5:0.6 6:0.6 7:0.6 8:0.6 9:-0.43 10:0.97 11:0.99 12:-0.28 13:0.59 14:-0.75 
-0.0 -0.0 -0.0 -0.0 -3.088385559272787 0.0 0.0 4.417852725806839 0.0 1:-0.48 2:-0.22 3:0.85 4:-0.39 5:0.76 6:0.09 7:0.06 8:0.11 9:-0.01 10:-0.58 11:0.98 12:-0.88 13:0.11 14:-0.46 
-0.0 -0.0 -0.0 -0.0 -0.0 2.9161689990040274 0.0 0.0 0.0 1:-0.48 2:-0.23 3:0.85 4:-0.39 5:0.75 6:0.09 7:0.06 8:0.11 9:-0.01 10:-0.58 11:0.98 12:-0.88 13:0.11 14:-0.46 
-0.0 -0.0 -0.0 -0.0 -0.0 0.0 0.0 0.0 0.12284517082019328 1:-0.48 2:-0.26 3:0.84 4:-0.39 5:0.71 6:0.08 7:0.08 8:0.08 9:0.03 10:-0.64 11:0.98 12:-0.88 13:0.15 14:-0.46 
-0.0 -1.6480975411274956 -1.9700008549363675 -2.2722612561408977 -0.0 0.0 3.3444953603652716 0.0 3.223040970252045 1:-0.49 2:-0.25 3:0.84 4:-0.39 5:0.72 6:0.1 7:0.1 8:0.15 9:0.01 10:-0.61 11:0.98 12:-0.87 13:0.16 14:-0.46 
-2.414260680786744 -0.0 -0.0 -0.0 -0.0 0.0 0.0 0.0 0.0 1:-0.49 2:-0.25 3:0.84 4:-0.39 5:0.71 6:0.1 7:0.09 8:0.15 9:0.02 10:-0.62 11:0.98 12:-0.87 13:0.16 14:-0.46 
-0.0 -1.8079803981528932 -0.264680778166479 -0.5376767796011969 -0.0 -0.0 1.6373507670409422 0.0 0.0 1:-0.65 2:-0.24 3:0.72 4:-0.1 5:0.41 6:0.49 7:0.15 8:0.04 9:0.75 10:1.0 11:-0.81 12:-0.73 13:-0.07 14:-0.68 
-0.0 -0.0 -0.0 -1.853007984287894 -0.0 -0.0 0.0 0.0 0.0 1:-0.62 2:-0.29 3:0.72 4:-0.05 5:0.59 6:0.55 7:0.19 8:0.09 9:0.46 10:0.95 11:-0.7 12:-0.73 13:-0.12 14:-0.68 
-1.7908984582115164 -0.7023655982113725 -1.724889256901177 -0.0 -0.0 -0.0 0.0 0.0 1.3489096452825415 1:-0.62 2:-0.29 3:0.73 4:-0.05 5:0.59 6:0.55 7:0.2 8:0.1 9:0.46 10:0.95 11:-0.69 12:-0.73 13:-0.12 14:-0.67 
-0.0 -0.0 -0.0 -0.0 -0.0 -2.9161689990040274 2.2395011171473858 4.681744379571206 0.0 1:-0.62 2:-0.28 3:0.73 4:-0.05 5:0.59 6:0.55 7:0.2 8:0.1 9:0.46 10:0.95 11:-0.69 12:-0.73 13:-0.12 14:-0.67 
-0.0 -0.0 -0.0 -0.0 -2.796462737701273 -0.0 0.0 0.0 0.008889553155695576 1:-0.66 2:-0.23 3:0.71 4:-0.05 5:0.63 6:0.59 7:0.16 8:0.06 9:0.44 10:0.95 11:-0.69 12:-0.71 13:-0.11 14:-0.7 
-0.0 -0.0 -0.0 -0.0 -0.0 -0.0 0.0 0.0 1.206480312074357 1:-0.69 2:-0.22 3:0.69 4:-0.05 5:0.65 6:0.62 7:0.11 8:0.0 9:0.43 10:0.95 11:-0.71 12:-0.69 13:-0.1 14:-0.72 
-0.0 -0.0 -0.0 -0.0 -0.0 -0.0 -0.0 15.071726167239525 0.0 1:-0.38 2:0.18 3:0.91 4:-0.24 5:-0.07 6:-0.04 7:0.88 8:0.56 9:0.86 10:1.0 11:0.78 12:-0.9 13:0.13 14:-0.41 
-0.0 -0.0 -2.5868090932639296 -2.7851821650366446 -0.0 -1.1460014933508118 -0.0 0.0 2.480243973507545 1:-0.41 2:0.14 3:0.9 4:-0.24 5:-0.07 6:-0.04 7:0.89 8:0.57 9:0.86 10:1.0 11:0.78 12:-0.89 13:0.14 14:-0.43 
-0.0 -0.0 -0.0 -0.0 -4.092560889994297 -0.0 -0.0 0.0 0.0 1:-0.38 2:0.2 3:0.9 4:-0.24 5:-0.07 6:-0.02 7:0.9 8:0.58 9:0.86 10:1.0 11:0.78 12:-0.89 13:0.18 14:-0.42 
-2.0796367599482437 -0.0 -0.0 -0.0 -0.0 -0.0 -0.0 0.0 0.0 1:-0.42 2:0.1 3:0.9 4:-0.24 5:-0.07 6:-0.03 7:0.91 8:0.59 9:0.86 10:1.0 11:0.78 12:-0.9 13:0.13 14:-0.43 
-0.0 -2.2769446746346715 -0.0 -0.0 -0.0 -0.0 -3.876851884188328 0.0 0.0 1:-0.4 2:0.09 3:0.91 4:-0.24 5:-0.07 6:-0.05 7:0.91 8:0.59 9:0.86 10:1.0 11:0.76 12:-0.9 13:0.12 14:-0.41 
-0.0 -0.0 -0.0 -0.0 -0.0 -2.19849386701446 -0.0 0.0 0.0 1:-0.35 2:0.09 3:0.93 4:-0.24 5:-0.03 6:-0.09 7:0.93 8:0.56 9:0.85 10:1.0 11:0.77 12:-0.92 13:0.13 14:-0.36 
-0.0 -0.0 -0.0 -0.0 -0.0 -0.0 -0.0 -10.1119663853472 0.0 1:-0.49 2:0.25 3:0.83 4:-0.1 5:0.43 6:0.61 7:0.53 8:0.58 9:0.55 10:0.98 11:0.99 12:-0.87 13:-0.05 14:-0.5 
-2.1035860809769282 -1.5621375482372093 -1.2923566993467028 -1.8823244204417773 -0.0 -2.926874787062292 -4.048042692593061 -0.0 2.468299382087515 1:-0.55 2:0.06 3:0.83 4:-0.1 5:0.58 6:0.61 7:0.54 8:0.61 9:0.47 10:1.0 11:0.99 12:-0.83 13:0.03 14:-0.55 
-0.0 -0.0 -0.0 -0.0 -7.439630989830223 -0.0 -0.0 -0.0 0.0 1:-0.45 2:0.43 3:0.79 4:-0.13 5:0.63 6:0.56 7:0.44 8:0.53 9:0.39 10:1.0 11:1.0 12:-0.89 13:-0.1 14:-0.45 
-0.0 -0.0 -0.0 -0.0 -0.0 -0.21016076785261156 -0.0 -0.0 0.0 1:-0.47 2:0.18 3:0.86 4:-0.05 5:0.63 6:0.56 7:0.47 8:0.54 9:0.46 10:1.0 11:1.0 12:-0.88 13:-0.11 14:-0.46 
-0.0 -0.0 -0.0 -0.0 -0.0 -0.0 -0.0 -4.959759781892323 0.0 1:-0.21 2:0.54 3:0.81 4:0.07 5:0.42 6:0.33 7:0.39 8:0.26 9:0.6 10:0.99 11:1.0 12:-0.98 13:-0.11 14:-0.17 
-0.0 -0.0 -1.1181346615069192 -0.0 -0.0 -1.2808171708919356 -0.0 -0.0 0.0 1:-0.19 2:0.56 3:0.81 4:0.07 5:0.42 6:0.32 7:0.39 8:0.23 9:0.6 10:0.98 11:1.0 12:-0.98 13:-0.12 14:-0.15 
-0.08094277067186857 -0.43129765241350765 -0.0 -1.0480478660190093 -0.0 -0.0 -0.6337016869781447 -0.0 0.614316725973802 1:-0.2 2:0.56 3:0.8 4:0.07 5:0.42 6:0.33 7:0.39 8:0.24 9:0.6 10:0.98 11:0.99 12:-0.98 13:-0.12 14:-0.16 
-0.0 -0.0 -0.0 -0.0 -0.0 -0.3594316589450741 -0.0 -0.0 -0.0 1:-0.26 2:-0.69 3:-0.67 4:0.4 5:0.98 6:-0.08 7:-0.19 8:-0.21 9:0.56 10:0.11 11:0.96 12:-0.24 13:0.72 14:-0.65 
-0.0 -0.0 -0.0 -0.0 -0.0 -2.986454482127164 -0.0 -0.0 -0.0 1:-0.25 2:-0.68 3:-0.68 4:0.38 5:0.98 6:0.02 7:-0.09 8:-0.07 9:0.55 10:0.21 11:0.94 12:-0.28 13:0.73 14:-0.63 
-0.0 -0.0 -0.0 -0.0 -0.0 -0.0 -2.564279510512594 -2.480243973507545 -3.082616108061317 1:-0.25 2:-0.67 3:-0.7 4:0.39 5:0.98 6:0.12 7:-0.01 8:0.04 9:0.56 10:0.31 11:0.94 12:-0.27 13:0.74 14:-0.61 
-0.0 -0.05098030575629786 -0.0 -9.195026609575654 -2.7024649028659975 -0.0 -0.0 -0.0 -0.0 1:-0.25 2:-0.66 3:-0.71 4:0.39 5:0.98 6:0.13 7:0.0 8:0.03 9:0.56 10:0.32 11:0.94 12:-0.26 13:0.75 14:-0.61 
-0.0 -2.5725751410896005 -0.0 -0.0 -0.0 -0.0 -0.0 -0.0 -0.0 1:-0.25 2:-0.66 3:-0.71 4:0.39 5:0.98 6:0.13 7:0.0 8:0.03 9:0.56 10:0.32 11:0.94 12:-0.26 13:0.75 14:-0.6 
-4.277028139765271 -0.0 -4.521607328914467 -0.0 -0.0 -0.0 -0.0 -0.0 -0.0 1:-0.25 2:-0.65 3:-0.71 4:0.4 5:0.98 6:0.13 7:0.0 8:0.02 9:0.56 10:0.31 11:0.94 12:-0.26 13:0.76 14:-0.6 
