svm_type c_svc
kernel_type rbf
gamma 0.07142857142857142
nr_class 31
total_sv 452
rho 0.0 -0.01102586493084097 0.0 -1.0796464230075169E-4 7.288442883960162E-5 -0.006198717122091722 0.038636132427288736 0.0039761729468795835 -5.301305678392746E-4 0.2813444794991101 1.776989818783048E-4 -0.001610364590327944 -0.009859753032226448 0.277486305192828 0.09019251903739745 -0.01110321878753312 -7.024827328091583E-4 -0.013280547547624068 0.3001312013326155 -0.001851656947235732 -1.2083302960602671E-4 -6.429904650147529E-4 0.0026774112914811194 0.0 9.930431765792554E-4 0.0 0.0 0.04758893044852017 -0.01471399510990252 0.004033673891005335 9.360986166215525E-4 0.0 9.226897665207578E-4 0.0 0.03488081637225069 0.025104975412360186 0.025001217170043926 0.02803540598630285 0.07943752337872075 0.006843671181854341 0.0 0.0 0.20229502633653146 0.046603672373626504 -0.001329489133763094 -0.004091549034559972 0.0 0.3282538055653672 0.0 0.015880706862421587 0.010848679732754113 0.002555082099411838 -0.005970061416459269 0.0 -0.0019451532500625519 0.011286816120870003 0.04205086485128096 1.8717450325458213E-4 1.4185134260815321E-5 0.005164808891710321 0.0 2.891793358624171E-5 0.06837897354051573 0.04482277339736978 8.877118074329254E-4 0.12447046112376885 0.16132546144935614 0.0 0.0026904361342347987 -3.751490417924271E-4 0.1661914084861037 0.09641607729592207 0.0 0.0 0.0 0.8792372675904172 0.0 0.0 0.008794860648928916 0.0 0.0021594957162109833 0.01653661959027284 -1.5358347323538024E-5 4.66392906478356E-5 0.05479913757593253 -4.263921957567013E-4 0.0 -0.004966093078915432 -0.0025768315630055696 0.015823035215004822 0.027277035325004972 0.00622173312344293 0.1363606819781546 0.05046813955887549 -0.007450501079758841 -0.006966138834999479 0.006464654748318958 0.2258735710376442 0.07536560125402007 -8.145956392072475E-4 0.006789815911846228 -0.007902555845730125 1.4856203029994994 2.42861286636753E-17 0.0 0.0 -0.0026520902590459606 -5.0335389073382E-4 -0.0032641063621511213 0.0 0.015650993531936226 0.11947051606347103 0.0 9.003948185994714E-4 1.0438846778413706E-4 0.006301633905638072 0.0013599228042622683 0.011844438715385411 0.08926945510573885 0.10660350509888072 -3.594038861275776E-4 0.0 -2.1177660315453527E-4 0.3863437548530457 0.6112931603568641 0.0 0.015460667309214094 0.0 0.5343282463423346 0.0013247957525011251 0.010608407548017007 0.01406436424916505 0.0 0.0 0.06471670537351931 0.0 0.03459866201642834 0.025860295794917557 0.0 0.002689567622338273 0.04282663818598775 0.1087463286206024 0.013623742933472065 0.08371276703085005 0.07878787477212343 0.0 0.003566403193747219 0.01086185449857159 0.6869269631270942 0.02627332837153054 0.0 0.0 0.0069452500497973624 0.4415237694836229 0.0 0.0 0.050821474337374016 0.006835824705049373 -0.0013178022603836683 0.003305709869652707 -9.87591057855178E-5 0.01741043853518575 0.02812027887732462 9.345760335623991E-4 0.007157746721272284 0.003950455049593653 -0.051414367499424095 0.17549140155023807 0.2161193238851159 -0.029057375032767143 -0.005369547926175638 -0.032495092706580596 0.12692289196451353 0.0664740160071865 -0.02622200314252158 -0.028461076754096593 -0.022184604115069527 0.29082988297181733 -0.007612426374005354 -0.003065852084291061 -0.056124726850998966 -0.04968487536087896 -0.030172195096697385 -0.05670186587316251 -0.029294196076004773 0.02143956551927542 0.02138530680276601 -0.02173722326474523 -0.012053076564623543 -0.03431702199494544 0.004025187071145769 0.08845206839238029 0.0 0.004871571324301238 -0.05018360319417725 0.7671018141449184 0.08100576234258813 0.0 1.9638116698690372E-4 0.0022563018863301656 0.3869113885650115 -0.002155602346524466 -0.02289910440835951 -0.006424816462610952 -0.015579323805077578 -0.001539821977670509 -0.009388036444637876 -0.07718648464529992 -0.02557846665729571 0.020748509796023547 -0.02641628174799954 -0.023842883367802818 0.1392159710628316 0.5616731283329773 -0.013044627692786862 -6.968473225910885E-4 -0.008836424220030729 0.1736494577895507 0.10103007075185344 -0.015145802323717997 0.0 -0.018615830560725976 0.399681030556022 -0.011023692258691584 0.017289007837206057 -0.054815783929133666 -0.003665944259410904 -0.008819960088843644 -0.013944823488445343 -0.016144841455421072 0.028101484702178065 0.02997647133295494 -0.008123773566419204 -0.01567780152435581 -0.27029703604919736 -0.13316449493088725 -0.022197481908705165 -0.05958022957888165 0.17473199203553297 0.011970660801463036 -0.09095274029891713 -0.09700146475416364 -0.08767907083476918 0.26455230244402395 -0.1431805639887868 -0.3232911398553836 -0.01938863872777362 -0.048646989095303544 -0.07329269703390162 -0.08065555802612738 -0.06835074256947156 -0.08493614874414532 -0.011729026196645731 -0.09491635700244712 -0.17848134377175498 -0.10398309824198892 -0.07244502162208284 -0.15004156719455705 0.09008289520423093 -0.00966685824814863 -0.12582537655214154 -0.10296325201413237 -0.11733182764714094 0.3172567344775723 -0.1698394242583854 0.0 -0.13661789299486718 -0.08983710727235719 -0.09028235862579072 -0.10215385447140275 -0.1017269469445033 -0.13210762671003887 -0.10475783917715446 -0.10813599481003795 -0.22647576443491646 0.0 0.006080877722274547 0.270399830523889 0.06694152009638216 0.0 0.010578588767160066 0.0 3.222239772128863 -1.4007275083022241E-5 -0.0020365636927852275 0.0 0.0 0.0 0.0013097335137927657 0.0 0.007695874687794012 0.04631648142362291 0.0 0.0 0.0 0.4881804504884147 0.08410852692244164 -0.007364279487200536 -0.0038492539106471583 0.0 0.23054124142256405 0.0 0.0 0.004239124275313134 0.004033962766203431 -0.001197257699799945 0.0 0.0 -0.0038957902305875817 0.026964112490232714 -0.019026831712819367 0.0 0.05558913231844275 0.0774148215885744 0.0 0.0019041223188578059 0.0023873704106272113 0.42308313419927035 -0.0015991298099887828 -0.0016309951478304552 -1.734723475976807E-17 -0.005885063412605543 0.0 -0.0010911113868775134 4.987853703073095E-5 -0.008360750538917274 -0.0066380118356537685 0.0016667025755166883 -0.001452707932194242 -0.17192726596815072 -0.11065446526194873 -0.3067743253047383 -0.0774182402769228 0.1120832930866041 -0.1502716698561082 -0.18922262800954245 -0.103379437012773 0.0 -0.24220369450779483 -0.3692533441432979 -0.08856160389343382 -0.24948522079319516 -0.17136008176184317 -0.2362861598420836 -0.1765576434035021 -0.1333903522334733 -0.16798064842645474 -0.11511280103529498 0.4039869507399909 -0.07592408926756006 -0.10281139497999006 -0.061228686882599595 -0.09998946278990407 -0.11824410026061746 -0.09029939790891917 -0.10479282275059036 -0.2809897421545061 -0.06361610325492809 -0.10195654100847203 -0.09168019935169885 -1.2733769660699715E-4 0.0 0.25521794055293834 0.0011786138551177162 0.0 0.0 0.0 2.339284901786883E-4 0.0 0.0 0.011388018720107885 6.635857658650879E-4 7.02352961191056E-5 0.0 -0.010381016121810499 1.1369298700328407 -0.004733365083773791 0.012422634422751535 -0.004917106270700487 0.0 -3.292948103026147E-4 0.002688802454741707 -0.007850122706983426 0.008598046839627782 0.02663971378356327 -0.006394458388142947 -0.006228286890667222 0.20496327579461843 -0.00828804907361209 -9.8016959862764E-4 0.0 -0.0027522393206204344 -0.012858069762389132 0.0016618877601152725 -0.047372436312903964 0.0087472514044498 6.106226635438361E-16 0.0 -0.004003311644132579 -0.20088005647101745 -0.499798356882618 -0.7369041145485653 -0.3705533737591766 -0.19699283689356645 -0.45898032700597224 -0.225439970086263 -0.6557007620730535 -0.21876432972299706 -0.4402826524417571 -0.21332428970843392 6.998296081143947E-4 9.378348791999613E-17 0.0012607356590841714 -3.9911447452040116E-4 0.0 0.0017712163982585847 0.004869448519371582 -1.1102230246251565E-16 5.888555051024947E-4 0.0016937718558021665 0.0 -4.4007024719974356E-4 0.0 0.008164055646996949 0.0 0.00767421753185163 0.051756750868943546 -0.0012327330789061626 0.0 -0.06673432782094499 -0.02003403949656355 -0.019856632298983035 -1.4989586935708148E-4 0.010803645312404181 0.02776191145818127 -0.01243289412798562 3.865002400126327E-4 0.003625711934321819 -0.0012666664558451906 0.0 -7.233456089221028E-5 -0.001015781915614263 0.0014387371750727216 9.506973987837086E-4 0.0 0.0012227779933656757 0.011207124955072737 2.220446049250313E-16 2.125939812499996E-4 0.006734448968959155 -7.805440830563337E-4 0.001798238688793273 0.02601000823222265 0.0011430510559120172 0.0032502889502694 0.010644827756516463 0.04029927974529896 7.067102377604249E-4 -0.00115121778730376 -0.014653586949651607 -0.012826779072802684 -0.006568820194978767 -0.0766888437470869 -0.033781937890270286 -9.798467348553937E-4
label 1 2 3 4 5 6 7 8 9 10 11 12 13 14 15 16 17 18 19 20 21 22 23 24 25 26 27 28 29 30 31
nr_sv 17 9 11 16 12 17 14 17 19 21 25 14 9 7 14 12 6 11 14 21 8 11 16 13 13 17 18 17 18 18 17
SV
0.0 0.0 0.0 0.0 0.0 0.0 0.0 0.0 0.0 13.116301001798316 3.554681710120042 0.0 0.0 0.0 0.0 1.2544586087580032 0.0 1.065539518554128 4.070656218958425 0.0 0.3239254338940929 0.0 0.0 0.0 0.0 0.0 0.0 0.0 1.4576326481579962 0.0 1:0.08 2:-0.9 3:0.42 4:-0.48 5:0.92 6:0.58 7:0.56 8:0.58 9:-0.23 10:0.22 11:0.99 12:-0.2 13:-0.43 14:-0.88 
0.0 0.0 0.0 0.0 0.0 0.0 0.0 0.0 7.223821036519073 0.0 0.0 0.5618786277976571 0.0 0.0 0.0 0.0 0.19932603654669684 0.0 0.0 0.0 3.1924330966773207 0.0 0.0 0.0 0.0 0.0 0.0 0.0 0.0 0.0 1:0.09 2:-0.91 3:0.41 4:-0.48 5:0.93 6:0.58 7:0.56 8:0.58 9:-0.24 10:0.25 11:0.99 12:-0.21 13:-0.42 14:-0.88 
0.0 0.0 0.0 0.0 0.0 0.0 0.0 5.17878445057345 0.0 0.0 0.0 0.0 0.0 0.0 0.0 0.0 0.0 0.0 0.0 0.0 0.0 0.0 0.0 0.0 0.0 0.0 0.0 0.0 0.0 0.0 1:0.1 2:-0.91 3:0.41 4:-0.48 5:0.93 6:0.58 7:0.56 8:0.53 9:-0.24 10:0.26 11:0.99 12:-0.22 13:-0.42 14:-0.88 
0.0 1.5599302567365383 3.5152742850845082 0.0 0.0 2.30318945938406 0.0 1.1594680570123161 2.72913405592261 0.0 0.0 0.0 0.7373897210920118 0.0 0.0 0.0 0.7920726254813972 0.0 0.0 0.0 0.0 1.8662759024096713 0.0 0.0 0.0 0.0 2.5380023786753063 0.0 0.0 0.0 1:0.09 2:-0.91 3:0.41 4:-0.47 5:0.93 6:0.58 7:0.56 8:0.52 9:-0.24 10:0.26 11:0.99 12:-0.22 13:-0.42 14:-0.88 
0.0 0.0 0.0 0.0 0.0 0.0 0.0 0.0 0.0 0.0 0.0 0.0 0.0 2.2556369220968238 0.0 0.0 0.0 0.0 0.0 0.0 0.0 0.0 0.0 0.0 0.0 0.0 0.0 0.0 0.0 0.0 1:0.1 2:-0.92 3:0.38 4:-0.47 5:0.93 6:0.53 7:0.5 8:0.54 9:-0.21 10:0.19 11:0.99 12:-0.23 13:-0.4 14:-0.89 
0.0 0.0 0.0 0.0 0.0 0.0 0.0 0.0 0.0 0.0 0.0 0.0 0.0 0.0 0.1487009733319153 0.0 1.4269040520251148 0.0 0.0 0.0 0.0 0.0 0.0 0.0 0.1150286528575432 0.0 0.0 0.0 0.0 0.0 1:0.1 2:-0.92 3:0.38 4:-0.47 5:0.93 6:0.52 7:0.5 8:0.55 9:-0.2 10:0.19 11:0.99 12:-0.24 13:-0.4 14:-0.89 
0.0 0.0 0.0 0.0 0.0 0.0 0.0 0.0 0.0 0.0 0.0 0.0 0.0 0.0 0.0 0.0 0.0 0.0 0.0 0.0 0.0 0.14858868952462853 0.0 0.0 0.0 0.0 0.0 0.0 0.0 0.0 1:0.15 2:-0.93 3:0.33 4:-0.48 5:0.96 6:0.49 7:0.52 8:0.49 9:-0.24 10:0.24 11:0.99 12:-0.33 13:-0.36 14:-0.87 
0.0 0.0 0.0 0.18974413540153495 0.0 0.0 0.0 0.0 0.0 0.0 0.0 2.2442883010352714 0.0 2.0094896267321687 0.0 0.0 0.0 0.0 0.0 0.0 0.0 0.0 0.0 0.0 2.2662068377053806 0.0 0.0 0.0 0.0 0.0 1:0.16 2:-0.93 3:0.32 4:-0.48 5:0.96 6:0.49 7:0.52 8:0.49 9:-0.24 10:0.24 11:0.99 12:-0.33 13:-0.36 14:-0.87 
0.0 0.0 0.0 2.4121917852534263 2.6018023369195116 0.0 0.0 0.0 0.0 0.0 0.0 0.0 0.0 0.0 0.0 0.0 0.0 0.0 0.0 0.0 0.0 1.4588987522876156 2.9165028295617814 0.0 0.0 0.0 0.0 0.0 0.0 0.0 1:0.16 2:-0.93 3:0.32 4:-0.48 5:0.96 6:0.49 7:0.52 8:0.48 9:-0.24 10:0.24 11:0.99 12:-0.34 13:-0.36 14:-0.87 
0.0 0.0 0.0 0.0 0.0 0.0 0.0 0.0 0.0 0.0 0.0 0.0 0.0 0.0 2.030644632910789 0.0 0.0 0.0 0.0 0.0 0.0 0.0 0.0 0.0 0.0 0.0 0.0 0.0 0.0 0.0 1:0.16 2:-0.93 3:0.33 4:-0.48 5:0.96 6:0.47 7:0.52 8:0.48 9:-0.23 10:0.2 11:0.98 12:-0.33 13:-0.37 14:-0.87 
0.0 0.0 0.0 0.0 0.0 0.0 0.0 0.0 0.0 0.0 0.0 0.0 3.1468030691951356 0.0 0.0 0.0 0.0 0.0 0.0 0.0 0.0 0.0 0.0 0.0 0.0 0.0 0.0 0.0 0.0 0.0 1:0.14 2:-0.93 3:0.34 4:-0.51 5:0.95 6:0.48 7:0.52 8:0.48 9:-0.27 10:0.21 11:0.99 12:-0.29 13:-0.37 14:-0.88 
0.0 0.0 0.0 0.0 0.0 0.0 0.0 0.0 0.0 0.0 0.0 0.0 0.0 0.0 0.0 1.8394428692863671 0.0 0.0 0.0 1.6447291471848131 0.0 0.0 0.0 0.0 0.0 0.0 0.0 0.0 0.0 6.363527512257476 1:0.13 2:-0.89 3:0.44 4:-0.46 5:0.91 6:0.34 7:0.42 8:0.38 9:-0.15 10:-0.06 11:0.98 12:-0.25 13:-0.46 14:-0.85 
0.0 0.0 0.0 0.0 0.0 0.6961519065180699 0.0 0.0 0.0 0.0 0.0 0.0 0.0 0.0 0.0 0.0 0.0 0.0 0.0 0.0 0.0 0.0 0.0 0.0 0.0 0.0 0.0 0.0 0.0 0.0 1:0.2 2:-0.85 3:0.48 4:-0.5 5:0.92 6:0.36 7:0.38 8:0.36 9:-0.21 10:-0.01 11:0.98 12:-0.23 13:-0.52 14:-0.83 
0.0 0.0 0.0 0.0 0.0 0.0 0.0 0.0 0.0 0.0 0.0 0.0 0.8500083997063929 0.0 0.0 0.0 0.0 0.0 0.0 0.0 0.0 0.0 0.0 0.0 0.0 0.0 0.0 0.0 0.0 0.0 1:0.1 2:-0.89 3:0.45 4:-0.5 5:0.91 6:0.35 7:0.37 8:0.34 9:-0.16 10:-0.04 11:0.98 12:-0.34 13:-0.45 14:-0.83 
0.0 0.9237557583811071 0.0 0.0 0.0 0.0 0.0 0.0 0.0 0.0 0.0 0.0 0.0 0.0 0.0 0.0 0.0 1.9926075612192906 0.0 3.601802648531022 0.0 0.0 0.0 0.0 0.0 2.8981894711239398 0.0 5.006354808230868 1.5895680745020375 0.0 1:0.12 2:-0.9 3:0.42 4:-0.48 5:0.91 6:0.35 7:0.37 8:0.34 9:-0.11 10:-0.06 11:0.98 12:-0.37 13:-0.43 14:-0.82 
5.969744952095346 0.0 0.0 0.0 0.0 0.0 3.449782023091152 0.0 0.0 0.0 0.0 0.0 0.0 0.0 0.6486799301319878 0.0 0.0 0.0 0.0 0.0 0.0 0.0 0.0 0.0 0.0 0.0 0.0 0.0 0.0 0.0 1:0.13 2:-0.9 3:0.41 4:-0.49 5:0.91 6:0.35 7:0.37 8:0.33 9:-0.11 10:-0.06 11:0.98 12:-0.38 13:-0.42 14:-0.82 
0.0 0.0 0.0 0.0 0.0 0.0 0.0 0.0 0.0 0.0 0.0 0.0 0.0 0.0 0.0 0.0 0.0 0.0 0.0 0.0 0.0 0.0 0.0 2.8122210779265364 0.0 0.0 0.0 0.0 0.0 0.0 1:0.14 2:-0.91 3:0.4 4:-0.49 5:0.91 6:0.35 7:0.38 8:0.33 9:-0.11 10:-0.06 11:0.98 12:-0.39 13:-0.42 14:-0.82 
-0.0 0.0 0.0 0.08004916446494478 0.0 0.0 0.0 0.0 0.0 0.0 0.0 1.9127616567424266 0.0 0.36287363025442293 0.0 0.0 0.0 0.0 0.0 0.0 0.0 1.4126284569559533 0.0 0.0 0.0 0.0 0.0 0.0 0.0 0.0 1:-0.53 2:-0.19 3:0.83 4:-0.42 5:0.77 6:0.02 7:0.02 8:0.02 9:0.12 10:-0.62 11:0.99 12:-0.85 13:0.22 14:-0.49 
-5.969744952095346 0.0 0.0 1.9037957440155786 2.3720222328448393 0.0 4.174108572489147 0.0 0.0 0.0 0.0 0.0 3.739552035206659 2.5218893507868994 2.3597310675502317 0.0 1.7536781387920346 0.0 0.0 0.0 0.0 0.0 2.4266569911630924 1.5537615861976233 1.9453877990841593 0.0 1.898420000579544 0.0 0.0 0.0 1:-0.53 2:-0.2 3:0.83 4:-0.42 5:0.77 6:0.01 7:0.02 8:0.02 9:0.12 10:-0.62 11:0.99 12:-0.85 13:0.22 14:-0.49 
-0.0 0.0 0.0 0.0 0.0 0.0 0.0 1.6849458398537118 0.0 3.2558142814444793 0.0 0.0 0.0 0.0 0.0 0.0 0.0 0.0 0.0 0.0 0.0 0.0 0.0 0.0 0.0 0.0 0.0 0.0 0.0 0.0 1:-0.5 2:-0.16 3:0.85 4:-0.42 5:0.77 6:0.01 7:0.01 8:0.02 9:0.12 10:-0.62 11:0.99 12:-0.86 13:0.18 14:-0.48 
-0.0 0.0 0.0 0.0 0.0 0.0 0.0 0.0 0.0 0.0 0.0 0.0 0.0 0.0 0.0 0.25709915780783366 0.0 0.0 0.0 0.0 0.0 0.0 0.0 0.0 0.0 3.7253710668898594 0.0 0.0 0.0 0.0 1:-0.52 2:-0.12 3:0.84 4:-0.42 5:0.69 6:0.01 7:0.02 8:0.03 9:0.22 10:-0.72 11:0.99 12:-0.85 13:0.09 14:-0.51 
-0.0 0.0 0.0 0.0 0.0 0.0 0.0 0.0 0.0 0.0 0.0 0.0 0.0 0.0 0.0 0.0 0.0 0.0 0.0 0.0 0.0 0.0 0.0 1.6409760376096987 0.0 0.0 0.0 0.0 0.0 0.0 1:-0.49 2:-0.11 3:0.87 4:-0.42 5:0.62 6:0.03 7:0.02 8:0.05 9:0.28 10:-0.76 11:0.99 12:-0.87 13:0.07 14:-0.48 
-0.0 2.735542436675308 3.551720509847498 0.0 0.0 0.0 0.0 0.8735514046844913 0.0 0.09251061501935488 3.3903667875140293 0.0 0.0 0.0 0.0 0.0 0.0 0.0 3.9320335525446524 0.0 0.0 0.0 0.0 0.0 0.0 0.0 0.0 0.0 4.144052780047636 0.0 1:-0.41 2:0.02 3:0.91 4:-0.3 5:0.71 6:0.03 7:0.05 8:0.07 9:0.33 10:-0.68 11:0.99 12:-0.91 13:0.05 14:-0.41 
-0.0 0.0 0.0 0.0 0.0 0.0 0.0 0.0 0.0 0.0 0.0 0.0 0.0 0.0 0.0 3.1890444160019413 0.0 5.273267202252983 0.0 0.0 0.0 0.0 0.0 0.0 0.0 0.38794182708620045 0.0 8.893638008278357 0.0 0.0 1:-0.42 2:0.01 3:0.91 4:-0.3 5:0.71 6:0.03 7:0.05 8:0.07 9:0.34 10:-0.69 11:0.99 12:-0.91 13:0.05 14:-0.42 
-0.0 0.0 0.0 0.0 0.0 2.2026326630172908 0.0 0.0 3.5428382153612517 0.0 0.0 0.0 0.0 0.0 0.0 0.0 0.3681614307052196 0.0 0.0 4.963740926651663 2.270339240764698 0.0 0.0 0.0 0.0 0.0 0.11108080731915498 0.0 0.0 4.0374063017913295 1:-0.41 2:0.01 3:0.91 4:-0.29 5:0.7 6:0.03 7:0.03 8:0.07 9:0.35 10:-0.69 11:0.99 12:-0.91 13:0.04 14:-0.41 
-0.0 0.0 0.0 0.0 0.0 0.0 0.0 0.0 0.0 0.0 0.0 0.0 0.0 0.0 0.0 0.0 0.0 0.0 0.0 0.0 0.0 2.0575161337667445 0.0 0.0 0.0 0.0 0.0 0.0 0.0 0.0 1:-0.4 2:0.04 3:0.92 4:-0.31 5:0.72 6:0.04 7:0.0 8:0.05 9:0.27 10:-0.67 11:0.99 12:-0.92 13:0.06 14:-0.4 
-0.0 -0.0 0.0 0.0 0.0 0.0 0.0 0.0 0.0 0.0 0.0 0.0 0.0 0.0 0.0 0.0 0.0 0.0 2.2547513428453145 0.0 0.0 0.0 0.0 0.0 0.0 0.0 0.0 0.0 0.0 0.0 1:-0.36 2:0.27 3:0.89 4:0.5 5:0.46 6:0.37 7:0.42 8:0.38 9:0.41 10:0.95 11:-0.7 12:-0.92 13:0.06 14:-0.39 
-0.0 -0.0 0.0 0.0 0.0 0.0 0.0 0.0 0.0 0.0 0.0 0.0 0.0 0.0 3.765120690150193 0.0 0.0 0.0 0.0 0.0 0.0 0.0 0.0 0.0 3.002657260320988 0.0 0.0 0.0 0.0 0.0 1:-0.36 2:0.26 3:0.89 4:0.5 5:0.46 6:0.37 7:0.41 8:0.37 9:0.41 10:0.95 11:-0.71 12:-0.92 13:0.06 14:-0.39 
-0.0 -0.0 0.0 0.0 0.0 6.436739256004208 0.0 0.0 0.0 0.0 0.0 0.0 0.0 0.0 0.0 0.0 0.0 0.0 0.0 0.0 0.0 0.0 0.0 0.0 0.0 0.0 0.0 0.0 0.0 0.0 1:-0.38 2:0.27 3:0.88 4:0.5 5:0.5 6:0.41 7:0.42 8:0.38 9:0.39 10:0.96 11:-0.65 12:-0.92 13:0.0 14:-0.4 
-0.0 -0.0 0.0 0.0 0.0 0.0 0.0 0.0 0.0 0.0 0.0 0.0 0.6950381076780185 0.0 0.0 0.0 0.0 0.0 0.0 0.0 0.0 0.0 0.0 0.0 0.0 0.0 0.0 0.0 0.0 0.0 1:-0.39 2:0.26 3:0.89 4:0.5 5:0.5 6:0.41 7:0.39 8:0.37 9:0.38 10:0.96 11:-0.66 12:-0.92 13:0.02 14:-0.4 
-0.0 -0.0 0.0 0.0 0.0 0.0 0.0 5.609482467792784 0.0 0.0 0.0 0.0 0.0 0.0 0.0 0.0 0.0 0.0 0.0 0.0 0.0 0.0 0.0 0.0 0.0 0.0 4.925919766664515 0.0 0.0 0.0 1:-0.41 2:0.26 3:0.88 4:0.5 5:0.57 6:0.46 7:0.42 8:0.39 9:0.44 10:0.97 11:-0.6 12:-0.9 13:0.01 14:-0.43 
-0.0 -0.0 0.0 0.0 0.0 0.0 0.0 0.0 0.0 0.0 0.0 0.0 1.9500660836974069 0.0 0.0 0.0 0.0 0.0 0.0 0.0 0.0 0.0 2.236220006453858 0.0 0.0 0.0 0.0 0.0 0.0 0.0 1:-0.41 2:0.26 3:0.88 4:0.5 5:0.56 6:0.46 7:0.42 8:0.4 9:0.44 10:0.97 11:-0.59 12:-0.91 13:0.01 14:-0.42 
-0.0 -0.0 0.0 3.501570750562473 2.414584430195416 0.0 2.3438752553857687 0.0 0.0 0.0 0.0 2.1077303667048635 0.0 0.0 0.0 0.0 5.110853867468618 0.0 7.640761669572905 0.0 0.0 0.0 0.0 1.8543137383956982 0.2354815019633853 2.080432603382913 0.0 0.0 0.0 0.0 1:-0.41 2:0.26 3:0.87 4:0.5 5:0.56 6:0.46 7:0.43 8:0.41 9:0.45 10:0.97 11:-0.59 12:-0.91 13:0.01 14:-0.42 
-2.483686015117646 -1.5428078835409467 5.684093972808161 0.0 0.0 0.0 0.0 0.1737968258088089 4.070580252501383 4.312277494723132 4.715480077866113 0.05732152080219134 0.0 2.406915305285288 0.0 2.561427357896582 0.0 2.935771699749158 0.0 2.4724880481493052 6.592467229647291 3.3902354246174187 0.0 0.02842352435917965 0.0 0.046810587569716074 0.0 3.5805873159981414 2.110591444142659 2.679781780369977 1:-0.4 2:0.27 3:0.87 4:0.5 5:0.56 6:0.46 7:0.43 8:0.41 9:0.45 10:0.97 11:-0.58 12:-0.91 13:0.0 14:-0.42 
-0.0 -0.0 0.0 0.0 0.0 0.0 0.0 0.0 0.0 0.0 0.0 0.0 0.0 0.0 0.0 0.0 0.0 0.0 0.0 0.0 0.0 0.0 0.0 0.0 0.0 0.0 0.0 0.0 1.3036034430030814 0.0 1:-0.36 2:0.32 3:0.88 4:0.5 5:0.56 6:0.44 7:0.41 8:0.4 9:0.43 10:0.96 11:-0.6 12:-0.92 13:0.02 14:-0.39 
-0.0 -1.1927345531343618 0.0 0.0 0.0 0.0 0.0 0.0 0.0 0.0 0.0 0.0 0.0 0.0 0.0 0.0 0.0 0.0 0.0 0.0 0.0 1.1890812109027415 0.0 0.0 0.0 0.0 0.0 0.0 0.0 0.0 1:-0.36 2:0.35 3:0.86 4:0.5 5:0.57 6:0.46 7:0.36 8:0.37 9:0.42 10:0.97 11:-0.59 12:-0.93 13:-0.03 14:-0.37 
-0.0 -0.0 0.0 0.0 0.0 0.0 0.0 0.0 0.0 0.0 0.0 0.0 0.0 0.0 0.0 0.0 0.0 0.0 0.0 0.0 0.0 0.02024700931542612 0.0 0.0 0.0 0.0 0.0 0.0 0.0 0.0 1:-0.36 2:0.35 3:0.86 4:0.5 5:0.57 6:0.46 7:0.37 8:0.38 9:0.42 10:0.97 11:-0.59 12:-0.93 13:-0.03 14:-0.38 
-0.0 -0.0 -0.0 2.2317580858255264 0.6324230568605147 0.0 0.6914479354073895 3.4259815420050286 7.272008097798518 3.34155271938202 11.050940522594626 0.01229681711531873 0.0 3.3042972582827335 2.7850501308908773 2.6740029874355433 3.597652474453084 3.0879089383846097 0.0 3.286775234446889 4.689117234806402 0.0 2.159616970720004 0.1233822565975008 1.40083326128461 2.8091307545877386 3.103733210050265 7.198599295150328 0.0 4.202218857274693 1:-0.52 2:0.13 3:0.84 4:0.46 5:0.6 6:0.59 7:0.82 8:0.66 9:0.6 10:1.0 11:0.99 12:-0.84 13:0.09 14:-0.53 
-0.0 -0.0 -0.0 0.0 0.0 3.371582097118895 0.0 0.0 0.0 0.0 0.0 0.0 0.0 0.0 0.0 0.0 0.0 0.0 0.0 0.0 0.0 0.0 0.0 0.0 0.0 0.0 0.0 0.0 0.0 0.0 1:-0.5 2:0.16 3:0.85 4:0.46 5:0.6 6:0.59 7:0.82 8:0.67 9:0.61 10:1.0 11:0.99 12:-0.85 13:0.08 14:-0.52 
-0.0 -0.0 -0.0 0.0 0.0 0.0 0.0 0.0 0.0 0.0 29.22446021130544 0.0 0.0 0.0 0.0 1.3064758878464056 0.0 0.0 0.0 0.0 0.0 0.0 0.0 0.0 0.0 0.0 0.0 0.0 0.0 0.0 1:-0.52 2:0.21 3:0.83 4:0.46 5:0.59 6:0.64 7:0.82 8:0.68 9:0.57 10:1.0 11:0.99 12:-0.84 13:0.04 14:-0.54 
-0.0 -0.0 -0.0 0.0 0.0 0.0 0.0 0.0 0.0 2.1732544443774087 0.0 1.49146442172823 0.0 0.0 0.0 0.0 0.0 0.0 27.98817175222429 0.0 0.0 0.0 0.0 0.0 0.0 0.0 0.0 0.0 0.0 0.0 1:-0.52 2:0.19 3:0.83 4:0.46 5:0.64 6:0.64 7:0.82 8:0.7 9:0.58 10:1.0 11:0.99 12:-0.84 13:0.06 14:-0.54 
-3.5152742850845082 -0.0 -0.0 0.0 0.0 0.0 0.0 0.0 0.0 0.0 0.0 0.0 3.4054794998320057 0.0 0.0 0.0 0.0 0.0 0.0 0.0 0.0 0.0 0.0 0.0 0.0 0.0 0.0 0.37593979876207767 0.0 0.0 1:-0.51 2:0.16 3:0.85 4:0.46 5:0.62 6:0.59 7:0.82 8:0.66 9:0.56 10:0.99 11:0.99 12:-0.85 13:0.07 14:-0.52 
-0.0 -0.0 -2.6244425722524127 0.0 0.0 0.0 0.0 0.0 0.0 0.0 0.0 0.0 0.0 0.0 0.0 0.0 0.0 0.0 0.0 0.0 0.0 0.0 0.0 0.0 0.0 0.0 0.0 0.0 0.0 0.0 1:-0.45 2:0.24 3:0.86 4:0.46 5:0.62 6:0.57 7:0.82 8:0.64 9:0.57 10:0.99 11:0.99 12:-0.87 13:0.09 14:-0.48 
-0.0 -0.0 -0.9671900989678839 0.0 0.0 0.0 0.0 0.0 0.0 0.0 0.0 0.0 0.0 0.0 0.0 0.0 0.0 0.0 0.0 0.0 0.0 0.0 0.0 0.0 0.0 0.0 0.0 0.0 0.0 0.0 1:-0.42 2:0.28 3:0.86 4:0.46 5:0.61 6:0.56 7:0.83 8:0.64 9:0.57 10:0.99 11:0.99 12:-0.89 13:0.09 14:-0.46 
-0.0 -0.0 -0.0 0.0 0.0 0.0 0.0 0.0 0.0 0.0 0.0 0.0 0.0 0.0 0.0 0.0 0.0 0.0 0.0 0.0 0.0 11.41531634450582 0.0 0.0 0.0 0.0 0.0 0.0 0.0 0.0 1:-0.39 2:0.3 3:0.87 4:0.46 5:0.6 6:0.55 7:0.83 8:0.62 9:0.56 10:0.99 11:1.0 12:-0.89 13:0.11 14:-0.44 
-0.0 -3.551720509847498 -0.0 0.0 0.0 0.0 0.0 0.0 0.0 0.0 0.0 0.0 0.0 0.0 0.0 0.0 0.0 0.0 0.0 0.0 0.0 0.0 0.0 0.0 0.0 0.0 0.0 0.0 0.0 0.0 1:-0.37 2:0.25 3:0.89 4:0.45 5:0.6 6:0.54 7:0.78 8:0.61 9:0.65 10:0.99 11:1.0 12:-0.88 13:0.2 14:-0.43 
-0.0 -0.0 -0.0 0.0 2.7497697575730133 0.0 2.314523410579952 0.0 0.0 0.0 0.0 0.0 0.0 0.0 0.0 0.0 0.0 0.0 0.0 0.0 0.0 0.0 0.5329817300221565 2.1879532681021394 0.0 0.0 0.0 0.0 0.0 0.0 1:-0.39 2:0.26 3:0.88 4:0.46 5:0.61 6:0.56 7:0.74 8:0.64 9:0.67 10:0.99 11:0.99 12:-0.85 13:0.27 14:-0.45 
-0.0 -0.0 -2.0924613015878637 0.0 0.0 0.0 0.0 0.0 0.0 0.0 0.0 0.0 0.0 0.0 0.0 0.0 0.0 0.0 0.0 0.0 0.0 0.0 0.0 0.0 0.0 0.0 0.0 0.0 0.0 0.0 1:-0.36 2:0.31 3:0.88 4:0.46 5:0.62 6:0.56 7:0.73 8:0.64 9:0.67 10:0.99 11:0.99 12:-0.87 13:0.24 14:-0.44 
-0.0 -0.0 -0.0 0.0 0.0 0.0 0.0 0.0 0.0 0.0 0.0 0.0 0.0 0.0 0.0 0.0 0.0 0.0 0.0 0.0 0.0 0.0 0.0 0.0 0.0 0.0 0.0 0.0 7.794380053482591 0.0 1:-0.38 2:0.28 3:0.88 4:0.46 5:0.64 6:0.57 7:0.75 8:0.65 9:0.69 10:0.99 11:0.99 12:-0.85 13:0.27 14:-0.45 
-0.0 -0.0 -0.0 0.0 0.0 0.0 0.0 0.0 0.0 0.0 0.0 0.0 0.0 0.0 0.0 0.0 0.0 0.0 0.0 0.0 0.0 0.0 0.0 0.0 1.2484232549227678 0.0 0.0 0.0 0.0 0.0 1:-0.38 2:0.26 3:0.89 4:0.46 5:0.63 6:0.58 7:0.75 8:0.66 9:0.69 10:1.0 11:0.99 12:-0.84 13:0.31 14:-0.45 
-0.0 -0.0 -0.0 0.8670791679717162 0.0 0.0 0.0 0.0 0.0 0.0 0.0 1.7739105051825712 0.0 0.0 0.0 0.0 0.0 0.0 0.0 0.0 0.0 0.0 0.0 0.0 0.0 0.0 0.0 0.0 0.0 0.0 1:-0.38 2:0.26 3:0.89 4:0.46 5:0.64 6:0.58 7:0.75 8:0.66 9:0.69 10:1.0 11:0.99 12:-0.84 13:0.31 14:-0.45 
-0.0 -0.0 -0.0 0.0 0.0 0.0 0.0 0.0 0.0 0.0 0.0 0.0 0.0 0.0 0.0 0.0 0.0 2.6678286116852323 0.0 0.0 0.0 0.0 0.0 0.0 0.0 0.0 0.0 0.0 0.0 0.0 1:-0.41 2:0.26 3:0.88 4:0.46 5:0.62 6:0.58 7:0.8 8:0.66 9:0.7 10:1.0 11:0.99 12:-0.84 13:0.27 14:-0.47 
-0.0 -0.0 -0.0 0.0 0.0 0.0 0.0 0.0 0.0 0.0 0.0 0.056588857675382076 0.0 0.0 0.0 0.0 0.0 0.0 0.0 0.0 0.0 0.0 0.0 0.0 0.0 0.0 0.0 0.0 0.0 0.0 1:-0.41 2:0.26 3:0.87 4:0.46 5:0.63 6:0.58 7:0.83 8:0.66 9:0.7 10:1.0 11:0.99 12:-0.84 13:0.26 14:-0.47 
-0.0 -0.0 -0.0 -0.0 0.0 0.0 0.0 0.0 0.0 0.0 0.0 0.0 0.0 0.0 0.0 0.0 0.0 0.0 0.0 0.0 0.0 0.0 3.5531451717599647 0.0 0.0 0.0 0.0 0.0 0.0 0.0 1:-0.3 2:-0.64 3:-0.7 4:0.53 5:0.67 6:0.63 7:0.58 8:0.6 9:0.81 10:0.99 11:-0.2 12:-0.12 13:0.76 14:-0.64 
-0.0 -0.0 -0.0 -0.0 0.0 0.0 0.0 0.0 0.0 0.0 0.0 7.5252037479759775 0.0 0.0 0.0 0.0 0.0 0.0 0.0 0.0 0.0 0.0 0.0 0.0 0.0 0.0 0.0 0.0 0.0 0.0 1:-0.32 2:-0.63 3:-0.71 4:0.54 5:0.67 6:0.63 7:0.6 8:0.62 9:0.83 10:0.99 11:-0.18 12:-0.11 13:0.76 14:-0.64 
-0.0 -0.0 -0.0 -0.0 0.0 0.0 0.0 0.0 0.0 0.0 0.0 0.0 0.0 0.0 0.0 0.0 0.0 0.0 0.0 0.0 0.0 0.0 0.0 0.0 0.0 0.0 0.0 0.0 2.844989977292263 0.0 1:-0.32 2:-0.63 3:-0.7 4:0.55 5:0.67 6:0.63 7:0.6 8:0.62 9:0.83 10:0.99 11:-0.18 12:-0.1 13:0.76 14:-0.64 
-0.0 -0.0 -0.0 -0.0 0.0 0.0 0.0 0.0 0.0 0.0 1.4646093341756896 0.0 0.0 0.0 0.0 3.1857509878796053 1.223796700545534 2.947275074879885 0.0 0.0 0.0 0.0 0.0 0.0 0.0 0.0 0.0 0.0 0.0 0.0 1:-0.33 2:-0.63 3:-0.7 4:0.55 5:0.67 6:0.63 7:0.6 8:0.62 9:0.83 10:0.99 11:-0.18 12:-0.1 13:0.76 14:-0.64 
-0.0 -0.0 -0.0 -0.0 0.0 0.0 0.0 0.0 0.0 0.0 0.0 0.0 0.0 0.0 0.0 0.0 0.0 0.0 0.0 0.0 0.0 0.0 0.0 3.345133498557446 0.0 0.0 0.0 0.0 0.0 0.0 1:-0.33 2:-0.62 3:-0.71 4:0.55 5:0.67 6:0.63 7:0.59 8:0.61 9:0.84 10:0.99 11:-0.18 12:-0.09 13:0.77 14:-0.63 
-0.0 -0.0 -0.0 -0.0 6.652361890921444 0.0 4.658391287752473 0.0 0.0 0.0 0.0 0.0 0.0 0.0 0.0 0.0 0.0 0.0 0.0 0.0 0.0 0.0 0.0 0.0 0.0 2.7957096898580214 0.0 0.0 0.0 0.0 1:-0.34 2:-0.62 3:-0.71 4:0.55 5:0.67 6:0.63 7:0.59 8:0.61 9:0.84 10:0.99 11:-0.18 12:-0.09 13:0.77 14:-0.63 
-0.0 -0.0 -0.0 -0.0 0.0 0.0 0.0 0.0 0.0 0.0 0.0 0.0 0.0 0.0 0.0 0.0 8.733608670078194 0.0 0.0 0.0 0.0 0.0 0.0 0.0 0.0 0.0 0.0 0.0 0.0 0.0 1:-0.32 2:-0.65 3:-0.69 4:0.54 5:0.67 6:0.63 7:0.57 8:0.58 9:0.82 10:0.99 11:-0.23 12:-0.1 13:0.75 14:-0.66 
-0.0 -0.0 -0.0 -0.0 0.0 0.0 0.0 0.0 0.0 0.0 0.0 0.0 0.0 0.0 22.011806319382142 0.0 0.0 0.0 0.0 0.0 0.0 0.0 0.0 0.0 0.0 0.0 0.0 0.0 0.0 0.0 1:-0.29 2:-0.68 3:-0.67 4:0.53 5:0.67 6:0.63 7:0.52 8:0.52 9:0.79 10:0.99 11:-0.3 12:-0.13 13:0.73 14:-0.68 
-0.0 -1.3766754260593186 -3.501570750562473 -0.0 0.0 3.059454079724714 0.0 3.3845925874708476 0.0 0.0 0.0 0.0 0.9524696791940142 0.0 0.0 0.0 0.0 0.0 0.0 0.0 1.8584285784014858 0.0 0.0 0.0 0.0 0.0 11.115778745838663 0.0 0.0 0.0 1:-0.29 2:-0.68 3:-0.67 4:0.53 5:0.67 6:0.63 7:0.51 8:0.51 9:0.79 10:0.99 11:-0.3 12:-0.13 13:0.72 14:-0.68 
-0.0 -0.0 -0.0 -0.0 0.0 0.0 0.0 0.0 0.0 0.0 0.0 0.0 0.0 0.0 0.0 0.0 0.0 0.0 0.0 0.0 0.0 0.0 0.0 0.0 30.643548091766483 0.0 0.0 0.0 0.0 0.0 1:-0.29 2:-0.67 3:-0.68 4:0.53 5:0.67 6:0.63 7:0.51 8:0.52 9:0.8 10:0.99 11:-0.3 12:-0.12 13:0.73 14:-0.67 
-2.6019359206549613 -0.6071694824212048 -0.0 -0.0 0.0 0.0 0.0 0.0 0.0 0.0 0.0 0.0 1.4511095900043423 0.0 0.0 0.0 0.0 0.0 0.0 0.0 0.0 0.0 0.0 0.0 0.0 0.0 0.0 0.0 0.0 0.0 1:-0.3 2:-0.66 3:-0.69 4:0.53 5:0.67 6:0.63 7:0.61 8:0.6 9:0.8 10:0.99 11:-0.19 12:-0.11 13:0.74 14:-0.66 
-0.0 -0.0 -0.0 -3.0988372537972424 0.0 0.0 0.0 0.0 2.8465697934960312 3.2980885135917846 1.9719342320613653 0.0 0.0 5.804384562465627 0.0 0.0 0.0 0.0 5.589753245696402 2.1551362090978023 1.46312032971706 2.4997569603355254 0.0 0.0 0.0 0.0 0.0 2.8851509744000112 0.0 2.521254031595143 1:-0.3 2:-0.66 3:-0.68 4:0.54 5:0.67 6:0.63 7:0.61 8:0.61 9:0.8 10:0.99 11:-0.19 12:-0.1 13:0.74 14:-0.67 
-0.0 -2.3720222328448393 -0.0 -0.0 -0.0 0.0 7.984293791250484 0.0 0.0 0.0 0.0 0.0 3.62891503806734 2.886133427844288 0.0 0.0 0.0 0.0 0.0 0.0 0.0 3.098566463801013 8.859905783093454 0.0 0.0 0.0 0.0 0.0 0.0 0.0 1:-0.48 2:-0.45 3:-0.76 4:0.49 5:0.03 6:0.21 7:0.14 8:0.21 9:0.57 10:0.94 11:1.0 12:-0.13 13:0.89 14:-0.45 
-2.5090322202428452 -0.0 -0.0 -0.0 -0.0 0.0 0.0 0.3596449475841262 0.0 0.0 0.0 0.0 0.0 0.0 0.0 0.0 0.0 0.0 0.0 0.0 0.0 0.0 0.0 0.0 0.0 0.0 0.0 0.0 0.0 0.0 1:-0.46 2:-0.46 3:-0.76 4:0.49 5:0.03 6:0.22 7:0.17 8:0.24 9:0.61 10:0.94 11:1.0 12:-0.13 13:0.88 14:-0.46 
-0.09277011667666621 -0.0 -0.0 -0.0 -0.0 0.0 0.0 0.0 0.9341089146937889 0.0 0.0 0.0 0.0 0.0 0.0 0.0 0.0 0.0 0.0 0.0 0.0 0.0 0.0 0.0 0.0 0.0 0.0 0.0 0.0 0.0 1:-0.45 2:-0.46 3:-0.76 4:0.49 5:0.03 6:0.22 7:0.19 8:0.27 9:0.63 10:0.94 11:1.0 12:-0.12 13:0.88 14:-0.46 
-0.0 -0.0 -0.0 -0.0 -0.0 0.0 0.0 1.926089012375783 0.0 0.0 0.0 0.0 0.0 7.7092365435320405 0.0 0.0 0.0 0.0 0.0 0.0 0.0 0.0 0.0 0.0 0.0 0.0 0.0 0.0 0.0 0.0 1:-0.44 2:-0.46 3:-0.77 4:0.49 5:0.03 6:0.22 7:0.22 8:0.31 9:0.65 10:0.94 11:0.99 12:-0.11 13:0.88 14:-0.46 
-0.0 -0.0 -0.0 -0.0 -0.0 2.127153294037796 0.0 0.0 0.5128302384509695 2.490134121902007 0.0 6.255422013071857 0.0 0.0 0.0 0.0 0.0 0.0 0.0 0.0 2.4114134262413365 0.0 0.0 0.0 0.0 0.0 0.0 0.0 0.0 0.0 1:-0.44 2:-0.45 3:-0.77 4:0.49 5:0.03 6:0.22 7:0.23 8:0.32 9:0.66 10:0.94 11:0.99 12:-0.11 13:0.88 14:-0.45 
-0.0 -0.0 -0.0 -0.0 -0.0 0.0 0.0 0.0 0.0 0.0 0.0 0.0 0.0 0.0 0.0 0.0 0.0 0.0 0.0 0.0 0.0 0.0 0.0 0.0 6.802476567583417 0.0 0.0 0.0 0.0 0.0 1:-0.45 2:-0.45 3:-0.77 4:0.49 5:0.03 6:0.22 7:0.23 8:0.32 9:0.66 10:0.94 11:0.99 12:-0.1 13:0.88 14:-0.46 
-0.0 -0.0 -0.0 -0.0 -6.449005196961776 0.0 0.0 0.0 0.0 0.0 0.0 0.0 0.0 0.0 5.35866153902484 0.0 0.0 0.0 0.0 0.0 0.0 0.0 0.0 0.0 0.4628787473015408 0.0 0.0 0.0 0.0 0.0 1:-0.45 2:-0.45 3:-0.77 4:0.49 5:0.03 6:0.22 7:0.23 8:0.32 9:0.67 10:0.94 11:0.99 12:-0.1 13:0.88 14:-0.46 
-0.0 -0.0 -0.0 -0.0 -0.0 0.0 0.0 0.0 0.0 0.0 0.0 0.0 0.0 0.0 0.0 0.0 0.0 0.0 0.0 2.268905294675302 0.0 0.0 0.0 1.8450719284305759 0.0 0.0 0.0 0.0 0.0 2.4279875251722722 1:-0.45 2:-0.45 3:-0.77 4:0.49 5:0.03 6:0.22 7:0.23 8:0.32 9:0.68 10:0.93 11:0.99 12:-0.11 13:0.88 14:-0.45 
-0.0 -0.0 -0.0 -0.0 -0.0 0.0 0.0 0.0 0.0 0.0 0.0 0.0 0.0 0.0 0.0 0.0 0.0 0.0 0.0 0.0 0.0 0.0 0.0 0.0 0.0 0.0 0.0 0.0 2.094581616152537 0.0 1:-0.47 2:-0.44 3:-0.76 4:0.48 5:0.03 6:0.22 7:0.24 8:0.32 9:0.7 10:0.93 11:0.99 12:-0.11 13:0.89 14:-0.44 
-0.0 -0.0 -0.0 -2.41885693180336 -0.2033566939596677 0.0 0.0 0.0 0.0 0.0 3.84417817400107 0.0 0.0 0.0 0.0 3.4681095955653753 4.785598150706892 0.9906789893002969 4.5676264812569665 0.0 0.0 0.0 0.0 0.0 0.0 0.49897481013414446 3.645565542470684 3.190913406368442 0.0 0.0 1:-0.48 2:-0.44 3:-0.76 4:0.48 5:0.03 6:0.22 7:0.24 8:0.32 9:0.71 10:0.93 11:0.99 12:-0.12 13:0.89 14:-0.44 
-0.0 -0.0 -0.05013063284863761 -0.0 -0.0 0.0 0.0 0.0 0.0 0.0 0.0 0.0 0.0 0.0 0.0 0.0 0.0 0.0 0.0 0.0 0.0 0.0 0.0 0.0 0.0 0.0 0.0 0.0 0.03290087737944955 0.0 1:-0.48 2:-0.43 3:-0.76 4:0.48 5:0.03 6:0.22 7:0.22 8:0.32 9:0.7 10:0.93 11:0.99 12:-0.12 13:0.89 14:-0.43 
-0.0 -0.0 -2.364453797346778 -0.0 -0.0 0.0 0.0 0.0 0.0 0.0 0.0 0.0 0.0 0.0 0.0 0.0 0.0 0.0 0.0 0.0 0.0 0.0 0.0 0.0 0.0 0.0 0.0 0.0 0.0 0.0 1:-0.48 2:-0.44 3:-0.76 4:0.47 5:0.03 6:0.22 7:0.2 8:0.29 9:0.7 10:0.93 11:0.99 12:-0.14 13:0.89 14:-0.43 
-0.0 -0.0 -0.0 -0.0 -0.0 0.0 0.0 0.0 0.0 0.0 0.0 0.0 0.0 0.0 0.0 0.0 0.0 0.0 0.0 0.0 0.0 0.0 0.0 0.0 0.0 1.4274642290161128 0.0 0.0 0.0 0.0 1:-0.49 2:-0.44 3:-0.76 4:0.46 5:0.03 6:0.22 7:0.21 8:0.29 9:0.77 10:0.93 11:0.99 12:-0.13 13:0.89 14:-0.43 
-0.0 -0.0 -0.0 -0.0 -0.0 0.0 0.0 0.0 1.503972684061799 0.0 0.0 0.0 0.0 0.0 0.0 0.0 0.0 0.0 0.0 0.0 0.0 0.0 0.0 0.0 0.0 0.0 0.0 0.0 0.0 0.0 1:-0.49 2:-0.43 3:-0.76 4:0.45 5:0.03 6:0.22 7:0.21 8:0.3 9:0.77 10:0.93 11:0.99 12:-0.13 13:0.89 14:-0.43 
-0.0 -0.0 -0.0 -0.0 -0.0 0.0 0.0 0.0 0.0 0.0 0.0 0.0 0.0 0.0 0.0 0.0 0.0 0.0 0.0 0.0 0.0 0.0 0.0 3.1972682352538553 0.0 0.0 0.0 0.0 0.0 0.0 1:-0.49 2:-0.43 3:-0.76 4:0.45 5:0.03 6:0.22 7:0.21 8:0.3 9:0.78 10:0.93 11:0.99 12:-0.13 13:0.9 14:-0.43 
-0.0 -0.0 -0.0 -0.9633358826301683 -0.0 0.0 0.0 0.0 0.0 0.0 0.0 0.0 0.0 0.0 0.0 0.0 0.0 2.409402867483886 0.0 0.0 0.0 0.0 0.0 0.0 0.0 0.0 0.0 0.0 0.9698509336419622 0.0 1:-0.51 2:-0.41 3:-0.75 4:0.44 5:0.03 6:0.22 7:0.21 8:0.3 9:0.78 10:0.93 11:0.99 12:-0.13 13:0.91 14:-0.4 
-0.0 -0.0 -0.0 -0.0 -0.0 0.0 0.0 0.0 0.0 0.0 0.0 0.0 0.0 0.0 0.0 0.0 0.0 0.0 0.0 0.0 0.0 0.0 0.0 0.0 0.0 1.684766776279285 0.0 0.0 0.0 0.0 1:-0.52 2:-0.41 3:-0.75 4:0.44 5:0.03 6:0.22 7:0.2 8:0.29 9:0.78 10:0.93 11:0.99 12:-0.13 13:0.91 14:-0.4 
-0.0 -0.0 -0.0 -0.0 -0.0 -0.0 0.0 0.0 0.0 0.0 0.0 0.0 0.8139376887643525 0.4269524661683306 0.0 0.0 0.0 0.0 0.0 0.0 0.0 1.1658890912107434 0.8038462447095087 0.0 0.0 0.0 0.0 0.0 0.0 0.0 1:-0.05 2:-0.09 3:0.99 4:0.53 5:0.12 6:-0.02 7:0.57 8:0.54 9:0.28 10:0.86 11:-0.83 12:0.1 13:-0.99 14:-0.09 
-0.0 -0.0 -0.0 -0.0 -0.0 -0.0 0.0 0.0 0.6089777421392637 0.0 0.0 0.0 0.0 0.0 0.0 0.0 0.0 0.0 0.0 0.0 0.0 0.0 0.0 0.11261531785042933 0.0 0.0 0.0 0.0 0.15943753216195847 0.0 1:-0.07 2:-0.09 3:0.99 4:0.54 5:0.12 6:-0.02 7:0.57 8:0.54 9:0.3 10:0.86 11:-0.83 12:0.09 13:-0.99 14:-0.08 
-0.0 -0.6360654004286898 -2.0162784072070754 -0.19238839761987703 -0.0 -0.4859666429290326 0.40159640738613794 0.0 0.0 0.0 0.3768612172395001 0.0 0.0 0.0 0.7686257074729269 0.31196038231774276 0.7568316322751171 0.2990886839373839 2.8897363182589677 0.0 0.0 0.0 0.0 0.21178502246435976 0.6617655848820206 0.4432596023210373 0.0 0.2215218247311589 0.0 0.0 1:-0.08 2:-0.1 3:0.99 4:0.54 5:0.13 6:-0.02 7:0.57 8:0.53 9:0.31 10:0.86 11:-0.83 12:0.08 13:-0.99 14:-0.09 
-0.0 -0.0 -0.0 -0.0 -0.0 -0.0 0.0 0.0 0.0 0.0 0.0 0.0 0.0 0.0 0.0 0.26912258487827817 0.0 0.0 0.0 0.0 0.0 0.0 0.0 0.0 0.0 0.0 0.0 0.2444780333576411 0.0 0.0 1:0.04 2:-0.31 3:0.95 4:0.53 5:0.43 6:0.29 7:0.56 8:0.52 9:0.48 10:0.86 11:-0.66 12:0.05 13:-0.95 14:-0.32 
-0.0 -0.0 -0.0 -0.0 -0.0 -0.0 0.0 3.653640746930659 0.0 0.0 0.0 0.0 0.6380856580047709 0.0 0.0 0.0 0.06603494375930008 0.0 0.0 0.0 0.0 0.0 0.0 0.0 0.0 0.0 1.4360424566673478 0.0 0.0 0.0 1:0.04 2:-0.32 3:0.95 4:0.53 5:0.43 6:0.3 7:0.56 8:0.52 9:0.49 10:0.87 11:-0.65 12:0.05 13:-0.95 14:-0.32 
-0.0 -0.0 -3.662153244104053 -0.0 -0.0 -0.0 0.0 0.0 0.0 0.0 0.0 0.0 0.0 0.0 0.0 0.0 0.7042083255511706 0.0 0.0 0.0 0.0 0.0 0.0 0.0 0.0 0.0 0.0 0.0 0.0 0.0 1:0.09 2:-0.33 3:0.94 4:0.58 5:0.46 6:0.37 7:0.56 8:0.5 9:0.69 10:0.89 11:-0.62 12:-0.02 13:-0.94 14:-0.33 
-0.0 -0.0 -0.0 -0.0 -0.0 -0.0 0.0 0.0 0.0 0.0 0.0 0.0 0.0 0.0 0.0 0.0 0.0 0.0 0.0 0.0 17.511349295856004 0.0 0.0 0.0 0.0 0.0 0.0 0.0 0.0 0.0 1:0.1 2:-0.34 3:0.94 4:0.59 5:0.47 6:0.38 7:0.56 8:0.5 9:0.71 10:0.89 11:-0.61 12:-0.03 13:-0.94 14:-0.33 
-0.0 -0.0 -0.0 -0.0 -0.0 -0.0 0.0 0.0 0.0 0.0 0.0 0.0 0.0 0.0 0.0 0.0 2.0535491621992787 0.0 0.0 0.0 0.0 0.0 0.0 0.0 0.0 0.0 2.393822184193776 0.0 0.0 0.0 1:0.11 2:-0.35 3:0.93 4:0.59 5:0.49 6:0.39 7:0.56 8:0.49 9:0.71 10:0.89 11:-0.6 12:-0.03 13:-0.94 14:-0.35 
-0.0 -0.0 -0.7583076046930792 -0.0 -0.0 -0.0 0.0 0.0 0.0 0.0 0.0 0.0 0.0 0.0 2.2544620563578914 0.0 0.0 0.0 0.0 0.0 0.0 0.0 0.0 0.0 0.0 0.0 0.0 0.0 0.0 0.0 1:0.3 2:-0.41 3:0.86 4:0.58 5:0.53 6:0.48 7:0.56 8:0.48 9:0.68 10:0.9 11:-0.53 12:-0.07 13:-0.91 14:-0.41 
-2.8464187258811227 -1.5665672625886007 -0.0 -0.0 -0.0 -0.0 0.7630729450265841 17.4303628745106 0.0 8.520690759344035 0.0 0.0 0.7779659999237748 0.44581739644906077 0.0 0.0 0.0 0.0 0.0 0.0 0.0 1.6883642269430688 0.0 0.0 0.0 0.0 0.0 0.0 0.0 0.0 1:0.31 2:-0.42 3:0.86 4:0.57 5:0.55 6:0.51 7:0.56 8:0.48 9:0.69 10:0.9 11:-0.5 12:-0.06 13:-0.91 14:-0.42 
-0.0 -0.0 -0.0 -3.179193699499018 -2.3808175418227684 -0.25704880580082023 0.0 0.0 6.6195028686629955 0.0 2.8407451868793006 0.6527332183170671 0.0 0.0 0.0 1.7411213584095373 0.0 2.0021816671472163 1.590833148818145 2.82937170207582 79.98218630031131 0.0 0.0 0.0 0.12714788011513603 1.5122368392005907 0.1524359022204989 2.352576167864103 0.747651714570457 2.5582647358034767 1:0.33 2:-0.42 3:0.85 4:0.58 5:0.56 6:0.53 7:0.56 8:0.49 9:0.79 10:0.91 11:-0.47 12:-0.06 13:-0.91 14:-0.42 
-0.0 -0.0 -0.0 -0.0 -0.0 -0.0 0.0 0.0 0.0 0.0 0.0 1.4285720126558266 0.0 0.0 0.0 0.0 0.0 0.0 0.0 0.0 0.0 0.0 0.0 0.0 0.0 0.0 0.0 0.0 1.711635169101178 0.0 1:0.67 2:-0.32 3:0.67 4:0.58 5:0.49 6:0.57 7:0.56 8:0.49 9:0.76 10:0.89 11:-0.43 12:-0.07 13:-0.92 14:-0.38 
-0.1529226400210068 -0.0 -0.0 -0.0 -0.6786365379019458 -1.3841378453079434 0.8127334152726685 0.0 0.0 0.0 0.0 0.0 0.0 1.5339726770812214 0.4141551052988686 0.0 0.0 0.0 0.0 0.8281603937867321 0.0 0.0 1.083642644763079 1.504010924822985 2.212968365315408 0.0 0.0 0.0 0.0 1.6822825051769963 1:0.67 2:-0.33 3:0.67 4:0.58 5:0.49 6:0.57 7:0.56 8:0.49 9:0.76 10:0.89 11:-0.43 12:-0.08 13:-0.92 14:-0.38 
-0.0 -0.0 -0.0 -0.0 -0.0 -0.0 0.0 0.0 0.0 0.0 0.0 0.0 0.0 0.0 0.0 0.0 0.0 0.0 0.0 0.0 0.0 0.07883379643264891 0.0 0.0 0.0 0.0 0.0 0.0 0.0 0.0 1:0.58 2:-0.31 3:0.75 4:0.59 5:0.47 6:0.57 7:0.54 8:0.49 9:0.72 10:0.89 11:-0.43 12:-0.05 13:-0.94 14:-0.35 
-0.0 -0.0 -0.0 -0.3585270478063456 -0.0 -1.9923421090784914 -0.8051557457894241 0.9515006911102347 1.375848510453996 0.0 0.0 0.0 0.0 0.0 1.0489657133856414 0.0 4.1702249528169366E-4 0.0 0.0 0.0 0.5280372342174847 0.0 0.0 0.0 0.15280528550674866 0.0 0.38572651062512114 0.0 0.3626830739966049 0.4265437564358062 1:-0.52 2:-0.61 3:-0.6 4:0.39 5:1.0 6:-0.1 7:-0.23 8:-0.26 9:0.43 10:-0.06 11:0.97 12:-0.37 13:0.79 14:-0.48 
-1.22537567247583 -0.0 -0.0 -0.0 -0.0 -0.0 -0.0 0.0 0.0 0.0 0.0 0.0 1.4941195678859471 0.0 0.0 0.0 0.0 0.0 0.0 0.0 0.0 0.0 0.0 0.0 0.0 0.0 0.0 0.17825651243391374 0.0 0.0 1:-0.52 2:-0.62 3:-0.59 4:0.38 5:1.0 6:-0.12 7:-0.25 8:-0.27 9:0.41 10:-0.09 11:0.98 12:-0.4 13:0.79 14:-0.47 
-0.0 -0.0 -0.7405449675587584 -0.07222743018822236 -0.0 -0.0 -0.0 0.0 0.0 0.2386669502944444 0.0 0.0 0.0 0.0 0.0 0.0 0.0 0.0 0.0 0.0 0.0 0.24450709614698554 0.22930289533284018 0.0 0.0 0.0 0.0 0.0 0.0 0.0 1:-0.52 2:-0.62 3:-0.59 4:0.38 5:1.0 6:-0.13 7:-0.26 8:-0.28 9:0.43 10:-0.08 11:0.97 12:-0.4 13:0.79 14:-0.47 
-0.0 -0.0 -0.0 -0.0 -0.0 -0.0 -0.0 0.0 0.0 0.0 0.0 0.0 0.0 0.0 0.0 0.0 0.0 0.029289838773981683 0.0 0.16232806319610754 0.0 0.0 0.0 0.0 0.0 0.0 0.0 0.0 0.0 0.0 1:-0.52 2:-0.61 3:-0.59 4:0.44 5:1.0 6:-0.13 7:-0.26 8:-0.29 9:0.41 10:-0.17 11:0.97 12:-0.36 13:0.79 14:-0.5 
-0.0 -3.7949245808704544 -0.0 -0.0 -0.0 -0.0 -0.0 0.0 0.0 0.0 0.0 0.0 0.0 0.0 0.0 0.0 0.0 0.0 0.0 0.0 0.0 0.0 0.0 0.0 0.0 1.79908439312094 0.0 0.0 0.0 0.0 1:-0.54 2:-0.6 3:-0.58 4:0.46 5:0.98 6:-0.08 7:-0.24 8:-0.25 9:0.29 10:-0.28 11:0.97 12:-0.34 13:0.79 14:-0.5 
-0.0 -0.0 -0.0 -0.0 -0.0 -0.0 -0.0 0.0 0.0 0.0 0.0 0.0 0.0 0.0 0.0 0.0 0.0 0.19551832978331152 0.0 0.0 0.0 0.0 0.0 0.0 0.0 0.0 0.0 0.0 0.0 0.0 1:-0.54 2:-0.6 3:-0.58 4:0.46 5:0.99 6:-0.08 7:-0.23 8:-0.23 9:0.31 10:-0.25 11:0.97 12:-0.34 13:0.79 14:-0.5 
-0.577470049033823 -0.0 -0.0 -0.0 -0.0 -0.0 -0.0 0.0 0.0 0.0 0.0 0.0 0.0 0.0 0.0 0.0 0.0 0.0 0.0 2.7346983152657747 0.0 0.0 0.0 0.0 0.0 0.0 0.0 3.7405730847507246 0.0 1.2699072014450596 1:-0.54 2:-0.58 3:-0.61 4:0.49 5:0.97 6:0.02 7:-0.12 8:-0.08 9:0.25 10:-0.23 11:0.96 12:-0.32 13:0.81 14:-0.48 
-0.0 -0.0 -0.0 -0.0 -0.0 -0.0 -0.0 0.0 0.0 0.0 0.0 0.0 0.0 0.0 0.0 0.0 0.0 0.0 0.0 0.0 0.0 0.0 0.0 0.0 0.0 2.282344937245616 0.0 0.0 0.0 0.0 1:-0.55 2:-0.55 3:-0.63 4:0.49 5:0.96 6:0.05 7:-0.09 8:-0.05 9:0.24 10:-0.24 11:0.95 12:-0.3 13:0.84 14:-0.46 
-0.0 -0.0 -0.0 -0.0 -0.0 -0.0 -0.0 0.0 0.0 0.0 0.0 0.0 0.0 0.0 0.0 0.0 0.0 0.0 0.0 0.0 0.0 0.0 0.0 9.423796909339927 0.0 0.0 0.0 0.0 0.0 0.0 1:-0.55 2:-0.54 3:-0.64 4:0.49 5:0.95 6:0.07 7:-0.09 8:-0.03 9:0.23 10:-0.23 11:0.95 12:-0.3 13:0.84 14:-0.46 
-1.646936301581499 -0.0 -0.0 -0.0 -0.0 -0.0 -0.0 0.0 0.0 0.0 0.0 0.0 0.0 0.0 0.0 0.0 0.0 0.0 0.0 0.0 0.0 0.0 0.0 0.0 0.0 0.0 0.0 0.0 0.0 0.0 1:-0.55 2:-0.44 3:-0.71 4:0.49 5:0.94 6:0.3 7:0.12 8:0.23 9:0.17 10:-0.04 11:0.95 12:-0.23 13:0.9 14:-0.37 
-0.0 -0.0 -0.0 -0.0 -1.8149234509836745 -0.0 -0.0 1.2853461575038223 0.12859743746051513 2.392624145589911 0.0 0.0 0.7896222175467955 10.885315733737132 3.3553662549093874 0.0 0.0 0.0 0.0 0.0 1.3707798628088497 0.0 6.61881600551463 0.0 3.873672473878283 0.0 0.0 0.0 0.0 1.16707114065622 1:-0.56 2:-0.39 3:-0.73 4:0.5 5:0.92 6:0.36 7:0.18 8:0.29 9:0.14 10:-0.02 11:0.94 12:-0.19 13:0.92 14:-0.34 
-0.0 -0.0 -0.0 -0.0 -2.8434678367687987 -0.0 -0.0 0.0 0.0 0.0 0.0 0.0 0.0 0.0 0.0 0.0 0.0 0.0 0.0 0.0 0.0 0.0 0.0 0.0 0.0 0.0 1.7352944603408076 0.0 0.0 0.0 1:-0.6 2:-0.31 3:-0.74 4:0.53 5:0.92 6:0.38 7:0.2 8:0.29 9:0.17 10:0.0 11:0.94 12:-0.15 13:0.95 14:-0.28 
-0.0 -0.0 -0.0 -0.0 -0.0 -5.991951682171993 -0.0 0.0 0.0 0.0 0.0 0.0 0.0 0.0 0.0 0.0 0.0 0.0 0.0 0.0 0.0 0.0 0.0 0.0 0.0 0.0 0.0 0.0 0.0 0.0 1:-0.6 2:-0.31 3:-0.74 4:0.53 5:0.92 6:0.38 7:0.21 8:0.29 9:0.17 10:0.0 11:0.95 12:-0.14 13:0.95 14:-0.28 
-0.0 -0.37918399161869343 -0.0 -0.0 -0.0 -0.0 -0.0 0.0 0.0 0.0 0.0 0.0 0.0 0.0 0.0 0.0 0.0 0.0 0.0 0.0 0.0 0.0 0.0 0.1044640804195836 0.0 2.0683982947788833 0.0 0.0 0.0 0.0 1:-0.62 2:-0.31 3:-0.72 4:0.53 5:0.89 6:0.39 7:0.23 8:0.3 9:0.11 10:-0.06 11:0.94 12:-0.15 13:0.95 14:-0.28 
-0.0 -0.0 -0.0 -0.0 -0.0 -0.0 -0.0 0.0 0.0 0.0 0.0 0.0 0.0 0.0 0.0 0.0 0.0 0.0 0.0 0.0 0.0 0.0 0.0 0.0 0.0 0.0 0.0 1.1078060399035186 0.0 0.0 1:-0.62 2:-0.31 3:-0.72 4:0.54 5:0.9 6:0.4 7:0.23 8:0.32 9:0.13 10:-0.03 11:0.95 12:-0.15 13:0.95 14:-0.28 
-0.0 -0.0 -0.0 -0.0 -0.0 -0.0 -0.0 0.0 0.0 0.0 0.0 0.0 0.954314272489959 0.0 0.0 4.634975449616114 3.3280073316449217 3.9463203869544183 4.353466970261472 0.0 0.0 0.0 0.0 0.0 0.0 0.0 0.9703782879052194 0.0 3.465792367219443 0.0 1:-0.62 2:-0.3 3:-0.72 4:0.54 5:0.9 6:0.4 7:0.23 8:0.33 9:0.13 10:-0.02 11:0.95 12:-0.14 13:0.95 14:-0.28 
-0.0 -0.0 -1.6033302878270101 -2.5752168679927734 -0.0 -0.0 -1.1722470218959664 0.0 1.0666321686718503 0.0 3.3613093570899935 5.897890486348729 0.0 0.0 0.0 0.0 0.0 0.0 0.0 0.01763757921483726 0.17517840340080262 2.8167319708858853 0.0 0.0 0.0 0.0 0.0 0.0 0.0 0.0 1:-0.62 2:-0.3 3:-0.72 4:0.54 5:0.9 6:0.41 7:0.23 8:0.33 9:0.13 10:-0.02 11:0.95 12:-0.14 13:0.95 14:-0.27 
-0.0 -0.0 -0.0 -0.0 -0.0 -0.0 -0.0 -0.0 0.0 0.0 0.0 0.0 0.0 0.0 3.4339159985954697 0.0 0.0 0.0 0.0 0.0 0.0 0.0 0.0 0.0 2.424966819310518 0.0 0.0 0.0 0.0 0.0 1:0.04 2:-0.62 3:0.78 4:-0.15 5:0.59 6:0.67 7:0.37 8:0.33 9:0.61 10:0.95 11:-0.47 12:-0.06 13:-0.78 14:-0.62 
-0.0 -0.0 -0.0 -0.0 -0.0 -0.0 -0.0 -0.0 0.0 0.0 0.0 0.0 0.0 0.0 0.0 0.0 0.0 0.0 0.0 0.0 0.0 0.0 0.0 0.3289904793020967 0.0 0.0 0.0 0.0 0.0 0.0 1:0.01 2:-0.61 3:0.79 4:-0.14 5:0.59 6:0.66 7:0.37 8:0.33 9:0.61 10:0.95 11:-0.48 12:-0.06 13:-0.79 14:-0.61 
-0.0 -0.0 -0.0 -0.0 -0.0 -0.5112087851951547 -0.0 -0.0 2.049413306173425 0.0 0.0 0.0 0.0 0.0 0.0 1.758570347371864 0.0 0.0 0.0 0.0 0.0 0.0 0.0 0.0 0.0 1.2706131534339942 0.0 0.0 0.0 0.0 1:-0.02 2:-0.6 3:0.8 4:-0.13 5:0.59 6:0.66 7:0.37 8:0.33 9:0.61 10:0.96 11:-0.48 12:-0.05 13:-0.8 14:-0.6 
-0.0 -0.0 -0.0 -0.0 -0.0 -0.0 -0.0 -0.0 0.0 0.0 0.0 0.0 0.0 0.0 0.0 0.0 0.0 0.0 0.0 0.0 0.0 0.0 0.0 0.0 0.0 0.0 4.532944825980535 0.0 0.0 0.0 1:-0.03 2:-0.6 3:0.8 4:-0.13 5:0.59 6:0.66 7:0.36 8:0.33 9:0.6 10:0.96 11:-0.49 12:-0.05 13:-0.8 14:-0.6 
-0.0 -0.5736255685858449 -0.1737968258088089 -0.0 -0.0 -0.0 -0.0 -0.014963873226301758 0.0 0.0 0.8087878091886701 0.0 0.0899893315965539 0.0 0.0 0.0 3.741089689558443 1.4659161813830812 4.08657361366267 0.0 0.0 0.0 0.0 0.0 0.0 0.0 0.0 0.0 0.0 0.0 1:-0.05 2:-0.59 3:0.81 4:-0.14 5:0.59 6:0.66 7:0.36 8:0.33 9:0.59 10:0.96 11:-0.49 12:-0.07 13:-0.8 14:-0.59 
-0.0 -0.0 -5.609482467792784 -0.0 -0.0 -0.0 -21.084003621441255 -0.0 0.0 0.0 0.0 0.0 0.0 0.0 0.0 0.0 0.0 0.0 0.0 0.0 16.28225135829421 1.3702318377327694 0.0 0.0 0.0 0.0 0.0 0.0 0.0 0.0 1:0.1 2:-0.5 3:0.86 4:-0.15 5:0.59 6:0.66 7:0.36 8:0.33 9:0.57 10:0.96 11:-0.49 12:-0.15 13:-0.86 14:-0.48 
-0.0 -0.0 -0.0 -0.0 -2.565532976870418 -0.0 -0.0 -0.0 0.0 0.0 0.0 0.0 0.0 0.0 0.0 0.0 0.0 0.0 0.0 2.3859185671594485 0.0 0.0 0.0 0.0 0.0 0.0 0.0 0.0 0.303066819336419 2.170477259432646 1:0.11 2:-0.65 3:0.75 4:-0.12 5:0.67 6:0.75 7:0.36 8:0.31 9:0.58 10:0.95 11:-0.39 12:-0.08 13:-0.76 14:-0.64 
-0.0 -0.0 -0.0 -2.9160700118314753 -0.0 -0.0 -0.0 -0.0 0.0 1.5088180990040216 1.7181731505335225 0.0 0.0 0.0 0.0 0.0 0.0 0.0 0.0 0.0 0.0 0.0 0.0 0.0 0.0 0.0 0.0 2.5228913257432013 0.7878855427423602 0.0 1:0.09 2:-0.64 3:0.77 4:-0.14 5:0.69 6:0.76 7:0.36 8:0.31 9:0.54 10:0.95 11:-0.37 12:-0.11 13:-0.77 14:-0.63 
-0.0 -0.5048947067390733 -0.0 -0.0 -0.0 -0.0 -0.0 -0.0 0.0 0.2749255263681278 0.0 0.0 0.0 0.0 0.0 0.0 0.0 0.0 0.0 0.0 0.0 1.606029310050517 0.0 0.0 0.0 0.0 0.0 0.0 0.0 0.0 1:0.45 2:-0.58 3:0.68 4:-0.6 5:0.84 6:0.9 7:0.33 8:0.27 9:-0.16 10:0.98 11:-0.15 12:-0.16 13:-0.8 14:-0.58 
-3.122039264147299 -0.0 -0.0 -0.0 -0.0 -0.0 -0.0 -0.0 0.0 0.0 0.0 0.0 1.146339475199566 0.0 0.0 0.0 0.0 0.0 0.0 0.0 0.0 0.0 0.0 0.0 0.0 0.0 0.0 0.0 0.0 0.0 1:0.4 2:-0.67 3:0.63 4:-0.56 5:0.83 6:0.91 7:0.31 8:0.27 9:-0.06 10:0.98 11:-0.14 12:-0.1 13:-0.71 14:-0.69 
-3.216213243438467 -0.0 -0.0 -0.0 -0.0 -0.0 -0.0 -0.0 0.0 0.0 0.0 0.0 0.0 0.6476226763587346 0.0 0.0 0.0 0.0 0.0 0.0 0.0 0.0 0.6412211327730251 0.0 0.0 0.0 0.0 0.0 0.0 0.0 1:0.35 2:-0.7 3:0.62 4:-0.47 5:0.81 6:0.9 7:0.31 8:0.27 9:0.08 10:0.97 11:-0.15 12:-0.08 13:-0.68 14:-0.73 
-0.0 -1.4799769692132847 -0.0 -0.0 -0.8190596106004294 -1.7745251747647544 -0.0 -2.2218829753877554 0.0 0.0 0.0 1.3066495820095738 0.0 2.1252886861346587 0.0 0.5778802572383684 0.0 0.8781396712761251 0.0 0.0 0.0 0.0 0.6099457853386038 1.568149272913641 0.7099429547846705 0.733375803064453 0.0 0.374262710718106 0.0 0.0 1:0.29 2:-0.73 3:0.61 4:-0.35 5:0.72 6:0.9 7:0.28 8:0.25 9:0.35 10:0.94 11:-0.17 12:-0.19 13:-0.68 14:-0.71 
-0.0 -0.0 -0.0 -0.0 -0.0 -0.0 -0.0 -0.0 0.0 0.0 0.0 0.0 0.0 0.0 0.0 0.0 0.0 0.0 0.0 0.9439807787348643 0.0 0.0 0.0 0.0 0.0 0.0 0.0 0.0 1.3757593569565583 1.7046061518988194 1:0.32 2:-0.7 3:0.64 4:-0.32 5:0.72 6:0.9 7:0.28 8:0.25 9:0.39 10:0.94 11:-0.18 12:-0.19 13:-0.71 14:-0.68 
-0.0 -0.0 -0.0 -0.5099115301735531 -0.0 -0.0 -0.0 -0.0 7.155277565993771 13.091922937435253 0.7251795326153875 1.001205362884324 0.0 0.0 0.0 0.0 0.0 0.0 0.0 0.0 0.0 0.02539434293693393 0.0 0.0 0.0 0.0 0.0 0.0 0.10205887758848621 0.0 1:0.27 2:-0.71 3:0.65 4:-0.33 5:0.76 6:0.86 7:0.33 8:0.32 9:0.31 10:0.96 11:-0.19 12:-0.16 13:-0.7 14:-0.7 
-0.0 -0.0 -0.0 -0.0 -0.0 -0.0 -0.0 -0.0 0.5323170353335759 0.0 0.0 0.0 0.0 0.0 0.0 0.0 0.0 0.0 0.0 0.0 0.0 0.0 0.0 0.0 0.0 0.0 0.0 0.0 0.0 0.0 1:0.28 2:-0.71 3:0.64 4:-0.38 5:0.76 6:0.86 7:0.33 8:0.32 9:0.26 10:0.96 11:-0.18 12:-0.16 13:-0.7 14:-0.7 
-0.0 -0.0 -0.0 -0.0 -0.0 -0.0 -0.0 -0.0 0.0 0.0 0.0 0.0 0.0 0.0 0.0 0.0 0.0 0.0 0.11416050955871301 0.0 0.0 0.0 0.0 0.0 0.0 0.0 0.0 0.0 0.0 0.0 1:0.29 2:-0.71 3:0.64 4:-0.42 5:0.76 6:0.86 7:0.33 8:0.32 9:0.21 10:0.96 11:-0.18 12:-0.17 13:-0.69 14:-0.7 
-0.0 -0.0 -0.0 -0.0 -0.0 -0.0 -0.0 -0.0 0.0 0.0 0.0 0.0 2.009407497654388 0.0 0.0 0.0 0.0 0.0 0.0 0.0 0.0 0.0 0.8366598894885551 0.0 0.0 0.0 0.0 0.0 0.0 0.0 1:0.31 2:-0.73 3:0.61 4:-0.48 5:0.78 6:0.88 7:0.27 8:0.27 9:0.12 10:0.97 11:-0.2 12:-0.2 13:-0.68 14:-0.71 
-0.0 -0.0 -0.0 -0.0 -0.0 -0.0 -0.0 -0.0 0.0 0.0 0.0 0.0 0.0 0.0 0.19934732136454328 0.0 0.0 0.0 0.0 0.0 0.0 0.0 0.0 0.0 0.0 0.0 0.0 0.0 0.0 0.0 1:0.36 2:-0.73 3:0.58 4:-0.43 5:0.8 6:0.9 7:0.2 8:0.16 9:0.17 10:0.97 11:-0.26 12:-0.23 13:-0.67 14:-0.7 
-0.0 -0.0 -0.0 -0.0 -0.0 -0.0 -0.0 -0.0 0.0 0.0 0.0 0.0 0.0 0.0 0.0 0.0 0.0 0.0 0.0 0.0 0.0 0.0 0.0994761119150526 0.0 0.0 0.0 0.0 0.0 0.0 0.0 1:0.4 2:-0.72 3:0.56 4:-0.42 5:0.8 6:0.92 7:0.17 8:0.15 9:0.18 10:0.97 11:-0.24 12:-0.26 13:-0.68 14:-0.68 
-0.0 -0.0 -1.5725680851051005 -0.0 -1.095248709156375 -0.16719614492392992 -4.517458735362386 -0.0 -4.594875284947813 0.0 0.0 0.0 0.0 0.0 2.401522752887887 0.0 2.1825352082490026 0.0 0.0 0.0 8.480352843669857 0.0 0.0 0.21651966134910958 1.9035381343489175 0.10970896519611906 1.5718594267708996 0.0 0.0 0.0 1:0.16 2:-0.6 3:0.78 4:-0.43 5:0.08 6:0.24 7:0.55 8:0.98 9:0.77 10:0.92 11:0.38 12:-0.15 13:-0.8 14:-0.58 
-0.0 -0.0 -0.0 -0.0 -0.0 -0.0 -0.0 -0.0 -0.0 10.00876152957388 0.0 0.0 0.0 0.0 0.0 0.0 0.0 0.0 0.0 0.0 0.0 0.0 0.0 0.0 0.0 0.0 0.0 0.0 0.0 0.0 1:0.15 2:-0.6 3:0.78 4:-0.42 5:0.17 6:0.31 7:0.62 8:0.97 9:0.74 10:0.93 11:0.5 12:-0.14 13:-0.8 14:-0.59 
-0.0 -0.0 -0.0 -0.0 -0.0 -0.0 -0.0 -0.0 -0.0 0.0 0.0 0.0 0.0 0.0 0.0 0.6357956355914448 0.0 0.39983944760674667 0.0 0.0 0.0 0.0 0.0 0.0 0.0 0.0 0.0 0.0 0.0 0.0 1:0.08 2:-0.61 3:0.79 4:-0.34 5:0.21 6:0.35 7:0.53 8:0.96 9:0.76 10:0.92 11:0.58 12:-0.19 13:-0.78 14:-0.59 
-0.0 -0.0 -0.0 -0.0 -0.0 -0.0 -0.0 -0.0 -0.0 0.0 1.6382435669239468 0.0 0.0 0.0 0.0 0.0 0.0 0.9104092432697527 0.0 0.0 0.0 0.0 0.0 0.0 0.0 0.0 0.0 0.0 0.0 0.0 1:0.06 2:-0.7 3:0.71 4:-0.32 5:0.58 6:0.68 7:0.42 8:0.71 9:0.5 10:0.96 11:1.0 12:-0.17 13:-0.71 14:-0.69 
-0.0 -0.2979532267326927 -0.0 -1.4050147082489453 -1.1652819000515717 -0.0 -0.0 -1.2009694416313024 -0.0 0.0 0.0 2.4197418240061648 1.8654286711836443 2.800247019170852 0.10198670347949805 1.0784372905676873 0.0 0.0 3.065875385036345 0.0 0.0 0.0 1.3963846369810993 0.781694544980582 0.24752041725916019 0.7914029359534209 0.3450994727390417 0.8358744301535398 0.0 0.0 1:0.06 2:-0.7 3:0.71 4:-0.32 5:0.59 6:0.68 7:0.42 8:0.71 9:0.49 10:0.96 11:1.0 12:-0.16 13:-0.71 14:-0.69 
-9.952955092441684 -0.0 -0.0 -0.0 -0.0 -0.0 -0.0 -0.0 -4.875935832932823 0.0 0.0 0.0 0.0 0.0 0.0 0.0 0.0 0.0 0.0 0.0 0.0 0.0 0.0 0.0 0.0 0.0 0.0 0.0 1.5777127115519638 0.0 1:0.07 2:-0.7 3:0.71 4:-0.32 5:0.59 6:0.68 7:0.42 8:0.71 9:0.49 10:0.96 11:1.0 12:-0.16 13:-0.71 14:-0.69 
-0.0 -0.0 -0.0 -0.0 -0.0 -1.193378159205293 -0.0 -0.0 -0.0 0.0 0.0 0.0 0.0 0.0 0.0 0.0 0.0 0.0 0.0 0.0 0.0 0.0 0.0 0.0 0.0 0.0 0.0 0.0 0.0 0.0 1:0.07 2:-0.7 3:0.71 4:-0.31 5:0.58 6:0.67 7:0.42 8:0.71 9:0.5 10:0.96 11:1.0 12:-0.16 13:-0.71 14:-0.68 
-0.0 -0.0 -0.0 -0.0 -0.0 -0.0 -0.0 -0.0 -0.0 0.0 0.0 0.0 0.0 0.0 0.0 0.0 0.0 0.0 0.0 0.9481717893817588 0.0 0.0 0.0 0.0 0.0 0.0 0.0 0.0 0.0 0.0 1:0.07 2:-0.7 3:0.71 4:-0.31 5:0.58 6:0.67 7:0.42 8:0.7 9:0.51 10:0.96 11:1.0 12:-0.16 13:-0.71 14:-0.68 
-0.0 -0.0 -0.0 -0.0 -0.0 -0.0 -0.0 -0.0 -0.0 5.899723215003418 0.0 0.0 0.0 0.0 0.0 0.0 0.0 0.0 0.0 0.0 0.0 0.0 0.0 0.0 0.0 0.0 0.0 0.0 0.0 0.0 1:0.1 2:-0.67 3:0.74 4:-0.3 5:0.55 6:0.65 7:0.56 8:0.68 9:0.54 10:0.96 11:1.0 12:-0.17 13:-0.74 14:-0.65 
-0.0 -0.0 -0.0 -0.0 -0.0 -0.0 -0.0 -0.0 -0.0 10.45570456850448 0.0 0.0 0.0 0.0 0.0 0.0 0.0 0.0 0.0 0.0 0.0 0.0 0.0 0.0 0.0 0.0 0.0 0.0 0.0 1.7801700480925389 1:0.11 2:-0.68 3:0.73 4:-0.31 5:0.55 6:0.66 7:0.57 8:0.68 9:0.54 10:0.96 11:1.0 12:-0.2 13:-0.73 14:-0.65 
-0.0 -0.0 -0.0 -0.0 -0.0 -0.0 -0.0 -0.0 -0.2661967896201357 0.0 0.0 0.0 0.0 0.0 0.0 0.0 0.0 0.0 0.0 0.0 0.0 0.0 0.0 0.0 0.0 0.0 0.0 0.0 0.0 0.0 1:-0.11 2:-0.34 3:0.93 4:-0.06 5:0.25 6:0.43 7:0.17 8:0.26 9:0.64 10:0.97 11:0.98 12:-0.32 13:-0.88 14:-0.36 
-0.0 -1.9496641087017865 -0.0 -0.0 -0.0 -0.0 -0.0 -0.0 -0.0 0.0 0.0 0.0 2.3573457088482743 0.0 0.0 0.0 0.0 0.0 0.0 0.0 0.0 4.062079605512572 0.0 0.0 0.0 0.0 0.0 0.0 0.0 0.0 1:-0.07 2:-0.36 3:0.93 4:-0.08 5:0.27 6:0.42 7:0.18 8:0.3 9:0.61 10:0.98 11:0.99 12:-0.37 13:-0.86 14:-0.36 
-0.0 -1.2592231408956556 -1.5839533258510257 -1.831569498256971 -0.0 -0.0 -0.0 -1.1678345883675767 -0.0 0.0 1.201201176533552 0.0 0.0 0.0 0.0 0.0 0.0 0.4738530203233202 0.0 0.0 0.0 0.0 1.0618449003047836 0.0 0.1777946762569052 0.0 0.0 0.7254870210504236 0.0 0.0 1:-0.22 2:-0.35 3:0.91 4:0.15 5:0.29 6:0.42 7:0.07 8:0.29 9:0.83 10:0.98 11:0.99 12:-0.4 13:-0.82 14:-0.42 
-0.0 -0.0 -0.0 -0.0 -0.5860391842880849 -1.5903375330773346 -0.0 -0.20227408658748197 -0.0 0.0 0.0 0.0 0.0 0.5632098604707739 0.5397830258509058 0.0 1.1105240346967764 0.0 0.0 3.755509260048697 0.0 0.0 0.0 0.946475838036189 0.5321637329381131 1.5018514564132268 1.0990755554306135 0.0 0.0 1.7835468123562301 1:-0.2 2:-0.3 3:0.93 4:0.33 5:0.28 6:0.3 7:0.19 8:0.27 9:0.98 10:1.0 11:1.0 12:-0.35 13:-0.87 14:-0.35 
-0.0 -0.0 -0.0 -0.0 -0.0 -0.0 -0.881997989485598 -0.0 -0.0 0.0 0.0 0.0 0.0 0.0 0.0 0.0 0.0 0.0 0.0 0.0 0.0 0.0 0.0 0.0 0.0 0.0 0.0 0.0 0.0 0.0 1:-0.2 2:-0.28 3:0.94 4:0.33 5:0.26 6:0.29 7:0.23 8:0.26 9:0.98 10:1.0 11:1.0 12:-0.35 13:-0.88 14:-0.33 
-0.0 -0.0 -0.9140588415452567 -0.0 -0.0 -0.0 -1.8290238859542751 -0.0 -0.0 0.0 0.0 0.13190625639198855 0.0 0.0 0.0 1.3667884386700866 0.0 0.8312838680332638 1.6472644956824514 0.0 0.0 0.0 0.0 0.0 0.0 0.0 0.0 0.0 1.9112694251606306 0.0 1:-0.19 2:-0.27 3:0.94 4:0.31 5:0.26 6:0.29 7:0.32 8:0.25 9:0.98 10:1.0 11:1.0 12:-0.35 13:-0.88 14:-0.32 
-0.0 -0.0 -0.0 -0.03343787039237773 -0.0 -0.0 -0.0 -0.0 -0.0 0.0 0.0 0.0 0.0 0.0 0.0 0.0 0.0 0.0 0.0 0.0 3.316804470713624 0.0 0.0 0.0 0.0 0.0 0.0 0.0 0.0 0.0 1:-0.17 2:-0.29 3:0.94 4:0.25 5:0.26 6:0.28 7:0.47 8:0.25 9:0.97 10:1.0 11:1.0 12:-0.35 13:-0.88 14:-0.33 
-0.0 -0.0 -0.0 -4.001986020900224 -0.0 -0.0 -0.0 -0.0 -0.0 0.0 3.856632639141166 0.0 0.0 0.0 0.0 0.0 0.0 0.7151184941574361 0.639350522194722 0.0 0.6827154857813147 0.6205943584978133 0.0 0.0 0.0 0.12242312134233702 0.0 3.0935827688605455 0.0 0.9350152292205567 1:-0.11 2:-0.33 3:0.94 4:0.12 5:0.25 6:0.28 7:0.73 8:0.26 9:0.94 10:0.99 11:1.0 12:-0.35 13:-0.87 14:-0.35 
-0.0 -0.0 -0.0 -0.0 -0.0 -0.0 -0.0 -0.0 -0.0 0.0 0.0 0.0 0.0 0.0 0.0 0.0 0.0 0.0 0.0 0.0 0.0 0.026669647080047716 0.0 0.0 0.0 0.0 0.0 0.0 0.0 0.0 1:0.15 2:-0.56 3:0.82 4:-0.3 5:0.28 6:0.28 7:0.88 8:0.45 9:0.73 10:1.0 11:0.98 12:-0.4 13:-0.79 14:-0.47 
-0.0 -0.0 -0.0 -0.0 -0.0 -0.0 -0.0 -0.0 -0.0 0.0 0.0 0.0 0.0 0.0 0.0 0.0 0.0 0.0 0.0 0.9333616816507541 0.0 0.0 0.0 0.0 0.0 0.0 0.0 0.0 0.0 0.0 1:0.31 2:-0.64 3:0.71 4:-0.37 5:0.36 6:0.58 7:0.93 8:0.41 9:0.71 10:0.95 11:0.97 12:-0.37 13:-0.76 14:-0.53 
-0.0 -0.0359977390311168 -0.0 -0.0 -0.0 -0.0 -0.0 -0.0 -0.0 0.0 0.0 0.23582631890596129 0.0 0.0 0.0 0.0 0.0 0.0 0.0 0.0 0.0 0.0 0.0 0.2632210012566325 0.0 0.0 0.0 0.0 0.0 2.5887636465301553 1:0.3 2:-0.64 3:0.7 4:-0.37 5:0.37 6:0.58 7:0.93 8:0.41 9:0.7 10:0.95 11:0.97 12:-0.37 13:-0.76 14:-0.53 
-2.1391385045645372 -0.0 -0.0 -0.0 -0.8621221220150266 -0.634524774970043 -0.0 -1.6199740905786246 -0.0 -0.0 0.0 0.5331578204099086 0.0 1.8745379058823517 1.809100069638155 0.0 0.4648112869561512 0.0 0.0 0.0 0.0 0.0 1.6113384526209267 1.2579928859637113 0.905396475698341 0.0 0.0 0.0 0.0 0.0 1:0.13 2:-0.79 3:0.59 4:-0.12 5:0.82 6:0.64 7:0.74 8:0.74 9:-0.62 10:0.09 11:0.0 12:-0.43 13:-0.58 14:-0.69 
-0.0 -0.0 -0.0 -0.0 -0.0 -0.0 -0.0 -0.0 -0.0 -0.0 0.0 0.0 0.0 0.0 0.0 0.0 0.0 0.0 0.0 0.0 0.0 0.0 0.002784863906200658 0.0 0.0 0.0 0.0 0.0 0.0 0.0 1:0.11 2:-0.76 3:0.64 4:-0.15 5:0.76 6:0.68 7:0.69 8:0.69 9:-0.7 10:0.05 11:-0.01 12:-0.39 13:-0.62 14:-0.68 
-0.0 -0.0 -0.0 -0.0 -0.0 -0.0 -0.0 -0.0 -0.0 -0.12316477431380317 0.0 0.0 0.0 0.0 0.0 0.0 0.0 0.0 0.0 0.0 0.0 0.0 0.0 0.0 0.0 0.0 0.0 0.0 0.0 0.0 1:0.12 2:-0.76 3:0.64 4:-0.16 5:0.76 6:0.69 7:0.68 8:0.68 9:-0.7 10:0.05 11:-0.02 12:-0.39 13:-0.63 14:-0.68 
-0.0 -0.0 -0.0 -0.0 -0.0 -0.0 -0.0 -0.0 -4.265727190020947 -0.0 0.0 0.0 0.0 0.0 0.0 0.0 0.0 0.0 0.0 0.0 0.0 0.0 0.0 0.0 0.0 0.0 0.0 0.0 0.0 0.0 1:0.12 2:-0.76 3:0.64 4:-0.16 5:0.75 6:0.7 7:0.68 8:0.67 9:-0.7 10:0.06 11:-0.03 12:-0.39 13:-0.63 14:-0.67 
-0.0 -0.0 -0.0 -0.0 -0.0 -0.0 -0.0 -0.0 -0.0 -0.0 0.0 0.0 2.284063233828174 0.0 0.0 0.0 0.0 0.0 0.0 0.0 0.0 0.0 0.0 0.0 0.0 0.0 0.0 0.0 0.0 0.0 1:0.1 2:-0.75 3:0.65 4:-0.15 5:0.75 6:0.7 7:0.68 8:0.67 9:-0.7 10:0.06 11:-0.02 12:-0.38 13:-0.63 14:-0.67 
-0.0 -0.0 -0.0 -0.0 -0.0 -0.0 -1.4582300261268037 -0.0 -0.0 -0.0 0.0 0.0 0.0 0.0 0.0 0.0 0.0 0.0 0.0 0.0 0.0 0.0 0.0 0.0 0.0 0.0 0.0 0.0 0.0 0.0 1:0.08 2:-0.74 3:0.67 4:-0.13 5:0.75 6:0.7 7:0.69 8:0.67 9:-0.68 10:0.05 11:-0.03 12:-0.35 13:-0.65 14:-0.67 
-0.0 -0.0 -0.8976881337555707 -0.0 -0.0 -0.0 -0.0 -0.0 -0.0 -0.0 0.0 0.0 0.0 0.0 0.0 0.0 0.0 0.0 0.0 0.0 0.0 0.0 0.0 0.0 0.0 0.0 0.0 0.0 0.0 0.0 1:0.07 2:-0.73 3:0.68 4:-0.12 5:0.75 6:0.69 7:0.69 8:0.68 9:-0.67 10:0.04 11:-0.02 12:-0.35 13:-0.65 14:-0.67 
-0.0 -0.0 -0.0 -0.0 -0.0 -0.0 -0.0 -0.0 -0.0 -0.0 0.0 0.0 0.0 0.0 0.0 0.0 0.40101901334575857 0.0 0.0 0.0 0.0 0.0 0.0 0.0 0.0 0.0 1.0707896719337116 0.0 0.0 0.0 1:0.05 2:-0.73 3:0.68 4:-0.11 5:0.75 6:0.69 7:0.69 8:0.69 9:-0.66 10:0.04 11:-0.01 12:-0.34 13:-0.65 14:-0.67 
-0.0 -0.0 -0.0 -0.0 -0.0 -0.0 -0.0 -0.0 -0.0 -0.0 0.0 0.0 0.0 0.0 0.0 0.0 0.0 0.0 0.0 0.0 0.0 0.0 0.0 0.0 0.0 1.1695798966292528 0.0 0.0 0.0 0.0 1:0.03 2:-0.73 3:0.69 4:-0.11 5:0.75 6:0.69 7:0.7 8:0.73 9:-0.65 10:0.04 11:0.04 12:-0.33 13:-0.66 14:-0.68 
-0.0 -0.0 -0.0 -0.0 -0.0 -0.0 -0.0 -0.0 -0.0 -0.0 0.0 0.0 0.0 0.0 0.0 1.3467299231045542 0.0 0.8010800132089382 0.0 0.0 0.0 0.0 0.0 0.0 0.0 0.0 0.0 0.0 0.0 0.0 1:0.02 2:-0.72 3:0.69 4:-0.09 5:0.77 6:0.69 7:0.72 8:0.74 9:-0.62 10:0.07 11:0.06 12:-0.32 13:-0.66 14:-0.68 
-0.0 -0.0 -0.0 -0.0 -0.0 -0.0 -0.0 -0.0 -0.0 -0.0 0.0 0.0 0.0 0.0 0.0 0.0 0.0 0.0 1.150438198536087 0.0 0.0 0.0 0.0 0.0 0.0 0.0 0.0 0.0 0.0 0.0 1:0.02 2:-0.72 3:0.7 4:-0.07 5:0.78 6:0.69 7:0.71 8:0.73 9:-0.6 10:0.09 11:0.05 12:-0.34 13:-0.66 14:-0.67 
-0.0 -0.0 -0.0 -0.0 -0.0 -0.0 -0.0 -0.0 -0.0 -0.0 0.0 0.0 0.0 0.0 0.0 0.0 0.0 0.0 0.0 0.0 0.0 0.0 0.0 0.0 0.0 0.0 0.0 0.0 0.0 2.060795177422644 1:0.03 2:-0.72 3:0.7 4:-0.07 5:0.77 6:0.69 7:0.71 8:0.72 9:-0.6 10:0.08 11:0.04 12:-0.34 13:-0.66 14:-0.67 
-0.0 -2.715224591330815 -0.0 -0.0 -0.0 -0.0 -0.0 -0.0 -0.0 -0.0 0.0 0.0 0.0 0.0 0.0 0.0 0.0 0.4065536328996681 0.0 1.796907553579206 0.0 0.0 0.0 0.0 0.0 0.0 0.0 1.991536355169086 0.9928682343959386 0.0 1:0.03 2:-0.71 3:0.7 4:-0.07 5:0.77 6:0.69 7:0.7 8:0.72 9:-0.6 10:0.08 11:0.04 12:-0.34 13:-0.66 14:-0.66 
-0.0 -0.0 -0.0 -0.0 -0.0 -0.0 -0.0 -0.0 -0.0 -0.0 0.7955592411903359 0.0 0.0 0.0 0.0 0.0 0.0 0.0 0.0 0.0 0.0 0.0 0.0 0.0 0.0 0.0 0.0 0.0 0.0 0.0 1:0.03 2:-0.72 3:0.7 4:-0.07 5:0.77 6:0.69 7:0.71 8:0.74 9:-0.6 10:0.09 11:0.06 12:-0.35 13:-0.66 14:-0.66 
-0.0 -0.0 -0.0 -0.36077993752320314 -0.0 -0.0 -0.0 -0.0 -0.0 -0.0 0.0 0.0 0.0 0.0 0.0 0.0 0.0 0.0 0.0 0.0 0.0 0.0 0.0 0.0 0.0 0.0 0.0 0.0 0.0 0.0 1:0.03 2:-0.72 3:0.7 4:-0.07 5:0.78 6:0.69 7:0.72 8:0.74 9:-0.6 10:0.1 11:0.07 12:-0.35 13:-0.66 14:-0.66 
-0.0 -0.0 -0.7391961794196885 -0.0 -0.0 -0.0 -0.0 -0.0 -0.0 -0.0 0.0 0.0 0.0 0.0 0.0 0.0 0.0 0.0 0.0 0.0 0.0 0.0 0.0 0.0 0.0 0.0 0.0 0.0 0.0 0.0 1:0.07 2:-0.7 3:0.71 4:-0.06 5:0.82 6:0.75 7:0.68 8:0.69 9:-0.55 10:0.24 11:0.08 12:-0.35 13:-0.68 14:-0.64 
-0.0 -0.0 -0.0 -0.0 -0.0 -0.0 -0.0 -0.0 -0.7862059957655282 -0.0 0.0 0.0 0.0 0.0 0.0 0.0 0.0 0.0 0.0 0.0 0.0 0.0 0.0 0.0 0.0 0.0 0.0 0.0 0.0 0.0 1:0.08 2:-0.7 3:0.71 4:-0.07 5:0.81 6:0.76 7:0.68 8:0.69 9:-0.56 10:0.24 11:0.08 12:-0.35 13:-0.69 14:-0.64 
-0.0 -0.0 -0.0 -0.0 -0.0 -0.0 -0.0 -0.0 -0.0 -0.0 0.0 0.0 0.0 0.0 0.0 0.0 0.0 0.0 0.0 0.0 0.0 2.4827613233333303 0.0 0.0 0.0 0.0 0.0 0.0 0.0 0.0 1:0.08 2:-0.7 3:0.71 4:-0.06 5:0.81 6:0.76 7:0.68 8:0.69 9:-0.56 10:0.24 11:0.08 12:-0.36 13:-0.69 14:-0.64 
-8.308855555988217 -0.0 -0.0 -0.0 -0.0 -0.0 -0.0 -0.0 -0.0 -0.0 0.0 0.0 0.0 0.0 0.0 0.0 0.0 0.0 0.0 0.0 0.0 0.0 0.0 0.0 0.0 0.0 0.0 0.0 0.0 0.0 1:0.07 2:-0.69 3:0.72 4:-0.07 5:0.87 6:0.74 7:0.81 8:0.83 9:-0.5 10:0.31 11:0.28 12:-0.15 13:-0.72 14:-0.68 
-2.6683069412455587 -0.6331003051330194 -0.0 -0.0 -0.0 -0.0 -0.0 -0.0 -0.0 -0.0 0.0 0.0 1.3357983286216801 0.0 0.0 0.0 0.0 0.0 0.0 0.0 0.0 0.0 0.0 0.0 0.0 0.0 0.0 0.0 0.0 0.0 1:0.03 2:-0.66 3:0.75 4:-0.04 5:0.78 6:0.69 7:0.9 8:0.92 9:0.54 10:0.98 11:0.42 12:-0.14 13:-0.74 14:-0.66 
-0.0 -0.0 -0.0 -5.1540272262362254 -0.0 -1.8556093469319637 -0.0 -1.0113170053057305 -0.0 -0.0 0.11288297650282704 2.4028083674742162 0.0 0.0 0.0 0.0 0.0 0.0 4.979103982178458 0.0 0.0 1.6951836328345975 0.855493980199716 0.0 0.0 0.0 0.0 2.236724397080853 2.2560599820787806 0.0 1:0.03 2:-0.66 3:0.75 4:-0.03 5:0.78 6:0.69 7:0.9 8:0.92 9:0.54 10:0.98 11:0.42 12:-0.14 13:-0.74 14:-0.65 
-0.0 -0.0 -2.675393181547872 -0.0 -2.4359663915767578 -0.0 -0.0 -0.0 -0.0 -0.0 0.0 0.0 0.0 0.0 1.7595643966348737 0.0 2.579434641716706 0.0 0.0 0.0 0.0 0.0 0.0 0.0 1.9701664343906686 0.0 2.567214135049806 0.0 0.0 0.0 1:0.03 2:-0.66 3:0.75 4:-0.03 5:0.78 6:0.69 7:0.9 8:0.92 9:0.55 10:0.98 11:0.41 12:-0.14 13:-0.74 14:-0.65 
-0.0 -0.0 -0.0 -0.0 -0.0 -0.0 -7.0624607332172324 -0.0 -9.823733377020925 -0.0 0.0 0.0 0.0 0.0 0.0 0.0 0.0 0.0 0.0 0.0 16.135568964555475 0.0 0.0 0.0 0.0 0.0 0.0 0.0 0.0 0.0 1:0.04 2:-0.66 3:0.75 4:-0.03 5:0.77 6:0.69 7:0.9 8:0.92 9:0.55 10:0.98 11:0.41 12:-0.14 13:-0.75 14:-0.65 
-0.0 -0.0 -0.0 -0.0 -0.0 -0.0 -0.0 -0.0 -0.0 -26.241024538767974 0.0 0.0 0.0 0.0 0.0 0.0 0.0 0.0 0.0 2.6646444707231356 0.0 0.0 0.0 0.9404804300800618 0.0 0.09832423710310012 0.0 0.0 0.0 4.693191094326943 1:0.03 2:-0.66 3:0.75 4:-0.03 5:0.77 6:0.69 7:0.9 8:0.92 9:0.55 10:0.98 11:0.42 12:-0.14 13:-0.75 14:-0.65 
-0.0 -0.0 -0.0 -0.0 -0.0 -0.0 -0.0 -0.0 -0.0 -0.0 4.407337684339321 0.0 0.0 1.689220310384877 0.0 1.8691854544470992 0.0 1.9586017174370118 0.0 0.0 0.0 0.0 0.0 0.0 0.0 1.118389665446997 0.0 0.0 0.0 0.0 1:0.03 2:-0.66 3:0.75 4:-0.03 5:0.76 6:0.69 7:0.91 8:0.93 9:0.55 10:0.98 11:0.42 12:-0.13 13:-0.75 14:-0.65 
-0.0 -0.0 -4.715480077866113 -40.27540073390007 -0.0 -0.0 -0.0 -0.0 -0.0 -0.0 -0.0 0.0 0.0 0.0 0.0 0.0 0.0 0.0 0.0 0.0 0.0 8.03593107494821 0.0 0.0 0.0 0.0 0.0 0.0 0.0 0.0 1:-0.62 2:0.01 3:0.78 4:0.49 5:0.15 6:0.76 7:0.91 8:0.78 9:0.56 10:0.75 11:0.99 12:-0.78 13:0.07 14:-0.62 
-0.0 -2.4856278243072434 -0.0 -0.0 -0.0 -0.0 -3.2176064041188006 -0.0 -3.25214049233758 -5.50365988290337 -3.8648919689298107 0.0 3.145470377607519 0.0 0.0 0.0 0.0 0.0 0.0 0.0 1.587606986706953 0.0 0.0 0.0 0.0 0.0 0.0 0.0 0.0 0.0 1:-0.62 2:-0.02 3:0.78 4:0.49 5:0.15 6:0.76 7:0.91 8:0.78 9:0.56 10:0.74 11:0.99 12:-0.78 13:0.07 14:-0.62 
-0.0 -0.0 -0.0 -0.0 -0.0 -0.0 -0.0 -0.0 -0.0 -1.1924174996952945 -0.0 0.0 0.0 0.0 0.0 0.0 0.0 0.0 0.0 0.0 0.0 0.0 0.0 0.0 0.0 0.0 0.0 0.0 0.0 0.0 1:-0.63 2:-0.07 3:0.78 4:0.5 5:0.12 6:0.78 7:0.9 8:0.79 9:0.64 10:0.71 11:1.0 12:-0.78 13:0.08 14:-0.62 
-0.0 -0.0 -0.0 -0.0 -0.0 -0.0 -0.0 -0.0 -0.0 -0.0 -0.0 0.0 0.0 0.0 0.0 0.0 0.0 0.0 0.0 3.297230593865308 0.0 0.0 0.0 0.0 0.0 0.0 0.0 3.706780890698315 0.0 0.0 1:-0.64 2:-0.13 3:0.76 4:0.5 5:0.1 6:0.79 7:0.9 8:0.79 9:0.62 10:0.68 11:1.0 12:-0.77 13:0.08 14:-0.64 
-1.0322236925575492 -0.0 -0.0 -0.0 -0.0 -0.0 -0.0 -0.0 -0.0 -0.0 -1.4508879331026734 0.0 0.0 0.0 0.0 0.0 0.0 0.0 0.0 0.340644030061933 3.1356149297128177 0.0 0.0 0.0 0.0 0.0 0.0 0.0 0.0 4.75642550025884 1:-0.64 2:-0.14 3:0.76 4:0.5 5:0.1 6:0.79 7:0.9 8:0.8 9:0.62 10:0.68 11:1.0 12:-0.77 13:0.08 14:-0.64 
-2.5224580175624927 -0.0 -0.0 -0.0 -0.0 -0.0 -0.0 -0.0 -0.0 -0.0 -0.0 0.0 0.0 0.0 0.0 0.0 0.0 0.0 0.0 0.0 0.0 0.0 0.0 0.0 0.0 0.0 0.0 0.0 0.0 0.0 1:-0.67 2:-0.12 3:0.73 4:0.51 5:0.1 6:0.79 7:0.9 8:0.81 9:0.59 10:0.68 11:0.99 12:-0.74 13:0.09 14:-0.66 
-0.0 -0.0 -0.0 -0.0 -0.0 -0.0 -0.0 -0.0 -0.0 -0.0 -0.0 0.0 0.0 0.0 0.0 0.0 0.0 0.0 0.0 0.0 0.0 0.0 0.0 0.0 0.0 0.0 0.6335962501835397 0.0 0.0 0.0 1:-0.67 2:-0.06 3:0.74 4:0.51 5:0.11 6:0.78 7:0.9 8:0.79 9:0.6 10:0.7 11:0.99 12:-0.74 13:0.08 14:-0.66 
-0.0 -0.0 -0.0 -0.0 -0.0 -0.0 -0.0 -0.0 -0.0 -0.0 -0.0 0.0 0.0 0.0 0.03923112791964179 0.0 0.41500456782275774 0.0 0.0 0.0 0.0 0.0 0.0 0.0 0.0 0.0 0.0 0.0 0.0 0.0 1:-0.69 2:-0.13 3:0.71 4:0.51 5:0.1 6:0.81 7:0.93 8:0.83 9:0.58 10:0.66 11:0.99 12:-0.72 13:0.2 14:-0.66 
-0.0 -0.0 -0.0 -0.0 -0.0 -0.0 -0.0 -0.0 -0.0 -0.0 -0.0 0.0 0.30416281462850925 0.0 0.0 0.0 0.0 0.0 0.0 0.0 0.0 0.0 2.769702156433907 0.0 0.0 0.0 0.0 0.0 0.0 0.0 1:-0.69 2:-0.13 3:0.71 4:0.51 5:0.12 6:0.82 7:0.92 8:0.83 9:0.57 10:0.67 11:0.99 12:-0.72 13:0.18 14:-0.67 
-0.0 -0.0 -0.0 -0.0 -0.0 -0.0 -0.0 -0.0 -0.0 -0.0 -0.0 0.0 0.0 0.0 0.0 0.0 0.0 0.0 0.0 0.0 0.0 0.0 0.0 0.0 0.0 0.0 0.0 0.0 6.176536898598893 0.0 1:-0.68 2:-0.01 3:0.73 4:0.5 5:0.19 6:0.89 7:0.89 8:0.85 9:0.69 10:0.6 11:0.99 12:-0.68 13:0.36 14:-0.63 
-0.0 -0.9047389632067858 -0.0 -0.0 -0.0 -0.0 -0.0 -0.0 -0.0 -0.0 -0.0 0.0 0.0 0.0 0.0 0.0 0.0 0.0 0.0 0.0 0.0 0.0 0.0 0.0 0.0 0.0 0.0 0.0 0.0 0.0 1:-0.68 2:-0.05 3:0.73 4:0.5 5:0.17 6:0.89 7:0.89 8:0.85 9:0.67 10:0.59 11:0.99 12:-0.7 13:0.34 14:-0.63 
-0.0 -0.0 -0.0 -0.0 -0.0 -0.0 -0.0 -3.3613093570899935 -0.0 -0.0 -0.0 0.0 0.0 0.0 0.0 0.0 0.0 0.0 0.0 0.0 0.0 0.0 0.0 0.0 0.0 0.0 0.0 0.0 0.0 0.0 1:-0.72 2:-0.1 3:0.69 4:0.49 5:0.18 6:0.91 7:0.9 8:0.88 9:0.68 10:0.56 11:0.99 12:-0.67 13:0.38 14:-0.64 
-0.0 -0.0 -0.0 -0.0 -0.0 -0.0 -0.0 -0.0 -0.0 -0.0 -0.0 0.0 0.0 4.540148082029734 0.0 6.440481496282288 0.0 13.64817972380222 86.44589666982755 0.0 0.0 0.0 0.0 2.9092846203360483 0.0 3.6624486942884693 0.0 4.762639923248713 0.0 0.0 1:-0.72 2:-0.11 3:0.69 4:0.49 5:0.18 6:0.92 7:0.9 8:0.88 9:0.68 10:0.55 11:0.99 12:-0.67 13:0.37 14:-0.64 
-0.0 -0.0 -0.0 -0.0 -3.436543566237055 -3.84417817400107 -0.0 -0.0 -0.0 -0.0 -0.0 3.7905600747573684 0.0 0.0 3.077240925952012 0.0 3.7747914782061023 0.0 0.0 0.0 0.0 0.0 0.0 0.0 2.9331766381791287 0.0 2.6501722908236665 0.0 0.0 0.0 1:-0.72 2:-0.12 3:0.68 4:0.49 5:0.19 6:0.88 7:0.9 8:0.9 9:0.68 10:0.63 11:0.99 12:-0.68 13:0.34 14:-0.65 
-0.0 -0.0 -0.0 -0.0 -0.0 -0.0 -0.0 -5.145137287680996 -0.0 -0.0 -0.0 -0.0 0.0 0.0 0.0 0.0 0.9317361204613009 0.0 0.0 0.0 0.0 0.0 0.0 0.0 0.0 0.0 1.0026846341707378 0.0 0.0 0.0 1:-0.26 2:-0.35 3:-0.9 4:0.52 5:1.0 6:0.99 7:0.94 8:0.96 9:0.45 10:0.99 11:0.96 12:0.09 13:0.92 14:-0.39 
-0.0 -0.0 -0.0 -0.0 -0.0 -0.0 -0.0 -0.0 -0.0 -0.0 -0.0 -0.0 0.0 2.9316435401929226 0.0 0.0 0.0 0.0 0.0 0.0 0.0 2.693864954748218 3.9289687175787007 0.0 0.0 0.0 0.0 0.0 0.0 0.0 1:-0.25 2:-0.36 3:-0.9 4:0.52 5:1.0 6:0.99 7:0.94 8:0.96 9:0.44 10:0.99 11:0.96 12:0.09 13:0.92 14:-0.39 
-0.0 -0.0 -0.13059459334911022 -0.0 -0.0 -0.0 -0.0 -0.0 -0.0 -0.0 -0.0 -0.0 0.0 0.0 0.0 0.0 0.0 0.0 0.0 0.0 0.0 0.0 0.0 0.0 0.0 0.0 0.0 0.0 0.0 0.0 1:-0.29 2:-0.12 3:-0.95 4:0.55 5:0.99 6:0.99 7:0.94 8:0.97 9:0.47 10:0.99 11:0.97 12:0.24 13:0.95 14:-0.19 
-0.0 -0.0 -0.0 -0.0 -0.0 -0.0 -0.0 -0.7527531986677325 -0.0 -0.0 -0.0 -0.0 0.0 0.0 0.0 0.0 0.0 0.0 0.0 0.0 0.0 0.0 0.0 0.0 0.0 0.0 0.0 0.0 0.0 0.0 1:-0.29 2:-0.14 3:-0.95 4:0.56 5:0.99 6:0.99 7:0.93 8:0.97 9:0.48 10:0.98 11:0.99 12:0.23 13:0.95 14:-0.21 
-0.0 -0.0 -0.0 -0.0 -0.0 -0.0 -0.0 -0.0 -0.0 -0.0 -0.0 -0.0 0.0 0.0 0.0 0.3410995752572189 0.0 0.0 0.0 0.0 0.0 0.0 0.0 0.0 0.0 0.0 0.0 0.0 1.3750683526060312 0.0 1:-0.31 2:-0.12 3:-0.94 4:0.57 5:1.0 6:0.99 7:0.94 8:0.98 9:0.5 10:0.98 11:0.99 12:0.25 13:0.95 14:-0.2 
-0.0 -0.0 -2.0344572941579444 -3.334260601701502 -0.0 -0.0 -0.0 -0.0 -0.0 -0.0 -0.0 -0.0 0.0 0.0 0.0 0.0 0.0 0.0 0.7473138320470896 0.0 0.0 0.0 0.0 0.0 0.0 0.0 0.0 0.0 0.0 0.0 1:-0.21 2:-0.47 3:-0.85 4:0.43 5:0.98 6:0.97 7:0.94 8:0.96 9:0.6 10:1.0 11:1.0 12:0.01 13:0.87 14:-0.49 
-2.8061669288329285 -1.9127616567424266 -0.0 -0.0 -7.5252037479759775 -2.5112484405395907 -2.0813052309728937 -0.0 -2.307854944893898 -2.7874743993041142 -2.935966187884125 -3.7905600747573684 2.304202447474557 4.665091323070675 4.119535710992051 2.983940606724033 2.7297986159892305 3.086866661846087 4.5343876047433564 2.042993021132169 2.432942460788758 0.0 0.0 2.9679073875396145 4.702257093584559 2.654219192303196 2.343132276477571 2.8155997459066566 1.928199165178247 2.5325533143385477 1:-0.21 2:-0.48 3:-0.85 4:0.42 5:0.98 6:0.97 7:0.93 8:0.96 9:0.6 10:0.99 11:1.0 12:0.01 13:0.87 14:-0.5 
-0.0 -0.0 -0.0 -0.0 -0.0 -3.7441735725322656 -0.0 -0.0 -0.0 -0.0 -0.0 -0.0 0.0 0.0 0.0 0.0 0.0 0.0 0.0 0.0 0.0 0.0 0.0 0.0 0.0 0.0 0.0 0.0 0.0 0.0 1:-0.19 2:-0.38 3:-0.91 4:0.37 5:0.97 6:0.96 7:0.92 8:0.95 9:0.59 10:1.0 11:1.0 12:0.05 13:0.92 14:-0.39 
-0.0 -0.0 -0.0 -0.0 -0.0 -0.0 -0.0 -0.0 -0.0 -0.0 -0.0 -0.0 0.0 0.0 0.0 0.0 0.0 0.0 0.0 0.0 0.0 0.0 0.0 0.4334863224783875 0.0 0.0 0.0 0.0 0.0 0.0 1:-0.18 2:-0.37 3:-0.91 4:0.37 5:0.97 6:0.96 7:0.92 8:0.95 9:0.6 10:1.0 11:1.0 12:0.05 13:0.92 14:-0.39 
-0.0 -0.0 -0.0 -0.0 -0.8385276892280512 -2.650666108087219 -0.0 -1.7461262752551585 -0.0 -0.0 -0.0 -0.0 -0.0 0.0 2.0805493818325633 0.0 0.0 0.0 0.0 0.0 0.0 0.0 0.0 2.1326282712929587 1.8965708872146374 0.0 0.0 0.0 0.0 0.0 1:-0.88 2:-0.44 3:0.2 4:-0.59 5:0.1 6:0.08 7:0.05 8:0.02 9:-0.62 10:0.99 11:0.99 12:-0.3 13:0.16 14:-0.94 
-4.73420118999354 -3.739552035206659 -0.0 -0.0 -0.0 -0.0 -0.0 -0.0 -3.2457363044505074 -4.222774380031919 -1.3656004009165301 -0.0 -0.0 0.0 0.0 0.0 0.0 0.0 0.0 1.0655493212696172 0.8984859199869212 0.0 0.0 0.0 0.0 0.0 0.0 0.0 0.0 0.7140379415619549 1:-0.8 2:-0.46 3:0.38 4:-0.56 5:0.1 6:0.1 7:0.07 8:0.04 9:-0.65 10:0.99 11:0.99 12:-0.45 13:0.05 14:-0.89 
-0.0 -0.0 -2.6056048436882415 -2.3318207867738483 -0.0 -0.0 -2.2299893466928986 -0.0 -0.0 -0.0 -2.254261161533324 -2.119098112833552 -0.0 0.0 0.0 0.0 0.0 0.0 0.4746751139708111 1.102323778084688 1.4328163767251243 6.274354462617827 0.290451544951061 0.0 0.0 0.0 0.0 2.1896182724328312 0.0 1.5847205939585367 1:-0.8 2:-0.46 3:0.39 4:-0.39 5:0.1 6:0.1 7:0.07 8:0.04 9:-0.76 10:0.99 11:0.99 12:-0.46 13:0.06 14:-0.88 
-0.0 -0.0 -0.03949934768718397 -1.0736587130581576 -1.565051579970305 -0.0 -0.0 -0.0 -0.0 -0.0 -0.0 -1.3305350794024764 -2.304202447474557 0.0 0.4724866485207621 2.4826597101198784 2.903844418458986 2.5420638790380927 3.5861640327152777 0.0 0.0 0.0 0.0 0.0 0.6282608544271752 2.3562016854445362 1.9613752301219427 1.1469108668898973 2.4844572067133286 0.0 1:-0.91 2:-0.32 3:0.27 4:-0.54 5:0.1 6:0.1 7:0.09 8:0.08 9:-0.62 10:0.99 11:0.99 12:-0.33 13:0.18 14:-0.93 
-0.0 -0.0 -0.0 -0.0 -0.0 -0.0 -0.0 -0.0 -0.0 -0.0 -0.0 -0.0 -0.0 0.0 0.0 0.0 0.04700852497152533 0.0 0.0 0.0 0.0 0.0 0.0 0.0 0.0 0.0 0.0 0.0 0.0 0.0 1:-0.99 2:-0.11 3:0.1 4:-0.41 5:0.1 6:0.09 7:-0.02 8:0.03 9:-0.83 10:0.99 11:0.99 12:-0.12 13:0.13 14:-0.98 
-0.0 -0.0 -0.0 -0.0 -0.0 -0.0 -0.0 -0.0 -0.0 -0.0 -0.0 -0.0 -0.0 0.0 0.0 0.0 0.0 0.0 0.0 0.0 0.0 0.0 0.0 0.0 0.0 0.0 0.7490702350314304 0.0 0.0 0.0 1:-0.99 2:-0.11 3:0.1 4:-0.39 5:0.1 6:0.09 7:-0.03 8:0.02 9:-0.84 10:0.99 11:0.99 12:-0.12 13:0.13 14:-0.98 
-0.0 -0.0 -0.0 -0.0 -0.0 -0.9782489299801208 -0.0 -1.491929782667543 -0.0 -0.0 -0.0 -0.0 -0.0 5.05752831313181 0.0 0.0 0.0 0.0 0.0 0.0 0.0 0.0 5.922124774406163 0.0 0.0 0.0 0.0 0.0 0.0 0.0 1:-0.97 2:-0.19 3:0.14 4:-0.35 5:0.1 6:0.09 7:-0.03 8:0.01 9:-0.86 10:0.99 11:0.99 12:-0.18 13:0.22 14:-0.96 
-0.0 -0.0 -0.0 -0.0 -0.0 -0.0 -0.0 -0.0 -0.0 -0.0 -0.0 -0.0 -0.0 -0.0 0.0 0.0 0.0 0.0 0.0 0.0 0.0 0.0 0.0 9.790508181995996 0.0 0.0 0.0 0.0 0.0 0.0 1:-0.32 2:-0.66 3:-0.68 4:0.53 5:-0.16 6:0.77 7:0.75 8:0.77 9:0.59 10:-0.67 11:0.99 12:0.02 13:0.71 14:-0.7 
-0.0 -0.5025334016252423 -0.0 -0.0 -0.0 -0.0 -0.0 -0.0 -0.0 -0.0 -0.0 -0.0 -0.0 -0.0 0.0 0.0 0.0 0.0 0.0 0.0 0.0 0.0 0.0 0.0 0.0 0.0 0.0 0.0 0.0 0.0 1:-0.32 2:-0.66 3:-0.67 4:0.53 5:-0.16 6:0.77 7:0.75 8:0.78 9:0.59 10:-0.67 11:0.99 12:0.01 13:0.71 14:-0.7 
-0.0 -0.0 -0.0 -0.0 -0.0 -0.0 -0.0 -0.0 -0.0 -0.0 -0.0 -0.0 -0.0 -0.0 0.0 0.0 0.0 0.0 0.0 0.0 0.0 0.7243478021978171 0.0 0.0 0.0 0.0 0.0 0.0 0.0 0.0 1:-0.32 2:-0.66 3:-0.67 4:0.53 5:-0.16 6:0.77 7:0.76 8:0.78 9:0.59 10:-0.67 11:0.99 12:0.01 13:0.71 14:-0.7 
-0.0 -0.0 -0.0 -0.0 -0.0 -0.0 -0.0 -0.04322205784306479 -0.0 -0.0 -0.0 -0.0 -0.0 -0.0 0.0 0.0 0.0 0.0 0.0 0.0 0.0 0.0 0.0 0.0 0.0 0.0 0.0 0.0 0.0 0.0 1:-0.37 2:-0.63 3:-0.68 4:0.54 5:-0.16 6:0.82 7:0.74 8:0.77 9:0.56 10:-0.62 11:0.99 12:0.02 13:0.73 14:-0.68 
-0.0 -0.0 -0.0 -0.0 -0.0 -0.0 -0.0 -0.0 -0.0 -0.0 -0.0 -0.0 -0.0 -0.20593400528998101 0.0 0.0 0.0 0.0 0.0 0.0 0.0 0.0 0.0 0.0 0.0 0.0 0.0 0.0 0.0 0.0 1:-0.39 2:-0.7 3:-0.6 4:0.54 5:-0.1 6:0.82 7:0.74 8:0.77 9:0.61 10:-0.57 11:0.99 12:0.07 13:0.63 14:-0.78 
-0.0 -0.0 -1.0095401011003717 -1.552879832438269 -0.0 -0.0 -0.0 -0.0 -0.0 -0.0 -0.0 -3.0605273536118016 -0.0 -0.0 0.0 8.672403410831354 0.0 6.490680330232003 3.9427581858431724 0.0 0.0 0.0 0.0 0.0 0.0 7.25043627955229 0.0 4.065967596092034 0.0 0.0 1:-0.35 2:-0.73 3:-0.58 4:0.54 5:0.04 6:0.78 7:0.79 8:0.78 9:0.73 10:-0.52 11:0.99 12:0.1 13:0.59 14:-0.8 
-0.0 -1.1976205061254133 -0.0 -0.0 -0.0 -0.0 -0.0 -0.0 -0.0 -0.0 -0.0 -0.0 -0.0 -0.0 0.0 0.0 0.0 0.0 0.0 0.0 0.0 0.0 0.0 0.0 0.0 0.0 0.0 0.0 0.0 0.0 1:-0.35 2:-0.73 3:-0.58 4:0.53 5:0.04 6:0.78 7:0.78 8:0.78 9:0.73 10:-0.52 11:0.99 12:0.11 13:0.59 14:-0.8 
-0.0 -0.0 -0.0 -0.0 -0.0 -0.0 -0.0 -0.0 -0.0 -0.0 -0.0 -0.0 -0.0 -0.0 0.0 0.0 2.044782253714628 0.0 0.0 0.0 0.0 0.0 0.0 0.0 0.0 0.0 1.521765600656211 0.0 0.0 0.0 1:-0.35 2:-0.74 3:-0.58 4:0.53 5:0.04 6:0.78 7:0.78 8:0.78 9:0.74 10:-0.51 11:0.99 12:0.11 13:0.58 14:-0.81 
-1.7016423646176335 -0.0 -0.0 -0.0 -0.0 -0.0 -1.1332019532418511 -0.0 -1.0041211986297043 -1.449807702628197 -1.5696508125526534 -0.0 -0.0 -0.0 2.5935586846908434 0.0 0.0 0.0 0.0 2.8084129529777093 1.4366344827102104 0.0 0.0 0.0 0.0 0.0 0.0 0.0 0.0 3.114005117342389 1:-0.34 2:-0.74 3:-0.58 4:0.53 5:0.05 6:0.78 7:0.78 8:0.78 9:0.74 10:-0.51 11:0.99 12:0.11 13:0.58 14:-0.81 
-0.0 -0.0 -0.0 -0.0 -2.5434924341847998 -3.8127886433507028 -0.0 -5.043385958827169 -0.0 -0.0 -0.0 -0.0 -3.142860896123963 -0.0 0.0 0.0 0.0 0.0 0.0 0.0 0.0 0.0 0.0 5.416290427851871 2.264219900489293 0.0 0.0 0.0 2.319671648760667 0.0 1:-0.32 2:-0.7 3:-0.63 4:0.52 5:0.05 6:0.78 7:0.78 8:0.78 9:0.75 10:-0.51 11:0.99 12:0.09 13:0.64 14:-0.76 
-0.0 -1.1846090732906673 -1.3973752041849161 -0.0 -0.0 -6.782581328025624 -0.47666439255220594 -5.798707717066899 -0.0 -0.0 -0.0 -0.0 -0.0 -4.851594307841829 0.524363600934469 0.0 0.0 0.2853366724288347 0.0 0.6564754353594991 0.0 2.913449581889626 21.632835790103456 0.7827920549442193 1.6314173767733808 0.3262342486342102 0.0 0.7096763878400763 0.0 0.8064483972422339 1:-0.22 2:-0.7 3:-0.68 4:0.53 5:0.39 6:0.37 7:0.23 8:0.34 9:-0.57 10:0.94 11:0.99 12:0.23 13:0.64 14:-0.73 
-0.0 -0.0 -0.0 -0.0 -0.0 -0.0 -0.7968761939045558 -0.0 -1.6113503078731464 -0.0 -0.0 -0.0 -0.0 -0.0 0.0 0.41508386757010174 0.0 0.0 0.0 0.0 0.0 0.0 0.0 0.0 0.0 0.0 0.0 0.0 1.3489103653785874 0.0 1:-0.22 2:-0.69 3:-0.68 4:0.53 5:0.41 6:0.4 7:0.26 8:0.37 9:-0.56 10:0.94 11:0.99 12:0.24 13:0.64 14:-0.73 
-2.563484184211359 -0.0 -0.0 -1.7514174258444641 -0.0 -0.0 -0.0 -0.0 -0.15743985599054275 -1.9136491770134294 -1.9941074037145754 -0.0 -0.0 -0.0 2.1538276480565677 0.0 0.0 0.0 0.0 0.0 1.3349630799850882 0.0 0.0 0.0 0.0 0.0 0.0 0.0 0.0 0.0 1:-0.22 2:-0.69 3:-0.68 4:0.53 5:0.42 6:0.42 7:0.29 8:0.4 9:-0.55 10:0.94 11:0.99 12:0.24 13:0.64 14:-0.73 
-0.0 -0.0 -0.0 -0.0 -3.260892128280826 -0.0 -0.0 -0.0 -0.0 -0.0 -0.0 -1.4796207284179332 -4.453873967139636 -0.0 0.0 0.0 2.545595776333056 0.0 1.8887597381545298 0.0 0.0 0.0 0.0 0.0 1.6001942454975762 0.0 2.3397794836824475 0.0 0.0 0.0 1:-0.23 2:-0.69 3:-0.69 4:0.53 5:0.42 6:0.44 7:0.31 8:0.41 9:-0.54 10:0.94 11:0.99 12:0.24 13:0.64 14:-0.73 
-0.8912975552669108 -0.3472405961753823 -0.0 -2.168771349375498 -0.0 -0.0 -0.8541334244944445 -0.0 -0.17814627314398873 -2.4250938787425134 -1.6570399631825932 -2.6071367120981632 -3.441959630226975 -0.8140866418487593 -3.3820653842596435 1.593123300559444 14.015310475874648 1.5419596300061869 4.309253846275054 0.6508027399425913 2.6036503197336516 1.6431346516372167 0.0 1.0872200714212181 0.0 0.9358113147286077 2.5748971637759746 0.9884862989817813 1.250347357478426 1.000577571721005 1:-0.33 2:-0.75 3:-0.57 4:0.52 5:0.12 6:0.05 7:0.81 8:0.81 9:0.73 10:1.0 11:-0.41 12:0.02 13:0.6 14:-0.8 
-0.0 -0.0 -0.0 -0.0 -0.0 -5.179413762795628 -0.0 -1.1828397416632166 -0.0 -0.0 -0.0 -0.0 -0.0 -0.0 -0.0 0.0 0.0 0.0 0.0 0.0 0.0 0.0 1.7364499086967302 0.0 0.0 0.0 0.0 0.0 0.0 0.0 1:-0.32 2:-0.73 3:-0.6 4:0.51 5:0.12 6:0.05 7:0.78 8:0.79 9:0.72 10:1.0 11:-0.44 12:-0.03 13:0.64 14:-0.77 
-0.0 -0.0 -0.0 -0.0 -16.11040183373658 -0.0 -0.0 -0.0 -0.0 -0.0 -0.0 -0.0 -0.0 -0.0 -0.0 0.0 0.0 0.0 0.0 0.0 0.0 0.0 0.0 0.0 0.0 0.0 0.0 0.0 0.0 0.0 1:-0.28 2:-0.74 3:-0.61 4:0.49 5:0.12 6:0.06 7:0.74 8:0.77 9:0.73 10:1.0 11:-0.48 12:-0.06 13:0.65 14:-0.76 
-0.0 -0.0 -0.0 -0.0 -0.0 -0.0 -0.0 -0.0 -0.0 -0.0 -0.0 -0.0 -0.0 -0.0 -0.0 0.0 0.0 0.0 0.0 0.0 0.0 0.0 0.0 0.0 60.16545214216787 0.0 0.0 0.0 0.0 0.0 1:-0.3 2:-0.75 3:-0.59 4:0.5 5:0.12 6:0.06 7:0.47 8:0.51 9:0.61 10:1.0 11:-0.74 12:-0.05 13:0.62 14:-0.78 
-0.0 -0.0 -2.6748861124179126 -0.0 -0.0 -0.0 -0.0 -0.0 -0.0 -0.0 -0.0 -0.0 -0.0 -1.0983864837061112 -0.0 0.0 2.889067292630065 0.0 1.506876360230174 0.0 0.0 0.0 0.683289000396152 0.0 0.0 0.0 10.324206304538993 0.0 0.0 0.0 1:-0.34 2:-0.78 3:-0.52 4:0.5 5:0.12 6:0.06 7:0.39 8:0.44 9:0.58 10:1.0 11:-0.78 12:-0.05 13:0.57 14:-0.82 
-0.0 -0.0 -0.0 -0.0 -0.0 -0.0 -1.433094876551999 -0.0 -2.144995319553114 -0.0 -0.0 -0.0 -0.0 -0.0 -0.0 0.0 0.0 0.0 0.0 0.0 0.2511693937114751 0.0 0.0 0.0 0.0 0.0 0.0 0.0 0.0 0.0 1:-0.33 2:-0.79 3:-0.52 4:0.5 5:0.12 6:0.06 7:0.39 8:0.44 9:0.58 10:1.0 11:-0.78 12:-0.05 13:0.56 14:-0.82 
-0.0 -0.0 -0.0 -0.0 -5.901404485645561 -0.0 -0.0 -0.0 -0.0 -0.0 -0.0 -0.0 -0.677576080765076 -0.0 -0.0 0.0 0.8285929212754791 0.0 0.0 0.0 0.0 0.0 0.0 0.0 0.8759495891013238 0.0 2.09410411866158 0.0 0.0 0.0 1:-0.33 2:-0.79 3:-0.51 4:0.5 5:1.0 6:0.06 7:0.38 8:0.44 9:0.48 10:0.03 11:-0.78 12:-0.05 13:0.55 14:-0.83 
-0.0 -0.0 -0.0 -0.0 -0.0 -0.17924777622921265 -0.0 -3.221492226631812 -0.0 -0.0 -0.0 -0.0 -0.0 -0.0 -0.0 0.0 0.0 0.0 0.0 0.0 0.0 0.0 0.8360165822448079 0.0 0.0 0.0 0.0 0.0 0.0 0.0 1:-0.31 2:-0.81 3:-0.5 4:0.5 5:1.0 6:0.06 7:0.38 8:0.44 9:0.45 10:-0.02 11:-0.78 12:-0.05 13:0.54 14:-0.84 
-0.0 -0.0 -0.0 -0.0 -0.0 -0.0 -0.0 -0.0 -0.0 -0.0 -0.0 -0.0 -0.0 -0.6405629047984551 -1.8896845494222372 1.8100226791760081 0.0 0.0 0.0 0.0 0.0 0.0 0.0 2.4800145914238243 0.0 2.344200811639708 0.0 0.0 1.399700221176637 0.0 1:-0.31 2:-0.81 3:-0.49 4:0.5 5:1.0 6:0.06 7:0.38 8:0.44 9:0.45 10:-0.03 11:-0.78 12:-0.06 13:0.53 14:-0.85 
-0.0 -0.0 -0.0 -0.0 -0.0 -0.0 -0.0 -0.0 -0.0 -0.0 -0.0 -0.5093353417734903 -0.0 -0.0 -0.0 0.0 0.0 1.3977174229308569 0.7378647646414457 0.0 0.0 0.0 0.0 0.0 0.0 0.0 0.0 1.3891320197253119 0.0 0.0 1:-0.31 2:-0.82 3:-0.48 4:0.5 5:1.0 6:0.06 7:0.38 8:0.45 9:0.45 10:-0.03 11:-0.78 12:-0.06 13:0.53 14:-0.85 
-0.0 -2.012490471374849 -1.09023457773228 -0.6162787815153791 -0.0 -0.0 -1.1500145680832439 -0.0 -1.3101217272629095 -0.6181986034757779 -1.9116245030904355 -0.0 -0.0 -0.0 -0.0 0.0 0.0 0.0 0.0 1.8692899826739446 0.9405073239309988 0.7707303832846758 0.0 0.0 0.0 0.0 0.0 0.8326036551657435 0.0 1.7509354378709503 1:-0.3 2:-0.82 3:-0.48 4:0.5 5:1.0 6:0.06 7:0.38 8:0.45 9:0.45 10:-0.03 11:-0.78 12:-0.06 13:0.52 14:-0.85 
-1.9367279811077807 -0.0 -0.0 -0.0 -0.0 -0.0 -0.0 -0.0 -0.0 -0.0 -0.0 -0.0 -0.0 -0.0 -0.0 0.0 0.0 0.0 0.0 0.0 0.0 0.0 0.0 0.0 0.0 0.0 0.0 0.0 0.0 0.0 1:-0.3 2:-0.83 3:-0.48 4:0.5 5:1.0 6:0.06 7:0.38 8:0.45 9:0.45 10:-0.03 11:-0.78 12:-0.06 13:0.52 14:-0.85 
-0.0 -0.0 -0.0 -0.0 -0.0 -3.4681095955653753 -0.0 -4.634975449616114 -0.0 -0.0 -0.0 -0.0 -3.325040181981252 -0.0 -9.087487278401454 -0.0 0.0 0.0 0.0 0.0 0.0 0.0 2.350283397633637 5.4100569241153975 0.0 14.087822507645463 0.0 0.0 0.0 0.0 1:-1.0 2:-0.01 3:-0.04 4:0.56 5:0.41 6:0.57 7:0.83 8:0.85 9:0.81 10:-0.5 11:0.89 12:0.04 13:0.18 14:-0.98 
-0.0 -0.0 -0.0 -0.0 -3.1857509878796053 -0.0 -0.0 -0.0 -0.0 -0.0 -0.0 -0.0 -0.0 -0.0 -0.0 -3.403145979735452 3.916090262419252 0.0 0.0 0.0 0.0 0.0 0.0 0.0 2.8148812805506402 0.0 0.0 0.0 0.0 0.0 1:-1.0 2:0.0 3:-0.04 4:0.56 5:0.41 6:0.57 7:0.83 8:0.85 9:0.81 10:-0.5 11:0.88 12:0.04 13:0.18 14:-0.98 
-0.0 -0.0 -0.0 -0.0 -0.0 -0.0 -0.0 -0.0 -0.0 -0.0 -0.0 -0.0 -0.0 -0.0 -0.0 -0.0 0.05614978207426926 0.0 0.0 0.0 0.0 0.0 0.0 0.0 0.0 0.0 3.2878965040478954 0.0 0.0 0.0 1:-1.0 2:0.04 3:-0.04 4:0.57 5:0.41 6:0.58 7:0.84 8:0.87 9:0.8 10:-0.49 11:0.87 12:0.04 13:0.13 14:-0.99 
-0.0 -0.0 -0.0 -0.0 -0.0 -0.0 -0.0 -0.0 -0.0 -0.0 -0.0 -0.0 -0.0 -0.0 -0.0 -0.0 0.0 0.0 0.0 0.0 0.0 0.0 0.0 0.0 0.0 0.0 0.0 0.0 5.027613036482977 0.0 1:-1.0 2:0.05 3:0.05 4:0.57 5:0.41 6:0.58 7:0.83 8:0.87 9:0.81 10:-0.49 11:0.87 12:-0.04 13:0.12 14:-0.99 
-0.0 -3.2924778535291095 -2.561427357896582 -3.980478875281949 -0.0 -0.0 -0.0 -0.0 -0.0 -0.0 -0.0 -6.440481496282288 -0.0 -0.0 -0.0 -0.0 0.0 23.798077114025574 12.43542812862171 0.0 0.0 2.687819481850443 0.0 0.0 0.0 0.0 0.0 9.60361403093014 0.0 0.0 1:-1.0 2:0.04 3:0.06 4:0.56 5:0.41 6:0.58 7:0.84 8:0.87 9:0.81 10:-0.49 11:0.87 12:-0.05 13:0.11 14:-0.99 
-3.0939014780443705 -0.15366572028066536 -0.0 -0.0 -0.0 -0.0 -2.3222043256055587 -0.0 -2.3364506046102327 -3.081021364829219 -3.215915377551654 -0.0 -0.0 -2.4826597101198784 -0.0 -0.0 0.0 0.0 0.0 4.052966499409528 2.717265646750944 0.0 0.0 0.0 0.0 0.0 0.0 0.0 0.0 4.599307522129958 1:-1.0 2:0.02 3:0.05 4:0.56 5:0.41 6:0.58 7:0.83 8:0.87 9:0.81 10:-0.49 11:0.87 12:-0.05 13:0.11 14:-0.99 
-2.418302714053209 -0.0 -0.0 -0.7283556059537175 -0.0 -0.0 -0.0 -0.0 -0.0 -0.2010258366172393 -2.542149618187013 -1.772174176087199 -3.6615347364505313 -2.5686239458505304 -4.590378030047685 -0.0 -3.9722400444935215 1.478736135039625 0.0 0.7092358861597288 0.0 2.251320035819525 3.0686867024068865 0.0 0.0 1.9259709158663614 0.0 1.075398362959394 0.0 1.6493009980290583 1:-0.94 2:-0.27 3:-0.22 4:0.56 5:0.13 6:0.23 7:0.77 8:0.78 9:0.56 10:0.97 11:-0.33 12:0.1 13:0.41 14:-0.9 
-0.0 -0.0 -0.0 -0.0 -0.0 -0.0 -0.0 -3.318057320942018 -0.0 -0.0 -0.0 -0.0 -0.0 -0.0 -0.0 -0.0 -0.0 0.0 0.0 0.0 0.0 0.0 0.0 0.0 0.0 0.0 0.0 0.0 0.0 0.0 1:-0.94 2:-0.26 3:-0.22 4:0.56 5:0.13 6:0.23 7:0.76 8:0.78 9:0.57 10:0.97 11:-0.34 12:0.09 13:0.43 14:-0.9 
-0.0 -0.0 -0.0 -0.0 -0.0 -0.0 -0.0 -0.0 -0.0 -0.0 -0.0 -0.0 -0.0 -0.0 -0.0 -0.0 -0.0 0.0 0.0 0.0 0.0 0.0 0.0 0.0 0.0 0.0 0.0 0.0 1.8969267528560319 0.0 1:-0.95 2:-0.24 3:-0.21 4:0.56 5:0.13 6:0.23 7:0.76 8:0.77 9:0.57 10:0.97 11:-0.35 12:0.09 13:0.43 14:-0.9 
-0.0 -0.0 -0.0 -0.0 -0.0 -0.0 -0.0 -0.0 -0.0 -0.0 -0.0 -0.0 -0.0 -0.0 -0.0 -14.145719279119042 -0.0 0.0 0.0 0.0 0.0 0.0 0.0 0.0 0.0 0.0 0.0 0.0 0.0 0.0 1:-0.94 2:-0.25 3:-0.23 4:0.56 5:0.13 6:0.24 7:0.74 8:0.75 9:0.6 10:0.97 11:-0.38 12:0.09 13:0.46 14:-0.88 
-0.0 -0.0 -0.0 -0.0 -6.735849078537612 -4.785598150706892 -0.0 -0.010367033198185395 -0.0 -0.0 -0.0 -0.0 -0.0 -0.0 -0.0 -0.0 -0.0 0.0 0.0 0.0 0.0 0.0 0.0 2.591069814544193 0.0 0.0 0.0 0.0 0.0 0.0 1:-0.94 2:-0.25 3:-0.22 4:0.56 5:0.13 6:0.24 7:0.73 8:0.75 9:0.6 10:0.97 11:-0.38 12:0.08 13:0.47 14:-0.88 
-0.0 -0.0 -0.0 -0.0 -0.0 -0.0 -0.0 -0.0 -0.0 -0.0 -0.0 -0.0 -0.0 -0.0 -0.0 -0.0 -0.0 0.0 0.0 0.0 0.0 0.0 0.0 0.0 2.6040625925057355 0.0 0.0 0.0 0.0 0.0 1:-0.94 2:-0.25 3:-0.21 4:0.55 5:0.13 6:0.24 7:0.71 8:0.74 9:0.6 10:0.97 11:-0.4 12:0.07 13:0.47 14:-0.88 
-0.0 -0.0 -0.0 -0.0 -0.0 -0.0 -0.0 -0.0 -0.0 -0.0 -0.0 -0.0 -0.0 -0.0 -0.0 -0.0 -0.0 0.0 0.0 0.0 0.0 0.0 0.0 0.0 7.347162047402586 0.0 0.0 0.0 0.0 0.0 1:-0.95 2:-0.27 3:-0.13 4:0.53 5:0.13 6:0.24 7:0.59 8:0.66 9:0.66 10:0.97 11:-0.49 12:-0.01 13:0.46 14:-0.89 
-0.0 -0.0 -0.0 -0.0 -0.0 -0.0 -0.0 -0.0 -0.0 -0.0 -0.0 -0.0 -0.0 -0.38222899757998097 -0.0 -0.0 -0.0 0.0 0.0 0.0 0.0 0.0 0.0 0.0 0.0 0.0 0.0 0.0 0.0 0.0 1:-0.96 2:-0.27 3:-0.12 4:0.52 5:0.13 6:0.24 7:0.6 8:0.67 9:0.67 10:0.97 11:-0.48 12:-0.02 13:0.46 14:-0.89 
-0.0 -0.0 -0.0 -0.0 -3.2215562920861163 -0.0 -0.0 -0.0 -0.0 -0.0 -0.0 -0.0 -0.0 -0.0 -0.0 -3.5872514106611466 -0.0 0.0 0.0 0.0 0.0 0.0 0.0 0.0 0.3384723896056545 0.0 31.64915675705254 0.0 0.0 0.0 1:-0.95 2:-0.29 3:-0.1 4:0.48 5:0.13 6:0.24 7:0.62 8:0.67 9:0.78 10:0.97 11:-0.49 12:-0.05 13:0.47 14:-0.88 
-0.0 -0.0 -0.0 -0.0 -0.0 -0.0 -0.0 -0.0 -0.0 -3.092033406328539 -0.0 -0.0 -0.0 -0.0 -0.0 -0.0 -0.0 1.9653600724949978 0.0 1.4533143429516577 0.06415024577566969 0.0 0.0 0.039291324411687006 0.0 1.063066602185991 0.0 0.0 0.0 0.7633370882491898 1:-0.95 2:-0.3 3:-0.07 4:0.47 5:0.13 6:0.24 7:0.63 8:0.68 9:0.79 10:0.97 11:-0.47 12:-0.09 13:0.47 14:-0.88 
-0.0 -2.1218395694972543 -5.110853867468618 -2.8692968684993665 -0.0 -0.0 -3.5806240637848665 -0.0 -3.741089689558443 -0.0 -0.9031153238316025 -2.4176218699416605 -0.0 -0.0 -0.0 -0.0 -0.0 0.0 13.968452210242368 0.0 3.8429774855705303 0.5472347749083928 0.0 0.0 0.0 0.0 0.0 2.1113344702823325 0.9209588132568889 0.0 1:-0.95 2:-0.3 3:-0.07 4:0.47 5:0.13 6:0.24 7:0.63 8:0.68 9:0.77 10:0.97 11:-0.47 12:-0.09 13:0.47 14:-0.88 
-0.0 -0.0 -0.0 -0.0 -2.947275074879885 -2.9351660600413023 -0.0 -2.2136211054718977 -0.0 -0.0 -0.0 -0.0 -3.086866661846087 -0.0 -6.776017002660837 -0.33857402084685034 -23.798077114025574 -3.444096207534623 0.0 0.0 0.0 0.0 0.0 0.8836086023800924 2.5964256326898636 4.447850101792395 2.8833859800087698 0.0 0.0 0.0 1:-0.89 2:-0.04 3:0.46 4:0.49 5:0.26 6:0.75 7:0.81 8:0.76 9:0.91 10:-0.41 11:0.99 12:-0.43 13:0.47 14:-0.77 
-3.0097731603520907 -0.0 -0.0 -0.0 -0.0 -0.0 -0.17762002128177104 -0.0 -0.33009232724882825 -0.0 -1.7503016450039899 -0.0 -0.0 -2.4049660542964917 -0.0 -2.601103032090194 -0.0 -0.0 0.0 1.2988277537478394 0.38485808776721386 0.0 2.1639397126053903 0.0 0.0 0.0 0.0 0.0 0.0 3.5112311316410643 1:-0.88 2:-0.04 3:0.47 4:0.49 5:0.26 6:0.75 7:0.81 8:0.76 9:0.9 10:-0.41 11:0.99 12:-0.43 13:0.47 14:-0.77 
-0.0 -0.0 -0.0 -0.0 -0.0 -0.0 -0.0 -0.0 -0.0 -0.0 -0.0 -0.0 -0.0 -0.0 -0.0 -0.0 -0.0 -0.0 21.823767585995515 0.0 0.0 0.0 0.0 0.0 0.0 0.0 0.0 0.0 0.0 0.0 1:-0.86 2:0.0 3:0.5 4:0.49 5:0.26 6:0.76 7:0.81 8:0.76 9:0.9 10:-0.4 11:0.99 12:-0.44 13:0.49 14:-0.75 
-0.0 -0.0 -0.0 -0.0 -0.0 -0.0 -0.0 -0.0 -0.0 -0.0 -0.0 -0.0 -0.0 -0.0 -0.0 -0.0 -0.0 -0.0 0.0 0.0 0.014605140321449403 0.0 0.0 0.0 0.0 0.0 0.0 0.0 0.0 0.0 1:-0.85 2:-0.04 3:0.52 4:0.47 5:0.26 6:0.76 7:0.82 8:0.78 9:0.93 10:-0.4 11:0.99 12:-0.46 13:0.5 14:-0.73 
-0.0 -0.0 -0.0 -0.0 -0.0 -0.0 -0.0 -0.0 -0.0 -0.0 -0.0 -0.0 -0.0 -0.0 -0.0 -0.0 -0.0 -0.0 20.056732712790602 0.0 0.0 0.0 0.0 0.0 0.0 0.0 0.0 0.0 0.0 0.0 1:-0.81 2:-0.03 3:0.58 4:0.46 5:0.26 6:0.77 7:0.8 8:0.77 9:0.92 10:-0.38 11:0.99 12:-0.5 13:0.56 14:-0.67 
-0.0 -0.0 -2.935771699749158 -5.755737550069843 -0.0 -0.0 -2.1236503298028295 -0.0 -2.0139635254103783 -3.3305040733905193 -1.4159337185416283 -13.64817972380222 -0.0 -0.0 -0.0 -0.0 -0.0 -0.0 0.0 0.0 2.344600321320825 3.416529378679029 0.0 0.0 0.0 0.0 0.0 0.0 0.0 0.0 1:-0.81 2:-0.03 3:0.58 4:0.46 5:0.26 6:0.77 7:0.79 8:0.77 9:0.92 10:-0.38 11:0.99 12:-0.5 13:0.55 14:-0.67 
-0.048373919421328036 -0.0 -0.0 -0.0 -0.0 -0.0 -0.0 -0.0 -0.0 -0.0 -0.0 -0.0 -0.0 -0.0 -0.0 -0.0 -0.0 -0.0 0.0 0.0 0.0 0.0 0.0 0.0 0.0 0.0 0.0 0.0 0.0 0.0 1:-0.8 2:-0.03 3:0.6 4:0.44 5:0.26 6:0.75 7:0.79 8:0.76 9:0.94 10:-0.41 11:0.99 12:-0.51 13:0.55 14:-0.66 
-0.0 -0.0 -0.0 -0.0 -0.0 -0.0 -0.0 -0.0 -0.0 -0.0 -0.0 -0.0 -0.0 -0.0 -0.0 -0.0 -0.0 -0.0 0.0 2.4116991361461446 0.0 0.0 0.0 0.0 0.0 0.0 0.0 18.63226270741271 0.0 1.1745390144802799 1:-0.8 2:-0.03 3:0.6 4:0.43 5:0.26 6:0.72 7:0.78 8:0.73 9:0.96 10:-0.45 11:0.99 12:-0.51 13:0.56 14:-0.65 
-0.0 -0.0 -0.0 -0.0 -0.0 -0.0 -0.0 -1.957507450039814 -0.0 -0.0 -0.0 -0.0 -0.0 -0.0 -0.0 -0.0 -0.0 -0.0 0.0 0.0 0.0 0.0 0.0 4.222807031363329 0.0 0.0 0.0 0.0 0.0 0.0 1:-0.78 2:0.06 3:0.62 4:0.38 5:0.26 6:0.62 7:0.63 8:0.64 9:0.98 10:-0.58 11:0.99 12:-0.4 13:0.71 14:-0.58 
-0.0 -0.0 -0.0 -0.0 -0.0 -0.46491579674288064 -0.0 -0.0 -0.0 -0.0 -0.0 -0.0 -0.0 -0.0 -0.0 -0.0 -0.0 -0.0 0.0 0.0 0.0 0.0 0.0 0.0 0.0 0.0 0.0 0.0 0.0 0.0 1:-0.77 2:0.08 3:0.63 4:0.38 5:0.26 6:0.62 7:0.62 8:0.63 9:0.98 10:-0.57 11:0.99 12:-0.4 13:0.71 14:-0.58 
-0.0 -5.273267202252983 -0.0 -0.0 -0.0 -0.0 -0.0 -0.0 -0.0 -0.0 -0.0 -0.0 -0.0 -0.0 -0.0 -0.0 -0.0 -0.0 0.0 0.0 0.0 0.0 0.0 0.0 0.0 0.0 0.0 0.0 0.0 0.0 1:-0.76 2:0.09 3:0.64 4:0.38 5:0.26 6:0.62 7:0.61 8:0.62 9:0.98 10:-0.58 11:0.99 12:-0.41 13:0.7 14:-0.58 
-0.0 -0.0 -0.0 -0.0 -0.0 -0.0 -0.0 -0.0 -0.0 -0.0 -0.0 -0.0 -0.0 -0.1370978247416012 -0.0 -0.0 -0.0 -0.0 0.0 0.0 0.0 0.0 0.1588830569651441 0.0 0.0 0.0 0.0 0.0 0.0 0.0 1:-0.76 2:0.1 3:0.64 4:0.38 5:0.26 6:0.63 7:0.61 8:0.63 9:0.97 10:-0.56 11:0.99 12:-0.4 13:0.7 14:-0.59 
-0.0 -0.0 -0.0 -0.0 -0.0 -0.0 -0.0 -0.0 -0.0 -0.0 -0.0 -0.0 -0.0 -0.0 -0.0 -0.0 -0.0 -0.0 0.0 0.0 0.0 0.0 0.0 0.0 0.0 0.0 0.0 0.0 7.259334963998024 0.0 1:-0.76 2:0.11 3:0.64 4:0.39 5:0.26 6:0.63 7:0.62 8:0.63 9:0.97 10:-0.56 11:0.99 12:-0.4 13:0.69 14:-0.6 
-0.0 -0.0 -0.0 -0.0 -0.0 -0.0 -0.0 -0.0 -0.0 -0.0 -0.0 -0.0 -0.0 -0.0 -0.0 -0.0 -0.0 -0.0 0.0 0.4477469870768097 0.0 0.0 0.0 0.0 0.0 5.7768988657794695 0.0 0.0 0.0 0.0 1:-0.77 2:0.1 3:0.63 4:0.4 5:0.26 6:0.61 7:0.6 8:0.62 9:0.98 10:-0.58 11:0.99 12:-0.4 13:0.69 14:-0.6 
-0.0 -0.0 -0.0 -0.0 -0.0 -0.0 -0.0 -0.0 -0.0 -0.0 -0.0 -0.0 -0.0 -1.4856363275397673 -0.0 -0.0 -0.5414024858988546 -0.0 -0.0 0.0 0.0 0.0 1.2485821876480603 0.0 0.0 0.0 0.0 0.0 0.0 0.0 1:-0.8 2:0.09 3:0.6 4:0.49 5:-0.32 6:-0.24 7:0.7 8:0.7 9:0.26 10:0.96 11:-0.8 12:-0.42 13:0.62 14:-0.66 
-0.0 -0.0 -0.0 -0.0 -0.0 -0.0 -0.0 -0.7522389977731121 -0.0 -0.0 -0.0 -0.0 -0.0 -0.0 -0.05309341885723603 -0.0 -0.0 -0.0 -0.0 0.0 0.0 0.0 0.0 0.0 0.0 0.0 0.0 0.0 0.0 0.0 1:-0.8 2:0.1 3:0.6 4:0.49 5:-0.32 6:-0.24 7:0.71 8:0.71 9:0.3 10:0.96 11:-0.79 12:-0.38 13:0.68 14:-0.63 
-0.450872797547312 -0.6977811081162177 -4.356689676029974 -0.0 -0.0 -0.0 -2.4990453362595986 -0.0 -2.144612529549127 -1.0137594718615972 -1.2241004978577015 -1.0198235810875176 -0.0 -0.0 -0.0 -0.0 -0.0 -0.0 -0.0 0.44907692466173266 0.7459835846261247 0.0 0.0 0.0 0.0 0.0 0.0 0.574518309947447 0.0 0.34466071263263265 1:-0.79 2:-0.01 3:0.62 4:0.49 5:-0.32 6:-0.24 7:0.7 8:0.71 9:0.32 10:0.96 11:-0.79 12:-0.49 13:0.62 14:-0.61 
-0.0 -0.0 -0.0 -0.0 -2.546088914068293 -0.9263010307827735 -0.0 -0.0 -0.0 -0.0 -0.0 -0.0 -0.0 -0.0 -0.8017532476785528 -4.559051132559491 -0.0 -9.760623040846632 -0.0 0.0 0.0 0.0 0.0 0.5847976548489822 3.22326881155183 0.6484100024080314 4.98245980931793 0.0 0.0 0.0 1:-0.8 2:0.03 3:0.61 4:0.48 5:-0.32 6:-0.24 7:0.7 8:0.71 9:0.33 10:0.96 11:-0.79 12:-0.44 13:0.66 14:-0.61 
-0.0 -0.0 -1.9989999907698512 -0.0 -0.0 -0.0 -0.0 -0.0 -0.0 -0.0 -0.0 -0.0 -0.0 -0.0 -0.0 -0.0 -0.0 -0.0 -0.0 0.0 0.0 0.0 0.0 0.0 0.0 0.0 0.0 0.0 0.0 0.0 1:-0.75 2:0.14 3:0.65 4:0.5 5:-0.32 6:-0.28 7:0.7 8:0.71 9:0.38 10:0.97 11:-0.81 12:-0.42 13:0.65 14:-0.63 
-0.0 -0.0 -0.0 -0.0 -0.0 -0.6252575079018582 -0.0 -0.0 -0.0 -0.0 -0.0 -0.0 -0.5023937919378008 -0.0 -0.0 -0.0 -0.0 -0.0 -0.0 0.0 0.0 0.0 0.0 0.0 0.0 0.0 0.0 0.0 0.0 0.0 1:-0.78 2:0.09 3:0.61 4:0.48 5:-0.32 6:-0.3 7:0.73 8:0.75 9:0.35 10:0.97 11:-0.78 12:-0.4 13:0.69 14:-0.61 
-0.0 -0.0 -0.0 -3.1318745307628304 -0.0 -0.0 -0.5286602902936828 -0.0 -0.0 -0.0 -0.30751963707368474 -0.0 -0.0 -0.0 -0.0 -0.0 -0.0 -0.0 -0.0 0.0 1.6456662605381789 2.0012987133824827 0.0 0.0 0.0 0.0 0.0 0.0 0.592504087775877 0.0 1:-0.6 2:0.39 3:0.69 4:0.55 5:-0.32 6:-0.31 7:0.85 8:0.9 9:0.29 10:0.99 11:-0.57 12:-0.48 13:0.52 14:-0.71 
-0.0 -0.0 -0.0 -0.5049839604166431 -0.0 -0.0 -0.0 -0.0 -0.0 -0.0 -0.0 -15.83254190214741 -0.0 -0.0 -0.0 -0.0 -0.0 -0.0 -0.0 0.0 0.0 0.0 0.0 0.0 0.0 0.0 0.0 0.0 0.0 0.0 1:-0.59 2:0.41 3:0.7 4:0.55 5:-0.32 6:0.82 7:0.85 8:0.9 9:0.29 10:0.28 11:0.61 12:-0.48 13:0.52 14:-0.71 
-0.0 -0.0 -0.0 -0.0 -0.0 -0.0 -0.0 -0.0 -0.0 -0.0 -0.0 -0.0 -0.0 -0.6939459496005533 -0.0 -0.0 -0.0 -0.0 -0.0 0.0 0.0 0.0 0.0 0.0 0.0 0.0 0.0 0.0 0.0 0.0 1:-0.58 2:0.42 3:0.7 4:0.55 5:-0.32 6:0.98 7:0.85 8:0.91 9:0.28 10:-0.13 11:0.88 12:-0.49 13:0.51 14:-0.71 
-0.0 -0.0 -0.0 -0.0 -0.0 -0.0 -0.0 -0.0 -0.0 -0.4939204735027653 -0.1557662286295476 -0.0 -0.0 -0.0 -0.0 -0.0 -0.0 -0.0 -0.0 0.0 0.0 0.0 0.0 0.0 0.0 0.0 0.0 0.0 0.0 0.0 1:-0.5 2:0.48 3:0.72 4:0.56 5:-0.25 6:0.98 7:0.86 8:0.91 9:0.29 10:-0.09 11:0.9 12:-0.52 13:0.49 14:-0.7 
-0.0 -0.0 -0.0 -2.898223787467271 -0.0 -0.0 -0.0 -0.0 -0.0 -0.0 -0.0 -0.0 -0.0 -0.0 -0.0 -0.0 -0.0 -0.0 -0.0 0.0 0.0 2.298718610302957 0.0 0.0 0.0 0.0 0.0 0.0 0.0 0.0 1:-0.48 2:0.5 3:0.72 4:0.57 5:-0.23 6:0.98 7:0.86 8:0.92 9:0.28 10:-0.07 11:0.91 12:-0.53 13:0.49 14:-0.69 
-0.8887344351311365 -0.0 -0.0 -0.0 -0.0 -0.0 -0.0 -0.0 -0.0 -0.0 -0.0 -0.0 -0.0 -0.0 -1.6049139465927809 -0.0 -0.0 -0.0 -0.0 0.44922481026354194 0.0 0.0 0.4892138635380763 0.0 0.0 0.0 0.0 0.0 0.0 0.05523531659448265 1:-0.57 2:0.47 3:0.67 4:0.58 5:-0.18 6:0.96 7:0.86 8:0.92 9:0.33 10:-0.36 11:0.99 12:-0.44 13:0.52 14:-0.74 
-0.0 -2.465505418770886 -0.0 -0.0 -0.0 -0.0 -0.0 -0.0 -0.0 -0.0 -0.0 -0.0 -0.0 -0.0 -0.0 -0.0 -0.0 -0.0 -0.0 0.0 0.0 0.0 0.0 0.0 0.0 0.0 0.0 0.5944983254483727 0.0 0.0 1:-0.6 2:0.45 3:0.66 4:0.58 5:-0.11 6:0.94 7:0.86 8:0.92 9:0.41 10:-0.33 11:0.99 12:-0.41 13:0.53 14:-0.74 
-0.0 -0.0 -0.0 -0.0 -0.0 -0.0 -0.0 -0.0 -0.0 -0.0 -0.0 -0.0 -0.0 -0.0 -0.0 -0.0 -0.0 -0.0 -0.0 0.0 0.0 0.0 0.0 0.581796332804819 0.0 0.0 0.0 0.0 0.0 0.0 1:-0.62 2:0.44 3:0.65 4:0.58 5:-0.08 6:0.94 7:0.86 8:0.92 9:0.44 10:-0.31 11:0.99 12:-0.4 13:0.54 14:-0.74 
-0.0 -0.0 -0.0 -0.0 -0.0 -0.0 -0.0 -1.703729425712295 -0.0 -0.0 -0.0 -0.0 -0.0 -0.0 -0.0 -0.0 -2.929245208356267 -0.0 -9.877391774061694 0.0 0.0 0.0 0.0 0.679858099308363 0.0 1.4599080476793516 0.0 0.0 0.0 0.0 1:-0.63 2:0.43 3:0.64 4:0.59 5:0.01 6:0.94 7:0.86 8:0.92 9:0.53 10:-0.25 11:0.99 12:-0.38 13:0.55 14:-0.74 
-0.0 -0.0 -0.0 -0.0 -0.0 -0.0 -0.0 -0.0 -0.0 -0.0 -0.0 -0.0 -0.0 -0.0 -0.0 -0.0 -0.0 -0.0 -0.0 0.0 0.0 0.0 0.0 0.0 0.0 0.0 0.0 0.0 7.758722310367024 0.0 1:-0.55 2:0.49 3:0.68 4:0.58 5:0.17 6:0.96 7:0.91 8:0.95 9:0.71 10:-0.03 11:0.99 12:-0.39 13:0.57 14:-0.72 
-0.0 -0.0 -0.0 -0.0 -0.0 -1.4504477260067536 -0.0 -0.0 -0.0 -0.0 -0.0 -0.0 -0.5614150387113522 -0.0 -1.8684194317429015 -0.0 -2.084943450502341 -0.35467388104702213 -23.31282084762434 0.0 0.0 0.0 0.0 1.8617398930563185 0.13189360858364307 3.06698609774571 0.0 0.0 0.0 0.0 1:-0.82 2:0.11 3:0.56 4:0.58 5:0.22 6:0.97 7:0.92 8:0.97 9:0.77 10:0.07 11:1.0 12:-0.42 13:0.55 14:-0.72 
-0.0 -0.0 -0.0 -0.0 -0.0 -0.0 -0.0 -0.0 -0.0 -0.21169956613743326 -0.0 -44.23570834195862 -0.0 -0.0 -0.0 -0.0 -6.879836983864248 -0.0 -8.690287677100077 2.424858207370923 0.11325795577788415 0.0 0.0 0.0 0.0 0.0 0.0 10.53948265323474 0.0 2.9439353546756384 1:-0.8 2:0.07 3:0.6 4:0.56 5:0.22 6:0.97 7:0.92 8:0.96 9:0.75 10:0.08 11:1.0 12:-0.54 13:0.34 14:-0.77 
-0.0 -0.0 -0.0 -9.909921501275909 -0.0 -0.0 -0.0 -0.0 -0.0 -0.0 -0.0 -0.0 -0.0 -0.0 -0.0 -0.0 -0.0 -0.0 -0.0 0.0 0.0 0.0 0.0 0.0 0.0 0.0 0.0 0.0 2.578555957657136 0.0 1:-0.81 2:0.13 3:0.57 4:0.55 5:1.0 6:0.98 7:0.92 8:0.96 9:0.6 10:0.97 11:1.0 12:-0.54 13:0.2 14:-0.82 
-0.0 -0.0 -3.5398233456183936 -11.543167972301639 -0.0 -0.0 -1.4528638405238317 -0.0 -0.41468393939839604 -0.7586997488408231 -0.0 -0.0 -0.0 -0.0 -0.0 -0.0 -0.0 -0.0 -0.0 0.0 0.0 1.6334756126896999 0.0 0.0 0.0 0.0 0.0 0.0 0.0 0.0 1:-0.82 2:0.1 3:0.56 4:0.55 5:0.99 6:0.98 7:0.92 8:0.94 9:0.48 10:0.99 11:0.99 12:-0.54 13:0.13 14:-0.83 
-2.7310489862799767 -0.7687470256575493 -0.0 -0.0 -3.04366433162811 -1.5656202165655817 -0.0 -1.8974985467760657 -1.6414376542738593 -2.8744111425708994 -4.442155817153612 -25.357822844633976 -4.217892606141293 -1.8812568695457677 -1.5033378791262304 -1.9949438385871825 -0.0 -3.8531552883487143 -0.0 0.4086091559858679 2.7778295861307893 2.054929357954486 1.757239130621691 0.0 1.7389713837968297 0.0 2.58424425214802 0.0 0.0 1.3030799626521565 1:-0.83 2:-0.27 3:0.49 4:0.55 5:0.99 6:0.98 7:0.92 8:0.93 9:0.46 10:0.99 11:0.99 12:-0.55 13:0.25 14:-0.8 
-0.0 -0.0 -0.0 -0.0 -0.0 -0.0 -0.0 -0.0 -0.0 -0.0 -0.0 -0.0 -0.0 -0.0 -0.0 -0.0 -0.0 -0.0 -0.0 -0.0 0.0 0.0 0.0 0.41094949080527604 0.0 0.0 0.0 0.0 0.0 0.0 1:0.26 2:-0.66 3:0.71 4:0.6 5:0.58 6:0.24 7:0.27 8:0.24 9:0.92 10:-0.65 11:0.99 12:-0.24 13:-0.75 14:-0.61 
-5.2465317957158355 -0.0 -0.0 -0.0 -0.0 -0.0 -0.0 -0.0 -0.0 -0.0 -0.0 -0.0 -0.0 -2.167873099354305 -0.0 -0.0 -0.0 -0.0 -0.0 -0.0 0.0 0.0 1.8940564444917505 0.0 0.0 0.0 0.0 0.0 0.0 0.0 1:0.21 2:-0.66 3:0.72 4:0.6 5:0.59 6:0.26 7:0.3 8:0.26 9:0.91 10:-0.62 11:0.99 12:-0.22 13:-0.75 14:-0.62 
-0.0 -0.0 -0.0 -0.0 -1.6444744120571861 -2.268905294675302 -0.0 -2.9146639576767197 -0.0 -0.0 -0.0 -0.0 -0.0 -0.0 -3.4648883883372084 -2.520092722616536 -0.0 -0.463619562230131 -0.0 -0.0 0.0 0.0 0.0 3.023373401180104 2.0794859867354374 3.759309109175103 1.0209124980232016 0.0 0.0 0.0 1:0.19 2:-0.67 3:0.72 4:0.61 5:0.6 6:0.26 7:0.31 8:0.27 9:0.94 10:-0.61 11:0.99 12:-0.22 13:-0.74 14:-0.63 
-0.0 -0.0 -0.0 -0.0 -0.0 -0.0 -0.0 -0.0 -0.0 -0.0 -0.0 -0.0 -0.0 -0.0 -0.0 -0.0 -0.0 -0.0 -0.0 -0.0 0.0 0.0 0.0 0.0 0.0 0.4019273115423727 0.0 0.0 0.0 0.0 1:0.18 2:-0.66 3:0.73 4:0.61 5:0.6 6:0.26 7:0.32 8:0.27 9:0.95 10:-0.61 11:0.99 12:-0.21 13:-0.75 14:-0.63 
-0.0 -0.0 -0.0 -0.0 -0.0 -0.0 -0.0 -0.0 -0.0 -0.0 -0.0 -0.0 -0.0 -0.0 -0.0 -0.0 -1.7489913226455251 -0.0 -0.0 -0.0 0.0 0.0 0.0 0.0 0.0 0.0 0.0 0.0 0.0 0.0 1:0.16 2:-0.62 3:0.77 4:0.61 5:0.57 6:0.29 7:0.34 8:0.3 9:0.95 10:-0.61 11:0.99 12:-0.2 13:-0.78 14:-0.59 
-0.0 -0.0 -0.0 -3.286775234446889 -0.5106617970406162 -0.0 -3.657532095862552 -0.0 -0.00220122350105459 -0.0 -4.461552024302341 -3.637874623927241 -2.042993021132169 -0.0 -0.0 -0.0 -2.3039751767640024 -1.6989306668812558 -4.158273876970793 -3.731769098282066 4.065379632072977 0.0 0.0 0.0 0.0 0.0 0.15103639699014595 0.0 3.570658707931913 37.02667910228259 1:0.19 2:-0.59 3:0.78 4:0.61 5:0.59 6:0.35 7:0.38 8:0.35 9:0.94 10:-0.55 11:0.99 12:-0.23 13:-0.8 14:-0.55 
-0.0 -0.0 -2.4724880481493052 -0.0 -0.0 -0.0 -0.0 -0.0 -3.327698122393258 -5.63704273108121 -0.0 -0.0 -0.0 -0.0 -0.0 -0.0 -0.0 -0.0 -0.0 -0.0 0.0 2.666365339635772 0.0 0.0 0.0 0.0 1.0058498283984763 8.30925873372232 0.0 0.0 1:0.18 2:-0.59 3:0.79 4:0.61 5:0.59 6:0.35 7:0.37 8:0.31 9:0.94 10:-0.55 11:0.99 12:-0.23 13:-0.8 14:-0.55 
-0.0 -4.963740926651663 -0.0 -0.0 -0.0 -0.0 -0.0 -0.0 -0.0 -0.0 -0.0 -0.0 -0.0 -0.0 -0.0 -0.0 -0.0 -0.0 -0.0 -0.0 0.0 0.0 0.0 0.0 0.0 0.0 0.0 0.0 0.0 0.0 1:0.16 2:-0.52 3:0.84 4:0.61 5:0.57 6:0.22 7:0.25 8:0.2 9:0.98 10:-0.68 11:0.99 12:-0.25 13:-0.84 14:-0.47 
-3.516358530571414 -1.4823666615803928 -0.0 -4.689117234806402 -1.430435051048156 -2.4114134262413365 -0.0 -1.9682441417272398 -0.0 -12.479872800164795 -16.135568964555475 -4.72322191641977 -2.432942460788758 -2.3313022967120456 -2.7715975626952982 -1.1029622280657803 -2.717265646750944 -1.0477426179713398 -2.7440635494094883 -5.282737387072977 -4.044531974091603 3.303249870102459 1.8106885152378047 1.9472427840535904 0.0 2.111136962918735 0.0 3.371446919058354 2.767989979107784 5.683883651447616 1:0.22 2:-0.61 3:0.76 4:0.56 5:0.37 6:0.37 7:0.87 8:0.9 9:0.79 10:0.99 11:0.01 12:-0.28 13:-0.79 14:-0.55 
-0.0 -0.0 -0.0 -0.0 -0.0 -0.0 -12.711743947298963 -0.0 -0.0 -0.0 -0.0 -0.0 -0.0 -0.0 -0.0 -0.0 -0.0 -0.0 -0.0 -0.0 -0.0 0.0 0.0 0.0 0.0 0.0 0.0 0.0 0.0 0.0 1:0.35 2:-0.56 3:0.75 4:0.54 5:0.33 6:0.38 7:0.71 8:0.7 9:0.75 10:1.0 11:-0.35 12:-0.3 13:-0.82 14:-0.48 
-0.0 -0.0 -0.0 -0.0 -0.0 -0.0 -0.0 -0.0 -0.0 -0.0 -0.0 -0.0 -0.0 -0.0 -0.0 -0.0 -0.0 -0.0 -0.0 -0.0 -0.0 0.0 0.16693726615337462 0.0 0.0 0.0 0.0 0.0 0.0 0.0 1:0.37 2:-0.57 3:0.73 4:0.54 5:0.33 6:0.38 7:0.71 8:0.7 9:0.75 10:1.0 11:-0.35 12:-0.31 13:-0.82 14:-0.48 
-0.0 -0.0 -0.0 -0.0 -0.0 -0.0 -0.0 -0.0 -0.0 -0.0 -0.0 -0.0 -0.0 -0.0 -0.0 -0.0 -0.0 -0.0 -0.0 -0.0 -0.0 0.0 0.0 0.0 1.6099052924145507 0.0 0.0 0.0 0.0 0.0 1:0.36 2:-0.58 3:0.73 4:0.54 5:0.33 6:0.38 7:0.7 8:0.7 9:0.76 10:1.0 11:-0.35 12:-0.31 13:-0.82 14:-0.49 
-0.0 -0.0 -0.0 -0.0 -1.8911138570703894 -0.0 -0.0 -0.0 -0.4331234748082562 -0.0 -0.0 -0.0 -0.0 -0.0 -0.0 -2.692364809310345 -0.0 -0.0 -0.0 -0.0 -0.0 0.0 0.0 0.0 1.626192156651936 0.0 0.0 0.0 0.0 0.0 1:0.3 2:-0.58 3:0.76 4:0.54 5:0.34 6:0.38 7:0.7 8:0.7 9:0.77 10:1.0 11:-0.36 12:-0.3 13:-0.81 14:-0.5 
-0.0 -0.0 -0.0 -0.0 -0.0 -0.0 -0.0 -0.0 -0.3640935725921876 -0.0 -0.0 -0.0 -0.0 -0.0 -0.0 -0.0 -0.0 -2.8593851133748602 -0.0 -0.0 -0.0 0.0 0.0 0.0 0.0 0.0 3.4620837907161 0.0 0.0 0.0 1:0.19 2:-0.53 3:0.83 4:0.55 5:0.35 6:0.38 7:0.7 8:0.69 9:0.8 10:1.0 11:-0.36 12:-0.26 13:-0.84 14:-0.48 
-0.0 -0.0 -0.0 -0.0 -0.0 -0.0 -0.0 -0.0 -3.7434931659828146 -0.0 -0.0 -0.0 -0.0 -0.0 -0.0 -0.0 -0.0 -0.0 -0.0 -0.0 -0.0 0.0 0.0 0.0 0.0 0.0 0.0 0.0 0.0 0.0 1:0.27 2:-0.52 3:0.81 4:0.52 5:0.34 6:0.38 7:0.59 8:0.59 9:0.92 10:1.0 11:-0.51 12:-0.37 13:-0.83 14:-0.41 
-0.0 -0.7261087886159477 -6.592467229647291 -0.0 -0.0 -0.0 -0.0 -0.10575135869989713 -0.0 -0.0 -0.0 -0.0 -0.0 -0.0 -0.0 -0.0 -0.0 -0.0 -0.0 -0.0 -0.0 0.0 0.0 0.0 0.0 0.0 0.5639193068252332 0.0 0.0 0.0 1:0.16 2:-0.48 3:0.86 4:0.57 5:0.47 6:0.46 7:0.6 8:0.6 9:0.96 10:1.0 11:-0.41 12:-0.33 13:-0.85 14:-0.41 
-0.0 -0.061863790568357085 -0.0 -0.0 -0.0 -0.0 -0.0 -0.0 -0.0 -0.0 -0.0 -0.0 -0.0 -0.0 -0.0 -0.0 -0.0 -0.0 -0.0 -0.0 -0.02084765798137406 0.0 0.0 0.0 0.0 0.0 0.0 0.0 0.037540870644931494 0.0 1:0.17 2:-0.45 3:0.87 4:0.57 5:0.47 6:0.46 7:0.59 8:0.59 9:0.96 10:1.0 11:-0.42 12:-0.31 13:-0.87 14:-0.39 
-0.0 -0.0 -0.0 -0.0 -0.0 -0.0 -0.0 -0.0 -11.741541144910954 -0.0 -0.0 -0.0 -0.0 -0.0 -0.0 -0.0 -0.0 -0.0 -0.0 -0.0 -0.0 0.0 0.0 0.0 0.0 0.0 0.0 0.0 0.0 0.0 1:0.17 2:-0.45 3:0.87 4:0.57 5:0.47 6:0.46 7:0.59 8:0.59 9:0.96 10:1.0 11:-0.43 12:-0.31 13:-0.87 14:-0.39 
-0.0 -0.0 -0.0 -0.0 -0.0 -0.0 -84.78179164886836 -0.0 -0.0 -0.0 -0.0 -0.0 -0.0 -0.0 -0.0 -0.0 -0.0 -0.0 -0.0 -0.0 -0.0 0.0 0.0 0.0 0.0 0.0 0.0 0.0 0.0 0.0 1:0.18 2:-0.45 3:0.88 4:0.57 5:0.47 6:0.45 7:0.59 8:0.59 9:0.96 10:1.0 11:-0.43 12:-0.31 13:-0.87 14:-0.39 
-0.0 -0.0 -0.0 -0.0 -0.0 -0.015046024752714124 -0.0 -1.3138365477195197 -0.0 -0.0 -0.0 -0.0 -0.1751122697903361 -0.0 -0.0 -0.0 -0.0 -0.05824174252494003 -3.416529378679029 -5.33188802932098 -0.0 -0.0 0.0 0.0 0.0 0.06842208455566434 0.0 0.0 0.0 0.0 1:-0.29 2:0.2 3:0.94 4:0.61 5:0.41 6:0.36 7:0.64 8:0.36 9:-0.45 10:0.99 11:0.98 12:-0.84 13:0.41 14:-0.35 
-0.0 -0.0 -0.0 -0.0 -1.1017044697026925 -0.0 -0.0 -0.0 -0.0 -0.0 -0.0 -0.0 -0.06507255099396761 -0.0 -0.0 -1.3555261235199272 -0.0 -2.7403130682029775 -0.0 -0.0 -0.0 -0.0 0.0 0.21990775693794953 0.3226744302734986 2.2040993893525247 0.0 0.0 0.0 0.0 1:-0.31 2:0.19 3:0.93 4:0.61 5:0.41 6:0.35 7:0.65 8:0.35 9:-0.45 10:0.99 11:0.98 12:-0.87 13:0.34 14:-0.36 
-0.0 -0.0 -0.0 -11.41531634450582 -0.0 -0.0 -0.0 -0.0 -0.0 -0.0 -0.0 -8.03593107494821 -0.0 -0.0 -0.0 -0.0 -0.0 -0.0 -0.0 -2.6565342650086463 -0.0 -0.0 0.0 0.0 0.0 0.0 0.0 0.0 0.0 0.0 1:-0.31 2:0.2 3:0.93 4:0.61 5:0.41 6:0.35 7:0.66 8:0.35 9:-0.45 10:0.99 11:0.98 12:-0.88 13:0.3 14:-0.36 
